%YAML:1.0
---
opencv_ml_svm:
   format: 3
   svmType: C_SVC
   kernel:
      type: LINEAR
   C: 2.6699999999999999e+00
   term_criteria: { epsilon:1.1920928955078125e-07, iterations:1000 }
   var_count: 64
   class_count: 4
   class_labels: !!opencv-matrix
      rows: 4
      cols: 1
      dt: i
      data: [ 0, 1, 2, 3 ]
   sv_total: 6
   support_vectors:
      - [ -1.66860184e-06, 8.00820260e-07, 5.89604042e-07,
          1.67733887e-07, 1.22744473e-06, 2.66830739e-07, 6.07013078e-07,
          1.49279197e-06, -1.86251543e-06, -8.97360678e-07,
          -2.56421890e-06, -3.06161473e-06, -3.02716694e-06,
          -1.44513422e-06, -3.09058493e-07, 1.08660217e-07,
          -1.64225025e-06, 8.92157823e-06, -3.69410782e-06,
          -1.40558200e-06, 7.79820675e-06, 1.50698338e-06,
          2.30876276e-06, 6.60924934e-06, 1.13544347e-05, 3.23829117e-05,
          -2.34677623e-06, -6.52343761e-06, 1.16738295e-06,
          -9.71716418e-07, 6.28106682e-06, 1.60131549e-05,
          -3.51395738e-06, 1.05043682e-06, 2.85798615e-06,
          -6.75584306e-06, -4.54266092e-06, -1.57890292e-06,
          -7.14305952e-06, -2.36708752e-06, -6.86495741e-06,
          -5.62580317e-06, 6.35542756e-06, 4.81444090e-07,
          -7.75013359e-06, -7.01336376e-06, -9.13204167e-06,
          1.87799549e-06, -9.00107352e-06, 2.44406783e-05,
          -5.62394644e-06, 1.31665774e-05, -1.46911134e-05,
          -1.02257391e-05, 6.28146108e-06, 1.37006928e-05,
          1.57304348e-05, 1.41108703e-05, 1.95198063e-05, 4.53806661e-06,
          -3.36264930e-06, -1.82796775e-05, -1.53424401e-06,
          1.52549464e-05 ]
      - [ 9.70370706e-07, 1.89822674e-06, -5.48885555e-06,
          -1.08679915e-05, 1.90096091e-06, 1.41270050e-06,
          3.50703021e-06, 2.31954823e-06, 8.35779701e-07,
          -8.67747872e-07, -7.87021804e-07, -1.35947778e-06,
          -2.03731111e-06, -8.89837224e-07, -1.13116478e-07,
          1.50747769e-06, -1.26223340e-05, -2.50035155e-05,
          3.39306303e-06, -1.33302058e-06, 1.68145959e-06,
          8.50193373e-07, 3.00703186e-06, 6.18453669e-06,
          -5.42964654e-06, -9.13897168e-07, -1.47288949e-06,
          -6.08893424e-06, 2.05023957e-06, -3.71486385e-06,
          1.78586060e-06, 1.36012932e-05, 1.35681574e-07,
          -2.48234915e-06, 3.52863321e-06, -5.02115427e-06,
          -3.03396646e-05, -2.27960527e-07, 1.05881663e-05,
          -1.56099713e-06, -6.74992179e-06, 1.13274029e-06,
          4.61325044e-07, -9.54381721e-06, -1.81299092e-05,
          -2.44457920e-06, 1.93566211e-06, 4.46827653e-06,
          -7.28509895e-06, 2.69599805e-05, 8.12367580e-06,
          -7.73823956e-07, -1.86160432e-05, -8.48054242e-06,
          7.66039011e-06, 1.60392919e-05, -7.78905633e-06,
          1.87920723e-05, 5.82352732e-06, -2.82509495e-06,
          -2.04683547e-05, -1.55717735e-05, 1.52222890e-06,
          7.68552854e-06 ]
      - [ 5.04849424e-07, -5.56994701e-06, -3.74564411e-06,
          8.72509034e-08, 5.37248354e-07, 6.79129855e-08, 3.03873321e-06,
          1.57903980e-06, 7.87466661e-07, -2.30120577e-06,
          -7.03364492e-07, -1.52736118e-06, -6.28275359e-07, 0.,
          1.73210793e-07, 1.69830571e-06, -1.14647582e-05,
          -5.57729891e-06, 4.03147578e-06, 2.38169810e-06,
          1.13859267e-06, -1.80825407e-06, -6.96563757e-06,
          -6.07185427e-07, -2.82153542e-06, 1.06276666e-05,
          2.85271199e-06, -7.94425858e-08, 4.09118748e-08,
          -5.46592946e-06, -1.87797662e-06, 5.59364344e-06,
          -6.28753287e-06, -3.00470879e-06, 6.38729853e-06,
          -1.32860314e-05, 4.77524691e-06, 3.50427243e-08,
          4.79966138e-06, -5.11110159e-07, -4.28968679e-06,
          -8.57830764e-06, -9.18324895e-06, 2.64305663e-06,
          2.20866028e-08, 6.43814602e-08, 1.06030029e-06, 2.01466901e-06,
          -1.14385502e-05, 2.11532606e-05, 1.32251844e-05,
          4.29936335e-06, -3.20623576e-06, -1.19409760e-05,
          -1.04488754e-05, 1.20836903e-05, 1.23171810e-06,
          2.98323648e-05, 9.44601197e-06, 8.96203233e-07, 4.55751479e-06,
          -8.02689829e-06, 2.67137852e-06, 1.17116515e-05 ]
      - [ -9.15529540e-07, -4.36169302e-07, -4.94560709e-06,
          -5.44088743e-06, -3.34482564e-07, 0., 0., 0., 6.25676307e-07,
          -2.07641165e-06, 3.72386950e-07, 4.29239833e-07,
          -9.94874767e-07, -4.63318202e-07, -7.87833358e-07,
          -9.89630735e-07, -9.42904808e-06, -2.06546720e-05,
          3.17914487e-06, -5.29864428e-06, -6.61549302e-06,
          -4.62780605e-07, -6.83652218e-07, -5.11362668e-06,
          -2.29591187e-05, -2.45142055e-05, -1.31828722e-06,
          -2.92449954e-06, 4.11913241e-08, -1.68697306e-06,
          -2.16884519e-06, -1.02494687e-05, 1.84434998e-06,
          -2.63740003e-06, -1.81474263e-06, -2.23979964e-06,
          -1.64421854e-05, 1.06421965e-06, 1.10037827e-05,
          -2.22547897e-06, 5.30237060e-07, 8.51512596e-06,
          -2.25850317e-06, -8.30101453e-06, -7.52573806e-06,
          3.63813501e-06, 9.10275412e-06, 2.82736141e-06, 6.20115998e-06,
          1.09706234e-05, 1.55106209e-05, -1.83455486e-05,
          -1.48593863e-05, 7.42699683e-07, 2.80032896e-06,
          -6.51116989e-06, -1.50015467e-05, 2.36985056e-06,
          -1.07090818e-05, -8.91823856e-06, -1.57648556e-05,
          -3.79402809e-06, -6.35069591e-06, -2.15156015e-05 ]
      - [ -1.76718027e-06, -5.16652244e-06, -6.03824674e-06,
          -1.48898812e-06, -5.17025249e-08, 0., 0., 0., 1.16578678e-06,
          1.29386336e-07, 1.12601856e-06, 1.34443872e-06, 1.16578678e-06,
          6.34597882e-07, 2.60181082e-07, 0., -2.98607338e-05,
          -1.47885721e-05, 4.08225560e-06, 2.97147449e-06,
          3.90790206e-07, -1.46850243e-06, -1.18634662e-05,
          -1.09370012e-05, -1.29936561e-05, -9.97887582e-06,
          5.77521803e-07, 3.01767966e-09, -2.88949423e-06,
          -1.22602360e-05, -2.35786820e-06, -1.15718240e-05,
          -7.65933419e-06, -8.90260708e-06, 6.77858270e-06,
          -1.38386295e-05, -1.05432878e-06, -3.14884051e-06,
          1.72252965e-06, -5.25650557e-06, 7.19548325e-07,
          -7.20533535e-06, -9.92535115e-06, 3.68297174e-06,
          4.05315041e-06, 3.87349974e-06, 7.60333751e-06,
          -6.77952926e-07, -1.24034441e-05, 2.39910078e-05,
          1.19629931e-05, -7.25925747e-06, 5.04087848e-06,
          -4.94198048e-06, -8.27568419e-06, -1.15210460e-05,
          -6.15556974e-06, -1.92743400e-07, -1.23957443e-06,
          -6.02388127e-06, 2.34060440e-06, -1.21119513e-06,
          6.54290852e-06, -2.14378870e-05 ]
      - [ -2.58935870e-06, -7.40259838e-06, 7.12791234e-07,
          5.11400185e-06, 5.21898258e-08, -9.79463337e-08,
          -1.73863235e-08, 0., 6.91451987e-07, 4.51058469e-07,
          6.63154935e-07, 1.73344927e-06, 2.07915127e-06, 9.79276138e-07,
          4.15122798e-07, 1.81371078e-08, -1.52830416e-05,
          6.90037677e-06, 7.77335845e-06, 7.57140106e-06, 5.50455161e-06,
          -2.13053659e-06, -1.23563768e-05, -3.81619748e-06,
          8.07172000e-06, 8.46044713e-06, 2.60595721e-06, 5.73779835e-06,
          -2.03141349e-06, -1.35133641e-05, 6.14947226e-07,
          3.49758557e-06, -7.15970509e-06, -5.00088572e-06,
          2.30240039e-06, -1.48026475e-05, 1.97383615e-05,
          -1.25910401e-06, -6.57683540e-06, -1.73877163e-06,
          8.03041439e-06, -1.34885940e-05, -2.38087578e-05,
          1.27701196e-05, 1.41604887e-05, 1.56503165e-06,
          -1.19546235e-06, 2.27461442e-06, -1.92928910e-05,
          7.55558221e-06, 1.38021296e-05, 1.06872158e-05, 1.62554752e-05,
          -1.16622059e-05, -1.62602082e-05, 6.92297181e-06,
          1.04919709e-05, 1.19898432e-05, 6.35702463e-06, 4.88176556e-06,
          1.73323479e-05, 3.54227154e-07, 9.46340970e-06, 5.96872769e-06 ]
   uncompressed_sv_total: 18
   uncompressed_support_vectors:
      - [ 0., 0., 0., 0., 0., 0., 0., 0., 0., 0., 0., 0., 0., 0., 0., 0.,
          1.24809631e+03, 4.05149829e+03, 8.09952734e+03, 1.66906470e+03,
          3.62010742e+03, 6.18379639e+02, 1.03002344e+03, 6.81703735e+02,
          3.70807080e+03, 1.49445479e+04, 3.81019067e+03, 0., 2040., 0.,
          4.65814117e+02, 5.01114551e+03, 3.15279053e+03, 3.10356885e+03,
          1.20478867e+04, 7.64019092e+03, 0., 1.83876855e+03,
          4.26927637e+03, 9.73573608e+02, 2.97819653e+03, 3.49402661e+03,
          1.07731172e+04, 7.21145215e+03, 0., 0., 6.52993088e+01,
          3.99575586e+03, 1.32879375e+04, 2.76315352e+04, 2.02332285e+04,
          1.56824814e+04, 1.11792988e+04, 1.40762549e+04, 1.49540723e+04,
          2.05986387e+04, 1.98152012e+04, 1.74174395e+04, 2.30907637e+04,
          1.50562705e+04, 1.58241953e+04, 1.06054141e+04, 1.48672646e+04,
          1.36287627e+04 ]
      - [ 0., 0., 0., 0., 0., 0., 0., 0., 0., 0., 0., 0., 0., 0., 0., 0.,
          9.58704492e+03, 7.73800928e+03, 3.40698193e+03, 2.65520581e+03,
          3.44805200e+03, 1.60137390e+03, 1.25277759e+03, 2.71825586e+03,
          8.78807715e+03, 1.35063037e+04, 2.30484961e+03, 2.00997505e+01,
          2040., 7.04131714e+02, 4.64702002e+03, 7.30270947e+03,
          4.62919531e+03, 6.79229443e+03, 1.05555625e+04, 1.70837866e+03,
          7.59743408e+02, 9.09343689e+02, 3.72752344e+03, 3.46382251e+03,
          2.15371704e+03, 3.61505298e+03, 7.49193604e+03, 7.03460742e+03,
          2.77759961e+03, 1.40636917e+02, 3.01582489e+02, 1.71851917e+03,
          1.94274609e+04, 2.37749004e+04, 2.19731543e+04, 7.40634375e+03,
          9.51465137e+03, 9.73655859e+03, 2.19196367e+04, 1.71490742e+04,
          3.01861328e+04, 3.34541133e+04, 5.19016260e+03, 7.69556201e+03,
          8.67690820e+03, 8.87751367e+03, 1.39092129e+04, 1.54400752e+04 ]
      - [ 4.39904736e+03, 3.26192920e+03, 1.03397095e+03, 1.58623535e+03,
          2.30364160e+03, 2.49586523e+03, 6.86817871e+03, 1.51953113e+03,
          0., 0., 0., 0., 32., 0., 4.88466988e+01, 4.11055078e+03,
          1.39436289e+04, 6.38832458e+02, 0., 4.17612267e+01,
          5.89751709e+02, 0., 4.52779980e+03, 1.37336309e+04,
          1.28609307e+04, 9.61703308e+02, 2.73736401e+03, 3.09339380e+03,
          1.15475143e+02, 9.48472443e+01, 4.83739532e+02, 2.21734121e+04,
          1.12873057e+04, 1.40332598e+04, 3.67923267e+03, 4.57995215e+03,
          2.20079258e+04, 1.36822275e+04, 1.62939561e+04, 5.39617676e+03,
          6.79743555e+03, 2.92851563e+03, 1.97621240e+03, 1.84174744e+03,
          6.73832336e+02, 1.75527673e+03, 5.16997070e+03, 6.79896240e+03,
          3.38531719e+04, 2.88904077e+03, 2.15689697e+03, 4.47452209e+02,
          3.99664185e+03, 7.01422412e+03, 2.06129863e+04, 4.89750430e+04,
          4.22045547e+04, 2.38262598e+04, 4.95025293e+03, 3.01271777e+03,
          7.14074658e+03, 5.53774902e+03, 3.16466113e+04, 7.57176016e+04 ]
      - [ 6.06207178e+03, 1.27137139e+04, 8.58941223e+02, 0.,
          7.84346863e+02, 5.95383911e+02, 3.22328345e+03, 3.17005054e+03,
          1.89486963e+03, 9.81965149e+02, 0., 0., 0., 0., 0., 0.,
          1.16840732e+04, 6.31360791e+03, 4.10300964e+02, 0., 2024., 0.,
          5.01022949e+02, 8.69323926e+03, 2.02748379e+04, 8.72885645e+03,
          1.99332825e+03, 8.33005615e+02, 2.64366992e+03, 2.34104932e+03,
          7.20241211e+03, 9.25684863e+03, 1.18299834e+04, 1.59867520e+04,
          5.80556445e+03, 4.07844556e+03, 2.67462280e+03, 6.08068018e+03,
          1.24114766e+04, 9.88770508e+03, 5.46006104e+03, 2.66477100e+03,
          4.92913788e+02, 1.90647705e+03, 2.01196851e+03, 1.48138147e+03,
          1.10114136e+03, 4.07946075e+02, 7.50768984e+04, 3.76526953e+04,
          4.80112939e+03, 3.09865063e+03, 3.40009302e+03, 8.96296973e+03,
          1.52777822e+04, 1.33813535e+04, 6.10063555e+04, 5.82802461e+04,
          9.82964453e+03, 5.66872998e+03, 6.98631006e+03, 6.55556445e+03,
          1.25687031e+04, 9.20869727e+03 ]
      - [ 2.60461121e+02, 2.30915918e+03, 1.70011890e+03, 4.83659393e+02,
          3.53932764e+03, 7.69404480e+02, 1.75031763e+03, 4.30445459e+03,
          4.09426392e+03, 4.47213602e+00, 0., 0., 736., 0.,
          8.17289246e+02, 3.13320923e+02, 8.71455762e+03, 5.48495215e+03,
          9.24453857e+02, 1.71622266e+03, 5.53300720e+02, 6.00300781e+02,
          2.52696802e+03, 1.15601182e+04, 3.09572461e+03, 8.39681824e+02,
          5.96154327e+01, 2.03307629e+03, 5.72202051e+03, 1.13169397e+03,
          1.15416631e+04, 1.62046406e+04, 6.02982568e+03, 2.06228535e+04,
          1.14197998e+04, 2.72639526e+03, 7.48146094e+03, 6.28608057e+03,
          3.71333618e+03, 6.74390234e+03, 9.71216797e+03, 8.38249512e+03,
          2.95566797e+03, 5.09436377e+03, 1.31269019e+03, 3.55688080e+02,
          1.29701172e+03, 2.82728247e+03, 6.19656484e+04, 2.76247500e+04,
          3.41289746e+03, 3.83078613e+03, 8.38204004e+03, 6.24422363e+03,
          8.56124609e+03, 2.03775762e+04, 4.93127656e+04, 5.47691250e+04,
          1.19538086e+04, 5.07204102e+03, 5.71940283e+03, 8.44234961e+03,
          8.09783447e+03, 7.35910303e+03 ]
      - [ 6.78645850e+03, 6.76992285e+03, 1.28948596e+03, 0.,
          1.98649927e+03, 2.40368579e+03, 1.61227405e+03, 1.89643115e+03,
          2.67881689e+03, 1.46266162e+03, 0., 0., 0., 0., 0., 0.,
          1.44330127e+04, 9.28457422e+03, 2.29211685e+02, 0., 2040., 0.,
          0., 0., 2.53308906e+04, 1.32477734e+04, 8.48646011e+01, 0., 0.,
          0., 0., 0., 6.28787354e+03, 2.43937305e+04, 1.10129375e+04,
          2.77031104e+03, 5.52355078e+03, 3.23570972e+03, 1.07589180e+04,
          8.73387988e+03, 1.29816104e+04, 6.24861719e+03, 1.10123218e+03,
          1.58393237e+03, 1.67896826e+03, 3.39425995e+02, 1.13141614e+03,
          7.31116028e+02, 7.69313438e+04, 3.78072461e+04, 4.08645532e+03,
          2.10237961e+01, 404., 3.61138135e+03, 1.41070371e+04,
          2.81182090e+04, 6.40516758e+04, 4.06466641e+04, 3.71863916e+03,
          2.54819556e+03, 4.68296240e+03, 2.08064258e+03, 1.03712773e+04,
          4.27192695e+04 ]
      - [ 0., 0., 0., 0., 0., 0., 0., 0., 0., 0., 0., 0., 0., 0., 0., 0.,
          1.15770618e+03, 5.57531677e+02, 0., 2.31905151e+02,
          2.44135208e+02, 7.26307129e+02, 1.16948242e+03, 0., 764., 0.,
          0., 0., 0., 0., 1.88302948e+02, 6.51676270e+02, 4.74348828e+03,
          6.60632910e+03, 9.33059277e+03, 7.97662415e+02, 2.63318066e+03,
          3.29642236e+03, 2.98806104e+03, 1.86723193e+03, 5.04153662e+03,
          5.68571240e+03, 1.03537646e+04, 0., 0., 1.64768396e+03,
          4.42256836e+03, 2.00862732e+03, 2.83516328e+04, 2.02608848e+04,
          3.24428809e+03, 2.64817358e+03, 1.48453037e+04, 2.03555000e+04,
          1.78847832e+04, 8.76957422e+03, 2.43121582e+04, 3.13444409e+03,
          8.37530273e+03, 7.07965479e+03, 1.28369570e+04, 1.64793105e+04,
          1.92801660e+04, 5.89759424e+03 ]
      - [ 1016., 0., 0., 0., 0., 0., 0., 0., 1896., 5.19232788e+02,
          1.48115393e+03, 1.76846167e+03, 1896., 8.34743958e+02,
          3.42239685e+02, 0., 6.33612158e+03, 1.98322595e+03,
          1.11525908e+04, 3.47586938e+03, 40., 0., 0., 0., 0.,
          1.41421356e+01, 5.74202002e+03, 4.18163037e+03, 3.06547900e+03,
          1.00762256e+03, 4.91546539e+02, 7.74864807e+02, 5.46910889e+03,
          5.50474658e+03, 1.10873975e+04, 1.19353271e+04, 3.11763721e+03,
          2.66423438e+03, 8.71923438e+03, 3.85203076e+03, 7.06213135e+03,
          6.72689111e+03, 4.71039502e+03, 9.85550684e+03, 5.60601514e+03,
          3.38904663e+03, 3.60544189e+03, 2.90385522e+03, 2.30483320e+04,
          1.57861846e+04, 2.86681406e+04, 9.26936035e+03, 1.68565117e+04,
          1.40986045e+04, 1.08355244e+04, 1.71438984e+04, 1.77517578e+04,
          28488., 1.09419092e+04, 1.19012695e+04, 1.49219287e+04,
          1.74213887e+04, 1.20171631e+04, 7.77272607e+03 ]
      - [ 1328., 0., 0., 0., 0., 0., 0., 0., 1328., 2.33345245e+02,
          7.62272278e+02, 2.04200122e+03, 2.62200708e+03, 1.04307947e+03,
          4.97163940e+02, 0., 1.28721504e+04, 3.40997144e+03,
          2.25694971e+03, 7.88555225e+03, 3.36886597e+03, 8.06401367e+02,
          1.47248093e+02, 4.94465283e+03, 1.64633418e+04, 1.83848669e+03,
          7.19382874e+02, 4.01342456e+03, 8.52791992e+02, 3.05667920e+03,
          1.73678394e+03, 9.47213184e+03, 8.18655859e+03, 4.83201855e+03,
          9.30073145e+03, 5.22366113e+03, 0., 0., 8.14436462e+02,
          7.09551563e+03, 1.01352666e+04, 3.24923413e+03, 0., 0., 0., 0.,
          4.24264050e+00, 1.85310156e+03, 1.73511602e+04, 1.33633896e+04,
          5.85390918e+03, 1.32454912e+04, 3.13837598e+04, 1.94869219e+04,
          1.32198545e+04, 1.71642695e+04, 3.26086406e+04, 1.13839727e+04,
          5.85798193e+03, 1.48608301e+04, 2.49182617e+04, 2.85415898e+04,
          3.10864355e+04, 1.17202500e+04 ]
      - [ 8.11921204e+02, 7.12222107e+02, 0., 0., 0., 0., 0., 0., 0., 0.,
          0., 0., 0., 0., 0., 6.53758392e+01, 3.89699707e+03,
          5.64315918e+02, 0., 0., 0., 0., 0., 0., 0., 0., 0., 0., 0., 0.,
          7.44567871e+02, 3.72768335e+03, 2.64841943e+03, 8.16125049e+03,
          1.57192461e+04, 1.86997305e+04, 2.38254277e+04, 3.87116016e+03,
          5.67898865e+02, 2.79268018e+03, 4.58548584e+03, 2.89768921e+03,
          9.72776367e+03, 3.08428887e+04, 2.65299316e+04, 4.28729736e+03,
          1.34350281e+02, 0., 4.06853516e+04, 1.61345078e+04,
          1.10069443e+04, 7.09197656e+03, 1.19146787e+04, 1.23285039e+04,
          2.01980957e+04, 2.55345703e+04, 4.33593438e+04, 1.61686016e+04,
          1.27169854e+04, 7.24751709e+03, 1.38119268e+04, 1.13264873e+04,
          1.80928066e+04, 3.96419531e+04 ]
      - [ 2040., 9.89949512e+00, 1.62935577e+02, 0., 0., 0., 0., 0.,
          2006., 4.38204492e+03, 1.93259961e+03, 296., 2.00664551e+03,
          1.31728516e+03, 1.86538477e+03, 2.05280957e+03, 4.05598999e+03,
          1.41866865e+04, 1.12050869e+04, 8.63410742e+03, 4.29780664e+03,
          3.79011871e+02, 2.44428540e+03, 3.08348755e+02, 1.25551357e+04,
          1.45524619e+04, 6.23029688e+03, 7.18296338e+03, 1380., 0.,
          2.05355194e+02, 2.46560132e+03, 2.12132034e+01, 7.81521631e+03,
          1.13547529e+04, 5.99265186e+03, 7.20793359e+03, 1.67561121e+03,
          6.86936096e+02, 1.95398315e+03, 34., 1.62630566e+03,
          1.29957520e+04, 3.50695313e+03, 0., 0., 0., 0., 1.49462715e+04,
          1.33622295e+04, 1.31279531e+04, 1.85480469e+04, 2.92367324e+04,
          2.28022070e+04, 1.20840957e+04, 8.24812402e+03, 6.27645410e+03,
          1.63655889e+04, 2.39406973e+04, 1.96975762e+04, 2.74405352e+04,
          1.40063838e+04, 1.00942676e+04, 8.05190918e+03 ]
      - [ 0., 5.65685425e+01, 1.76804688e+03, 2.54627637e+03, 0., 0., 0.,
          0., 0., 0., 0., 0., 0., 0., 0., 0., 1.65111035e+04,
          1.16624863e+04, 5.17372168e+03, 1.29388708e+03, 494., 0.,
          8.52230164e+02, 3.67831885e+03, 4.49943164e+03, 1.31838550e+03,
          3.73208423e+03, 7.00082324e+03, 5.32626404e+02, 1.29026782e+03,
          2.65176343e+03, 6.29552100e+03, 1.32914482e+04, 4.42834570e+03,
          9.85486938e+02, 4.74667480e+03, 1.43450488e+04, 7.64497168e+03,
          2.38587500e+03, 4.63446533e+03, 1.89619219e+04, 1.93505566e+03,
          6.32455521e+01, 9.14166260e+02, 2.04069727e+03, 1.52113110e+03,
          1.09295081e+03, 1.05092451e+04, 3.43580156e+04, 7.30811182e+03,
          1.27171123e+04, 1.03139668e+04, 1.56318359e+04, 1.54341406e+04,
          1.68328457e+04, 2.81906973e+04, 3.44815078e+04, 2.26553223e+04,
          1.22468604e+04, 1.25827236e+04, 2.81368789e+04, 1.66215859e+04,
          1.98991992e+04, 2.89326914e+04 ]
      - [ 0., 2.23445740e+02, 2.52627271e+03, 7.57682324e+03, 0., 0., 0.,
          0., 0., 0., 0., 0., 0., 0., 0., 0., 1.32597871e+04,
          2.27022363e+04, 4.36105127e+03, 7.95742615e+02, 2.20102148e+03,
          5.31361389e+02, 1.05207690e+03, 1.69355554e+03, 1.18798369e+04,
          1.95039434e+04, 3.34013489e+02, 1.29432446e+03, 7.70669678e+02,
          3.03909180e+03, 3.04006616e+03, 2.20970264e+03, 1.33715479e+03,
          1.49572031e+04, 8.21222461e+03, 4.60389600e+03, 2.33461289e+04,
          4.50540918e+03, 2.21577026e+03, 1.88637244e+03, 1308.,
          8.15657813e+03, 1.08153027e+04, 6.51198291e+03, 4.34128076e+03,
          0., 0., 0., 2.46433633e+04, 1.94512930e+04, 1.76444766e+04,
          5.88712793e+03, 7.94407861e+03, 1.18596475e+04, 1.11332480e+04,
          1.42548027e+04, 3.50838438e+04, 2.15531836e+04, 1.68843242e+04,
          1.27424434e+04, 1.75622813e+04, 3.28899756e+03, 9.42267871e+03,
          1.66259746e+04 ]
      - [ 0., 8.48528137e+01, 5.11986084e+03, 1.04922148e+04,
          8.86442566e+02, 0., 0., 0., 0., 0., 4.51479797e+02,
          8.30963318e+02, 1.87062341e+03, 5.48665649e+02, 0., 0.,
          4.79768799e+03, 2.48833887e+04, 4.60823047e+03, 0.,
          3.94576782e+03, 0., 6.40108765e+02, 9.86407837e+02,
          5.25853320e+03, 2.63755586e+04, 1.19836016e+04, 1.40091846e+03,
          4.58397998e+03, 1.15647192e+03, 1.41812976e+03, 2.30036914e+03,
          1.17300586e+03, 1.11054502e+04, 1.06889473e+04, 4.03908301e+03,
          1.48020303e+04, 4.81668604e+03, 5.18266943e+03, 1.74653809e+03,
          2.52357593e+03, 1.91255713e+03, 1.20387910e+04, 8.46431152e+03,
          3.54230566e+03, 0., 3.05231934e+02, 0., 2.47323418e+04,
          1.67663027e+04, 1.05924834e+04, 1.35865703e+04, 1.28471016e+04,
          1.23974639e+04, 6.42875391e+03, 1.34889336e+04, 2.21769434e+04,
          2.47111895e+04, 1.86404883e+04, 8.95540625e+03, 1.33200605e+04,
          1.80762637e+04, 5.20933154e+03, 7.52801025e+03 ]
      - [ 0., 3.71963654e+02, 1.01385361e+04, 5.09862354e+03,
          1.16728905e+02, 0., 0., 0., 0., 1.97901697e+03, 0., 0., 0., 0.,
          0., 0., 5.23875488e+03, 1.41518398e+04, 9.05600098e+03, 0.,
          3.33465186e+03, 1.62745007e+03, 1.11669788e+03, 8.14039307e+02,
          1.00837051e+04, 2.55625859e+04, 3.25516406e+03, 1.68859705e+03,
          4.22300977e+03, 4.01924011e+02, 1.32408521e+03, 8.49688049e+02,
          2.20079810e+03, 7.11918066e+03, 1.54405195e+04, 9.77566895e+03,
          1.02707246e+04, 2.64104883e+03, 2.45899023e+03, 2.17280151e+03,
          2.41286499e+03, 4.73975977e+03, 2.01679902e+04, 1.60888369e+04,
          1.00604287e+04, 2.59499268e+03, 6.49016235e+02, 0.,
          1.53476309e+04, 7.96146875e+03, 2.15132090e+04, 2.04627207e+04,
          1.48905205e+04, 9.95795117e+03, 7.20674658e+03, 8.37553320e+03,
          2.22765117e+04, 1.57000391e+04, 1.86737969e+04, 1.41332168e+04,
          1.03044316e+04, 1.14226953e+04, 8.45060938e+03, 6.89676465e+03 ]
      - [ 1.61006616e+03, 1.13639092e+04, 1.90836560e+03, 3.74333923e+02,
          1.98261096e+03, 2.03863672e+03, 3.61875671e+02, 0., 0.,
          4.20583447e+03, 1.30012952e+03, 2.82324072e+03, 1.29238513e+03,
          0., 0., 0., 9.76784473e+03, 6.08195361e+03, 7.74209290e+01, 0.,
          5.70246338e+03, 3.46162915e+03, 4.27242725e+03, 6.38498535e+03,
          1.36533613e+04, 3.70339478e+03, 0., 7.46324310e+01,
          1.23103430e+03, 2.00337793e+03, 9.15943359e+03, 6.14905176e+03,
          1.52757490e+04, 6.36018750e+03, 6.72982080e+03, 2.34581211e+04,
          3.27617480e+03, 4.84615088e+03, 5.47823535e+03, 1.66117261e+03,
          1.25821514e+04, 6.47467578e+03, 1.80574141e+04, 1.03794619e+04,
          2.45317383e+03, 9.02389038e+02, 1.44308801e+03, 2.73899658e+03,
          3.60938398e+04, 1.36107539e+04, 5.72785303e+03, 3.95417920e+03,
          4.84081348e+03, 9.72820313e+03, 3.10870078e+04, 2.29724180e+04,
          5.02647461e+04, 6.75666064e+03, 5.94922705e+03, 2.92487891e+03,
          4.75468604e+03, 7.79250977e+03, 2.63645078e+04, 2.98102656e+04 ]
      - [ 2.17458936e+03, 3.86572070e+03, 2.02641577e+03, 1.27499219e+03,
          4.42718887e+01, 0., 0., 0., 236., 2.27214432e+02, 0., 0., 236.,
          0., 0., 0., 1.83017344e+04, 6.94450830e+03, 0., 1.14017544e+01,
          0., 1.73561816e+03, 4.08793335e+03, 3.24769434e+03,
          5.83195654e+03, 7.01493848e+03, 1.69736511e+03, 1.30503589e+03,
          2.31023584e+03, 9.04905566e+03, 1.73402356e+03, 1.10309570e+03,
          1.14981426e+04, 5.85352393e+03, 1.00985264e+04, 1.60515098e+04,
          2.87983521e+03, 3.05429443e+03, 4.85289209e+03, 5.56509131e+03,
          7.27501221e+03, 7.46429492e+03, 1.94628027e+04, 3.26199048e+03,
          1.78717651e+02, 9.72042664e+02, 1.11312451e+03, 2.02742932e+03,
          3.27029531e+04, 1.04745186e+04, 6.95579443e+03, 9.15733789e+03,
          1.33676465e+04, 1.83389219e+04, 1.94013477e+04, 1.49896602e+04,
          3.20117227e+04, 1.43257139e+04, 9.67647754e+03, 1.02933887e+04,
          1.71904277e+04, 1.98135703e+04, 1.88456582e+04, 1.51649590e+04 ]
      - [ 0., 6.10153748e+02, 3.43618921e+03, 0., 0., 0., 0., 0., 0., 0.,
          0., 0., 0., 0., 0., 0., 1.40500527e+04, 8.43129688e+03,
          4.11428076e+03, 0., 0., 4.80764099e+02, 8.25025000e+03,
          6.68593750e+03, 6.84168994e+03, 1.68200537e+03, 1.68967017e+03,
          1.54594763e+03, 2.36020215e+03, 2.30070654e+03, 9.21308105e+02,
          1.10754883e+04, 5.04540479e+03, 1.49768936e+04, 3.39743799e+03,
          5.00128906e+03, 3.69497632e+03, 6.05812598e+03, 3.41542578e+03,
          4.15717139e+03, 3.36469727e+03, 1.12257520e+04, 5.67185693e+03,
          0., 0., 0., 3.42584290e+02, 3.25946606e+03, 3.14306504e+04,
          5.32101416e+03, 6.08043896e+03, 7.03846777e+03, 1.31736553e+04,
          2.27328867e+04, 1.89568184e+04, 1.87115176e+04, 1.69903047e+04,
          9.12172754e+03, 9.93932227e+03, 1.26351553e+04, 7.37184473e+03,
          1.46389600e+04, 8.46447461e+03, 1.71658477e+04 ]
   decision_functions:
      -
         sv_count: 1
         rho: 1.3495228613793133e+00
         alpha: [ 1. ]
         index: [ 0 ]
      -
         sv_count: 1
         rho: -2.4491846115870966e-01
         alpha: [ 1. ]
         index: [ 1 ]
      -
         sv_count: 1
         rho: 6.5164646740044851e-01
         alpha: [ 1. ]
         index: [ 2 ]
      -
         sv_count: 1
         rho: -1.8468761460799872e+00
         alpha: [ 1. ]
         index: [ 3 ]
      -
         sv_count: 1
         rho: -1.5513839860828376e+00
         alpha: [ 1. ]
         index: [ 4 ]
      -
         sv_count: 1
         rho: 5.2827902490321843e-01
         alpha: [ 1. ]
         index: [ 5 ]
