%YAML:1.0
---
opencv_ml_svm:
   format: 3
   svmType: C_SVC
   kernel:
      type: LINEAR
   C: 2.6699999999999999e+00
   term_criteria: { epsilon:1.1920928955078125e-07, iterations:1000 }
   var_count: 64
   class_count: 10
   class_labels: !!opencv-matrix
      rows: 10
      cols: 1
      dt: i
      data: [ 0, 1, 2, 3, 4, 5, 6, 7, 8, 9 ]
   sv_total: 45
   support_vectors:
      - [ 2.30964019e-06, 9.40541850e-06, 3.51716585e-06,
          -8.30547560e-06, 9.60910711e-08, 3.74695608e-09,
          3.47834010e-08, 7.05321554e-06, 2.10874859e-05, 1.55186644e-05,
          3.11846015e-05, 6.99917928e-06, -2.05118067e-05,
          -1.18340968e-05, -1.97120676e-06, -7.80739992e-06,
          -7.88865054e-06, -6.50572201e-06, -1.38930372e-05,
          -1.43269835e-05, 9.70034216e-06, 2.57660595e-05,
          1.79018170e-05, 2.08846122e-05, 1.51518643e-05, 3.56771602e-06,
          9.57385815e-09, 0., -3.72283807e-06, 8.74544003e-06,
          6.47811385e-06, -9.83267182e-06, 6.41740871e-06,
          -4.88083742e-07, -3.79981111e-06, -2.04604075e-05,
          -1.26534869e-05, 1.79720137e-05, 8.81228880e-06,
          4.73644923e-06, -9.74226077e-06, -4.72509691e-06,
          -2.88640058e-06, -2.57874308e-06, 2.18637501e-06,
          1.93985561e-05, 2.03762902e-05, 1.55159469e-05, 2.17952511e-05,
          1.78599857e-05, 2.38326011e-05, 1.22366655e-05,
          -5.26785652e-06, -5.11759799e-06, -2.80890481e-06,
          -7.39757616e-06, -9.05906290e-06, 2.03419731e-05,
          1.64921439e-05, 4.46264585e-06, -1.77649672e-05,
          -7.38406300e-07, -2.06313700e-07, 1.58298299e-05 ]
      - [ 3.74025967e-06, 5.78901927e-06, 1.26374352e-05, 9.62550257e-06,
          -2.87279659e-06, 1.21430022e-08, 1.99267291e-07,
          8.33049944e-06, 1.25036286e-05, 1.60493837e-05, 9.20695948e-06,
          -9.27020301e-06, -2.71821791e-05, -6.18161084e-06,
          3.21238758e-10, 1.71526480e-07, -2.44555167e-06,
          -1.53581041e-05, -4.17167794e-05, -1.10143046e-05,
          1.92141142e-05, 1.56872247e-05, 1.37795978e-05, 1.33329095e-05,
          1.13128090e-05, 4.65841872e-08, -1.33037963e-06, 0.,
          1.14168788e-05, 1.26034611e-05, 5.19401055e-06,
          -8.65387028e-06, -4.35863285e-06, -6.81922893e-06,
          -2.99144517e-06, -4.51789901e-07, -3.16528116e-07,
          2.94163851e-06, 7.70322822e-06, -4.15767727e-06,
          -1.09426574e-05, -1.07218893e-05, -1.30143690e-07,
          1.72481492e-07, 6.34193157e-07, 5.72648651e-06, 1.06579928e-05,
          1.20718016e-06, 1.55876623e-05, 1.09780467e-05, 1.02934982e-05,
          5.85258613e-06, -2.02166593e-05, -1.51510503e-05,
          -8.46522471e-06, 7.96912957e-07, 3.60995318e-06,
          -1.41188945e-08, -1.78349037e-05, -4.83380927e-06,
          3.74220986e-06, 0., 9.26202290e-07, 9.64681112e-06 ]
      - [ -7.56489911e-08, 1.05811796e-05, 1.12391908e-05,
          3.25737369e-06, -4.54301835e-06, 2.34155131e-08,
          6.88741082e-08, 1.16338815e-05, 2.07011253e-05, 2.54015122e-05,
          1.20723280e-05, -3.15517791e-05, -2.59302160e-05,
          -6.62432694e-06, -1.29768989e-06, -7.68615519e-06,
          2.16786566e-06, -4.89193144e-06, -7.04267450e-06,
          -3.46930465e-05, -2.70217024e-05, 2.36108826e-05,
          2.18037676e-05, 2.34389099e-05, 1.88322647e-05, 6.65786558e-07,
          -1.12017779e-06, 0., 4.40957547e-06, 1.68633451e-05,
          1.08849727e-05, 6.53867892e-06, 3.00218176e-06,
          -1.57106351e-05, -1.39766189e-05, -2.30640562e-05,
          -5.71766577e-06, 5.06381593e-06, 1.10217925e-05,
          -3.54724676e-07, -1.14314653e-05, -7.95187680e-06,
          -9.87522526e-06, -3.74837191e-06, -1.12161870e-05,
          1.51652694e-05, 1.81761789e-05, 1.76528229e-05, 1.31062525e-05,
          5.84797363e-06, 1.30052804e-05, -1.99536476e-06,
          -6.12027725e-06, -3.82109374e-06, -1.61015487e-05,
          1.63634244e-08, -1.46585194e-07, 9.73058195e-06,
          3.10414862e-06, 5.89453862e-07, -3.87445216e-05,
          -1.10450892e-05, -7.98228666e-06, 5.04164154e-06 ]
      - [ 1.27751919e-05, 9.42290444e-06, -1.07665192e-05,
          1.18525509e-06, 2.00212298e-06, -3.44316663e-06,
          -5.37287633e-07, 8.22570746e-06, 2.55165887e-05,
          2.03070140e-05, 2.21525679e-05, 3.16044498e-06, 3.21965700e-07,
          -1.97277723e-06, -2.96390141e-07, -9.10840129e-07,
          9.90309945e-06, -2.96143367e-06, -6.14469354e-06,
          3.51193830e-06, 2.14195279e-05, 2.29737707e-05, 1.82220938e-05,
          1.73044755e-05, 2.04704029e-05, -4.73100908e-06,
          -7.34564901e-06, -2.18478417e-05, -1.65271576e-05,
          3.28407114e-05, 2.18941477e-05, 4.85748751e-06, 4.72464626e-06,
          -1.04493392e-05, -3.41974446e-05, -3.91509020e-05,
          8.09499943e-06, 2.41911312e-05, 2.07017838e-05, 5.51680114e-06,
          -1.00377974e-05, -3.90498008e-06, -4.87225316e-06,
          -1.37406614e-05, -1.61677497e-06, 1.52771263e-05,
          1.59658521e-05, 1.46953189e-05, -1.64813127e-06,
          1.14231143e-05, 1.11128938e-05, 9.70546625e-06,
          -4.69477385e-07, -1.24815165e-06, -2.31916397e-06,
          2.56101703e-06, -9.64659193e-07, 1.70752264e-05,
          1.64320209e-05, 1.38290070e-05, -9.15012970e-06,
          -2.50491394e-05, -2.17843481e-05, -9.34292530e-07 ]
      - [ -3.37386359e-06, 3.16979310e-07, 1.18039188e-05,
          7.25729024e-06, -6.75901174e-06, -8.23767914e-06,
          -4.97890687e-06, 3.16831984e-06, 6.81329811e-06,
          1.22204965e-05, 7.00016653e-06, -9.43820396e-07,
          -9.13203985e-06, -4.03374543e-06, -1.85211900e-06,
          1.25302574e-06, 5.19081368e-06, -1.48930852e-07,
          -1.97514646e-06, -2.02818646e-05, -3.38969185e-05,
          1.24080179e-05, 1.56907336e-05, 1.74303623e-05, 1.36633944e-05,
          1.90901665e-06, -1.26301757e-07, -1.05608424e-05,
          -2.09849750e-05, 1.31602774e-05, 1.60935451e-05,
          3.92006086e-06, 8.97914560e-06, 8.46466548e-07,
          -5.75601078e-08, -1.48537010e-05, -2.06121949e-05,
          7.72030853e-06, 1.34319871e-05, 5.17041872e-06, 2.65587846e-06,
          -5.52136271e-07, -7.42885277e-06, -3.12325574e-05,
          -3.03736015e-05, 1.75489495e-05, 1.62007691e-05,
          1.33444219e-05, 5.28326882e-06, 6.79809045e-06,
          -7.43538976e-07, 4.51929782e-06, -3.90946025e-06,
          -1.19792785e-05, -5.10201971e-06, -2.45861042e-06,
          -4.06944628e-06, -7.10587210e-06, 8.02655268e-06,
          2.70897044e-06, -8.73268618e-06, -1.43125899e-05,
          -4.73185582e-06, 4.78713127e-06 ]
      - [ -2.26382144e-06, -7.17984904e-06, -1.57816230e-05,
          -1.02946717e-06, -6.20778064e-06, -9.70759811e-06,
          -9.71167992e-06, -2.01779898e-07, 1.45546919e-05,
          7.16572049e-06, 1.22626434e-05, 4.10323025e-07,
          -1.25718839e-06, 3.26579048e-08, 0., 0., -8.18476747e-06,
          -1.97206134e-07, 0., 7.64154606e-08, -3.90594005e-06,
          5.10695031e-07, 7.22939922e-06, 6.48696641e-06, 1.28060055e-05,
          -9.20166167e-06, -1.13692913e-05, -1.98306843e-05,
          -7.12069868e-06, 3.63525101e-06, 6.26844303e-06,
          -3.70319253e-06, 4.76858850e-06, -9.74622480e-07,
          -7.36625634e-06, -3.74560368e-05, -1.97762365e-05,
          8.08598884e-07, 1.19870538e-05, -5.85937505e-06,
          -1.99798546e-06, -3.55070688e-06, -9.86932537e-06,
          -6.26135952e-05, -1.06548714e-05, 2.26516240e-05,
          3.04588812e-05, 1.41534856e-05, 1.67191156e-05, 1.33055892e-05,
          -6.02982846e-06, -2.22117797e-06, -8.82734366e-06,
          -4.38101068e-07, -6.26224903e-07, -1.44272178e-07,
          1.02512433e-06, 1.14270542e-05, 9.29770522e-06,
          -3.08693416e-06, -2.14344327e-05, -2.68137264e-05,
          -1.83477187e-05, 9.85992847e-06 ]
      - [ 2.13638600e-06, -4.58337951e-07, 1.25092929e-05,
          4.38770621e-06, -3.84505847e-06, 0., 4.46845192e-08,
          7.49638411e-06, 9.73310034e-06, 1.44366350e-05, 5.26614303e-06,
          -2.09257973e-06, -2.39202654e-05, -1.03411130e-05,
          -6.63481998e-08, 0., -1.05342669e-05, -3.38376412e-05,
          -2.15774867e-06, 2.17772353e-07, 1.80271090e-05,
          1.14395143e-05, 1.35159007e-05, 1.01237147e-05, 8.06886874e-06,
          -2.87821354e-06, -2.84630050e-06, -2.65601739e-06,
          3.87121781e-06, 4.97095198e-06, 7.20734715e-06, 2.62968342e-06,
          -4.17450428e-06, -6.48440209e-06, -1.18895252e-06,
          -9.31219120e-07, 4.82278210e-06, 1.04483115e-05,
          5.34243918e-06, 1.40267241e-06, -9.41030248e-06,
          -3.11055228e-05, -3.60702273e-07, 0., 6.29182296e-06,
          8.29838518e-06, 6.53411462e-06, 7.46397245e-06, 8.32892965e-06,
          9.35009029e-06, 1.21258263e-05, 1.21813482e-05, 4.51579147e-08,
          1.21979173e-08, 2.48141312e-08, -2.33734553e-07,
          -6.70387044e-06, -1.30047029e-05, 6.13213115e-06,
          2.50420612e-06, 6.02502996e-06, 6.95137370e-09, 3.86042711e-06,
          1.07445721e-05 ]
      - [ -5.63795493e-06, 1.14822315e-05, 9.10250310e-06,
          -5.38228824e-06, -2.33912178e-05, -2.32495513e-05,
          -1.26216701e-05, 4.18872605e-06, 1.34157626e-05,
          1.42628933e-05, 1.80275292e-05, -6.15041336e-06,
          -1.37733414e-05, -1.27691255e-05, -1.22266456e-05,
          -6.21481558e-06, -2.34727804e-06, -1.55810394e-05,
          -6.84312408e-06, 5.90023923e-08, -1.92839598e-05,
          6.21012987e-06, 1.18861017e-05, 1.39332515e-05, 6.24315135e-06,
          -1.04483270e-05, -1.94228051e-05, -2.68818167e-05,
          -2.01206076e-05, 7.72690419e-06, 7.11077200e-06,
          3.76714161e-06, 2.28082649e-06, -3.06841821e-06,
          -1.65112506e-05, -2.27366472e-05, -1.55959297e-05,
          1.39268550e-05, 4.06514573e-06, 1.02757986e-06,
          -1.25331153e-05, -9.69910616e-06, -1.68945626e-05,
          -5.21160928e-07, -1.22574766e-05, 3.73545322e-06,
          1.01093829e-05, 1.16940600e-05, 1.51727836e-05, 1.04396258e-05,
          9.61807291e-06, -6.49216463e-06, -2.38198500e-05,
          -1.55873768e-05, -1.32743771e-05, 8.40045402e-07,
          4.02695605e-06, 1.40620514e-05, 3.80328584e-06,
          -2.79606320e-06, -3.32211530e-05, -3.44999717e-05,
          -9.14636257e-06, 1.32353325e-05 ]
      - [ 9.38232574e-07, -5.04717946e-07, -1.60558120e-05,
          -9.28230202e-06, -7.87418776e-06, -3.24463472e-05,
          -2.67538671e-05, 8.70192343e-06, 2.34545005e-05,
          1.75053319e-05, -6.55157066e-07, 4.16938519e-06,
          -1.57352861e-06, -3.29943032e-06, -4.00442877e-06,
          6.85979103e-07, -6.21976551e-06, -1.26268469e-05,
          -1.95696084e-05, -6.26602632e-05, -3.45134613e-05,
          2.34813124e-05, 3.81477148e-05, 2.99536441e-05, 2.96715334e-05,
          3.75441630e-07, -7.87977660e-06, -2.67290925e-05,
          -2.91697288e-05, 1.37649337e-07, 4.54354131e-06,
          -2.54287261e-06, 3.85973465e-07, -2.70119363e-05,
          -1.36070694e-05, -2.43206591e-06, -1.25723582e-05,
          -1.69773259e-07, 1.29369400e-05, 6.77112530e-06,
          -5.11330381e-06, -2.87897106e-09, 2.12838103e-07,
          -8.28571103e-07, -1.61573134e-05, -6.32998444e-06,
          2.41924463e-05, 1.67435282e-05, 2.92648492e-05, 2.18944933e-05,
          -1.94374934e-05, -1.39954627e-05, -1.48104591e-05,
          -7.40396411e-09, 4.59265905e-08, 1.11493682e-06,
          -5.40676638e-06, -1.87631940e-05, -2.16909648e-05,
          3.75372701e-06, -2.04639746e-05, -1.34026532e-05,
          -1.57481682e-05, 1.55318230e-05 ]
      - [ 1.38893956e-05, 2.31958597e-06, 2.26953180e-05, 2.48294054e-05,
          -2.25425683e-05, 0., -9.45331105e-11, 0., -1.11006636e-06,
          -5.76213246e-08, -1.08940940e-05, -2.28155004e-05,
          -2.17591132e-05, 1.85644258e-05, 1.13683436e-05,
          9.63972434e-06, 1.72577766e-05, -8.81939832e-06,
          -3.33217977e-05, -3.40234783e-06, 6.50126503e-06, 0.,
          -4.90821947e-07, -9.99590043e-07, -3.48005619e-06,
          -4.76545182e-07, -2.08040160e-06, -4.43347716e-07,
          1.07052783e-05, -4.28280345e-08, -5.12884526e-07,
          6.25301072e-06, -1.34459460e-05, -1.20106697e-05,
          -3.15561670e-06, 1.33233825e-05, 1.16319743e-05,
          -2.57424108e-05, -6.63265700e-06, -8.99670886e-06,
          6.35486822e-06, -8.06061689e-06, 3.87589580e-06,
          4.45517571e-06, 2.49138452e-06, -2.84553698e-05,
          -1.38724645e-05, -1.48629788e-05, 1.31352223e-07,
          -9.66133757e-06, -1.49120588e-05, -3.00837019e-06,
          -2.97579318e-05, -1.38833793e-05, -1.71168006e-06,
          9.64436276e-06, 1.52371613e-05, -2.42900005e-05,
          -4.64296754e-05, -1.39143331e-05, 9.62580907e-06, 0.,
          7.35780219e-08, 2.07618839e-07 ]
      - [ -1.31264151e-05, -6.46519948e-06, 1.98440594e-05,
          1.18086400e-05, 8.39107031e-07, 0., 0., 0., -7.20505398e-07,
          -5.00958151e-07, -8.41957535e-06, -3.76807839e-05,
          -1.92476928e-05, 1.54475820e-05, 7.71645227e-06,
          1.18548624e-05, 2.03846703e-05, 7.54058101e-06, 1.32359264e-05,
          1.12524294e-05, -7.91901912e-05, -3.88387616e-06,
          -1.24683038e-06, 0., -6.91333582e-07, -3.98307151e-07,
          -5.21421043e-07, 1.75555112e-06, 2.03839263e-05,
          2.55248960e-06, 1.18198850e-05, 2.53190465e-05,
          -4.48928859e-06, -1.42804711e-05, -1.76611684e-05,
          1.34742659e-05, 3.15541433e-06, -1.16641022e-05,
          -1.19059823e-05, 5.90917534e-06, -1.25107936e-05,
          -3.69288750e-06, -1.14530803e-05, 2.81105315e-07,
          -3.91178764e-05, -1.01974765e-05, -9.71936879e-06,
          -7.75018543e-06, -1.20076420e-05, -2.40428817e-05,
          -2.79200794e-05, -3.02688404e-05, -1.16902156e-05,
          -9.05052002e-06, -4.35278434e-06, 1.48501258e-05,
          1.67932685e-05, -1.17591799e-06, -2.65062899e-05,
          -1.97689351e-05, -1.25275174e-05, -2.42939332e-05,
          -2.01097428e-05, -5.08564881e-07 ]
      - [ 4.46116792e-06, -3.49742572e-06, -2.44831099e-05,
          5.30381158e-06, 1.85836871e-05, -3.09196776e-06,
          -1.32809544e-06, -2.87631406e-06, -3.44709997e-06,
          -1.89634534e-06, -1.52077528e-05, -2.17438665e-05,
          5.07117838e-05, 1.48350100e-05, 3.75677905e-06, 6.03077160e-06,
          3.13752025e-05, 4.45004571e-06, 8.83671873e-06, 2.95583632e-05,
          -6.55392978e-06, -6.57268311e-06, -8.09181165e-06,
          -1.21572884e-05, -6.86101703e-06, -5.63767935e-06,
          -1.09500779e-05, -3.02729168e-05, -1.61921289e-05,
          1.76134854e-05, 1.12488833e-05, 2.28428471e-05,
          -5.37213509e-06, -1.66518621e-05, -3.15485086e-05,
          1.91153049e-06, 3.55114353e-05, 2.97750535e-06, 5.77514811e-06,
          -4.00509670e-08, -1.68908662e-06, 3.43700208e-06,
          1.94515394e-07, -1.34414258e-05, -1.46586244e-05,
          1.72946750e-06, -4.64254890e-06, -8.43338967e-06,
          -3.28519927e-05, -1.10369238e-05, -1.69780906e-05,
          -1.51642080e-05, -2.69551379e-06, 6.77863045e-06,
          1.14078432e-06, 6.48201149e-06, 1.29129339e-05, 6.52455810e-07,
          -1.37851657e-05, 3.99137843e-06, 2.40789504e-05,
          -3.15956349e-05, -2.75564762e-05, -2.00567174e-05 ]
      - [ -9.36537253e-06, -9.46106047e-06, -1.74381546e-06,
          1.44150763e-05, 1.11414247e-05, -7.98099063e-06,
          -3.04549917e-06, -4.91035371e-06, -8.78913852e-06,
          -6.25099892e-06, -7.82479856e-06, -7.93996696e-06,
          1.43976495e-05, 7.35595268e-06, 1.77043626e-06, 8.64727735e-06,
          1.87262431e-05, 3.54076951e-06, 1.11192667e-05,
          -5.74361047e-06, -4.58877767e-05, -4.10654729e-06,
          -2.79711401e-07, 0., 2.96768008e-07, 0., 0., -7.78680169e-06,
          -1.51064860e-05, -1.66694790e-07, 4.65811127e-06,
          7.35194953e-06, 5.85178952e-07, 7.86647405e-08, 9.37855475e-07,
          -1.69410953e-06, -1.03132625e-05, -9.91384695e-06,
          -1.12688019e-06, 1.12959799e-06, 4.24017662e-06,
          2.31565878e-06, -4.84387328e-06, -3.90209570e-05,
          -3.80801284e-05, 2.71691306e-06, 4.41225069e-07,
          -2.83858697e-07, -8.60351884e-06, -3.90009563e-06,
          -2.14949068e-05, -1.99156475e-05, -9.82508845e-06,
          -2.92342611e-06, 1.75819835e-07, 1.88090405e-06,
          3.37944084e-06, -1.91127074e-05, -7.91668390e-06,
          -8.34583625e-06, 9.97303414e-06, -2.01104376e-05,
          -3.73754210e-06, -4.33245577e-06 ]
      - [ -3.75940022e-06, -1.51442246e-05, -2.10672297e-05,
          2.22757444e-06, -2.94642231e-08, -1.02200747e-05,
          -5.07189179e-06, -5.71949749e-06, -3.63969434e-07,
          -9.69402117e-06, -2.14804895e-05, -5.34673063e-06,
          2.17451125e-05, 6.80747189e-06, 1.14645024e-06, 4.40658914e-06,
          3.51155381e-06, 5.10465816e-06, 9.00957457e-06, 1.88180093e-05,
          -1.54183490e-05, -2.31615086e-05, -9.49207879e-06,
          -1.34211105e-05, -6.63500123e-06, -7.96960012e-06,
          -9.62657396e-06, -8.57757004e-06, 3.17731997e-06,
          -1.06761590e-05, -3.05976528e-06, 6.53639790e-06,
          2.17414276e-06, 1.32255138e-07, 1.24245560e-06, 1.36870551e-06,
          -1.54101090e-05, -1.05576228e-05, 1.54433621e-07,
          -2.37935774e-06, 2.18250693e-06, 1.22961137e-06,
          -3.82488861e-06, -5.00457609e-05, -1.97056324e-05,
          4.89905915e-06, 6.98717201e-07, -8.42473526e-07,
          -2.51318397e-06, -1.11165145e-05, -1.84712080e-05,
          -2.44112016e-05, -1.01711021e-05, 3.16261458e-06,
          1.73597050e-06, 3.94747303e-06, 1.05360723e-05, 2.31025592e-06,
          -8.91314812e-06, -6.08519849e-06, 6.70402142e-06,
          -1.85191293e-05, -1.13871456e-05, -6.40162034e-06 ]
      - [ 1.02582208e-05, -6.21837580e-06, 2.04019598e-05,
          1.64660432e-05, -1.41862283e-05, 0., 0., 0., -4.64211610e-07,
          -2.65217665e-07, -1.85217402e-06, -1.26402592e-05,
          -2.17107427e-05, 1.39607619e-05, 4.90841740e-06,
          3.62683818e-06, 5.61670413e-06, -3.57207027e-05,
          1.32372661e-05, 2.28909848e-05, 5.86496117e-06, 0., 0., 0.,
          -3.47699893e-06, -2.16235435e-06, -4.40052463e-06,
          -3.38807786e-06, 1.41616747e-05, 1.26642567e-06,
          -5.94265771e-07, -3.92197052e-07, -1.44419391e-05,
          -1.11948748e-05, -2.71416707e-06, 1.00992893e-05,
          1.18612943e-05, -4.34318463e-06, -3.90043442e-06,
          -2.87539206e-06, -1.18436719e-06, -3.78667719e-05,
          2.12582358e-06, 4.80757899e-06, -1.32242963e-06,
          -4.33488776e-06, -3.50030905e-06, -6.19657521e-06,
          2.72576926e-06, -2.86202453e-06, -2.00790620e-08,
          9.37348204e-07, 1.42654790e-05, 1.96791302e-06, 5.33594994e-06,
          -1.32922094e-06, -7.57991211e-06, -3.47166606e-05,
          -6.80278936e-06, 4.29002830e-06, 1.65661222e-05,
          3.16012660e-07, 7.46997060e-08, 6.85050523e-08 ]
      - [ -6.45088585e-06, -1.33754099e-06, -7.05668936e-06,
          -1.44122703e-06, -1.06801490e-05, -2.40039972e-05,
          -1.20292561e-05, -5.86007582e-06, -1.01747937e-05,
          -9.52785376e-06, -1.52865050e-05, -1.90717019e-05,
          6.51871051e-06, 6.91836476e-06, -1.57655941e-05,
          -1.45116633e-06, 6.65581456e-06, -6.18205013e-06,
          3.77845890e-06, 2.14937154e-05, -4.33836904e-05,
          -1.79406197e-05, -2.04984080e-05, -9.33135107e-06,
          -1.28828106e-05, -1.53631790e-05, -2.12983050e-05,
          -1.43167799e-05, -5.97805320e-06, -7.91607090e-06,
          -4.52321638e-06, 1.22662141e-05, -6.99009797e-06,
          -6.35974811e-06, -1.04001338e-05, 2.39134829e-06,
          -3.75621994e-06, -7.87050521e-06, -1.00738316e-05,
          7.96023755e-07, -8.35753872e-06, -7.47747026e-06,
          -1.15980647e-05, 2.55999680e-06, -3.70572816e-05,
          -1.78898463e-05, -1.28704032e-05, -7.03086198e-06,
          -8.65461789e-06, -1.71354986e-05, -1.83960146e-05,
          -1.87766091e-05, -3.35542609e-05, -1.06848120e-05,
          -8.87709484e-06, 3.62844958e-06, 1.46028333e-05,
          -1.27615056e-06, -2.31652612e-05, -9.79524611e-06,
          2.11069369e-06, -2.92952700e-05, -1.56379519e-05,
          -3.30926059e-06 ]
      - [ 3.18618982e-06, -9.05377510e-06, -7.44231102e-06,
          7.19131594e-06, 1.36728738e-06, -1.18662956e-05,
          -1.31662446e-05, -6.74538660e-06, -1.30724020e-05,
          -1.60614636e-05, -1.95000594e-05, -1.37085235e-05,
          2.37947606e-05, 1.17177560e-05, -8.00707676e-06,
          1.63846937e-06, 6.64767413e-06, 2.31562694e-06, 1.83651537e-06,
          -1.34776383e-05, -2.63319762e-05, -9.90769877e-06,
          -5.11762551e-07, -3.56600367e-07, -9.47262379e-07,
          -3.50259114e-07, -1.27245733e-06, -7.25841119e-06,
          -1.44685664e-05, -1.22638085e-05, -2.22429048e-06,
          7.26627650e-06, -2.19890808e-06, -1.29103300e-05,
          -7.59268369e-06, 1.90045921e-05, 1.06713360e-05,
          -1.15899184e-05, -3.86314150e-06, 4.40610029e-06,
          1.14125742e-05, 2.84182329e-06, 2.18576588e-06,
          -3.70364683e-06, -2.01969760e-05, -2.03353684e-05,
          -1.34091815e-05, -1.05158388e-05, -3.36477933e-06,
          -6.32228239e-06, -2.22556373e-05, -4.18408381e-05,
          -7.06327228e-06, 4.08851565e-06, 4.88174555e-06,
          3.82389362e-06, 8.29984674e-06, -2.57807478e-05,
          -4.16664079e-05, -5.55451777e-07, 7.06088713e-06,
          -6.81073880e-06, -6.75175579e-06, -3.53515338e-06 ]
      - [ -6.85066834e-06, -4.77466756e-06, -1.23708905e-05,
          -9.15186502e-06, 8.55965664e-06, 0., 5.37890692e-08, 0.,
          -2.18053358e-07, -3.12132272e-07, -3.40374640e-06,
          1.89021773e-06, 9.20218372e-06, -3.89245406e-06,
          -3.99688906e-06, -3.29336217e-06, 9.97263854e-08,
          1.23685304e-05, 4.35240036e-05, 6.85418354e-06,
          -5.38029708e-05, -1.18748767e-06, -1.22658619e-07,
          5.58231591e-07, 9.73351916e-07, 1.48032086e-06, 1.98457019e-06,
          4.46386366e-06, -2.55460918e-06, -6.09348081e-06,
          4.67208309e-07, 7.26326061e-06, -6.98152064e-07,
          5.38956101e-06, -6.29542228e-06, -1.27598105e-05,
          -6.87068541e-06, 4.34360345e-06, -1.76918286e-06,
          6.49856383e-06, -6.97842552e-07, 2.77900881e-06,
          -6.08844221e-06, -1.17558750e-06, -1.08862041e-05,
          9.90701847e-06, -1.30340925e-06, 1.13938213e-05,
          -7.76272827e-06, -9.16351746e-06, -2.85152464e-06,
          -6.64619984e-06, 3.80376332e-05, 6.30882460e-06,
          -3.73398962e-06, 2.18618879e-06, -4.24145173e-06,
          1.32629893e-05, 3.19271458e-05, -1.89971968e-06,
          -2.29825728e-05, -9.62669219e-06, -4.16631747e-06,
          -9.29257931e-06 ]
      - [ 1.82599319e-06, -3.02819831e-06, -3.01739838e-05,
          -4.65344374e-06, 6.15867293e-06, -1.03391699e-06,
          2.71252389e-08, -4.26259788e-07, -5.19869275e-07,
          -1.30802192e-07, 4.49475738e-06, 4.91205083e-06,
          2.30016121e-05, 4.40507847e-06, -1.20891983e-07,
          -4.91326887e-07, 7.10499398e-06, 9.74029990e-06,
          3.66575405e-05, 7.41276335e-06, 8.29115152e-07,
          -1.58352213e-06, -5.34242599e-06, -5.40710516e-06,
          -1.59706269e-06, -2.34654772e-06, -1.97740246e-06,
          -1.25251790e-05, -9.40687823e-06, 1.18087962e-06,
          7.44337626e-07, 5.94406310e-06, 2.32159164e-06, 3.67046050e-06,
          -1.21755556e-05, -2.16574135e-05, 1.80740676e-06,
          1.54450190e-05, 3.74439583e-06, 4.81397637e-06, 1.57544423e-06,
          9.05194975e-06, 9.84116241e-07, -1.80991913e-06,
          -1.93336086e-06, 4.85777036e-06, 2.40166219e-06,
          6.93765878e-06, -1.92872394e-05, -3.31310889e-06,
          9.27734618e-07, -3.85225530e-06, 2.57891406e-05,
          1.27103312e-05, 3.99223018e-06, 5.42966738e-08,
          -7.46507339e-06, 1.00310845e-05, 2.64743448e-05,
          6.06052527e-06, -5.65352184e-06, -1.18825228e-05,
          -1.20210470e-05, -6.50429547e-06 ]
      - [ -7.70585393e-06, -6.89321587e-06, -1.58154160e-06,
          -8.84211317e-07, -2.56363455e-06, -6.52674953e-06,
          -3.10051382e-06, -4.19007392e-06, -2.90790558e-06,
          -4.00990893e-06, -6.09867402e-06, 1.06814896e-05,
          1.60666041e-05, -1.21377610e-07, -9.12353300e-07, 0.,
          2.28514205e-06, 7.97057328e-06, 2.48674241e-05, 4.30414730e-06,
          -3.23350578e-05, -3.18427669e-06, 2.07403321e-08,
          2.13428393e-07, 3.21031735e-07, 6.70164866e-08,
          -2.48105607e-08, -2.38602161e-06, -2.11691986e-05,
          1.32322293e-06, 1.81406608e-06, 2.63789889e-06, 4.26051201e-06,
          7.85856719e-06, 4.74430408e-06, -2.77763434e-06,
          -1.66330228e-05, -1.10765690e-07, 1.41237206e-06,
          5.12350516e-06, 3.98751354e-06, 5.01861041e-06,
          -1.61280468e-06, -1.45514687e-05, -1.79917788e-05,
          7.13176678e-06, 3.42693329e-06, 6.40573808e-06,
          -9.88290230e-06, -2.59175704e-06, -1.31695140e-06,
          1.23921211e-07, 2.59600565e-05, 1.05086755e-07,
          -3.34289645e-08, 1.41219073e-06, -4.71683006e-06,
          -6.51562686e-06, 1.90289884e-05, 1.74993636e-06,
          -2.03917193e-06, -7.30277179e-06, -3.40615111e-06,
          -3.99083729e-06 ]
      - [ -3.46347338e-06, -1.19961078e-05, -1.66074860e-05,
          -5.89454612e-06, -1.09047778e-06, -5.20372896e-06,
          -2.19784647e-06, -3.77468018e-06, 3.72323740e-07,
          -4.37692415e-06, -7.20232902e-06, 1.12172766e-05,
          1.60968139e-05, 2.61981882e-06, 0., 0., -2.76097171e-06,
          6.85522537e-06, 2.56228141e-05, 1.31986544e-05,
          -1.08836166e-05, -1.05266081e-05, -4.84598831e-06,
          -6.19505226e-06, -2.55754208e-06, -3.98013617e-06,
          -5.00685883e-06, -4.01705756e-06, -6.57567261e-06,
          -9.02026477e-06, -4.42380406e-06, 1.34641220e-06,
          4.78727679e-06, 4.87970510e-06, 1.09468124e-06,
          -1.22837437e-05, -1.38660271e-05, 4.01207080e-06,
          -3.91153520e-07, 1.82031772e-06, 3.61834373e-06,
          3.75402010e-06, -2.33121386e-06, -2.52142399e-05,
          -3.55984275e-06, 5.40946303e-06, 3.12387169e-06,
          5.04619766e-06, -2.42651549e-06, -6.02296950e-06,
          -2.85306851e-06, -7.94585776e-06, 1.67101043e-05,
          5.91592698e-06, 3.53717087e-06, 4.74345171e-07,
          -2.35274319e-06, 7.35478579e-06, 1.74729303e-05,
          2.74831041e-06, -5.85167209e-06, -1.19332817e-05,
          -6.83311919e-06, -2.26702855e-06 ]
      - [ 5.76210653e-07, -9.09288701e-06, 3.31559909e-06,
          -2.14041506e-06, -2.10824473e-05, -4.38431194e-08,
          -9.51090762e-09, 0., -6.07434743e-07, -1.78156242e-07,
          7.07986919e-06, 6.29479473e-06, -1.52700923e-05,
          3.84139184e-07, -3.72809467e-07, 0., -8.75761634e-06,
          -3.38844657e-05, 4.99379785e-05, 1.56408569e-05,
          1.90160711e-06, 0., 3.31020061e-07, 7.37029950e-07,
          -2.82147971e-06, -1.70704129e-06, -7.52929873e-06,
          -6.27788268e-06, 5.32939612e-06, 2.86691670e-06,
          2.61294872e-06, 2.21159397e-07, -6.61461172e-07,
          -2.47475509e-06, 5.16662340e-06, -3.52963343e-06,
          -4.89566048e-07, 1.16349383e-05, 3.32787999e-06,
          6.80627227e-06, -5.49945480e-06, -3.06672846e-05,
          -4.30416412e-06, -8.20862311e-09, 8.87156784e-06,
          8.41356905e-06, 3.58255829e-06, 1.97847226e-06, 0.,
          -1.78930725e-06, 1.01003916e-05, 5.27947350e-06,
          3.91752110e-05, 1.78485352e-05, 1.09434923e-05,
          -3.17246349e-06, -2.67448795e-05, -9.32644070e-06,
          3.31719712e-05, 1.13934575e-05, 4.68842336e-06, 0., 0., 0. ]
      - [ -4.77740969e-06, -3.23528843e-06, -9.17328452e-06,
          -1.29828259e-05, -7.26013559e-06, -1.68709666e-05,
          -7.72216390e-06, -1.86372620e-06, -5.94671474e-06,
          -4.38182815e-06, -2.81153257e-06, 1.33245730e-05,
          2.09363043e-05, -3.45079525e-06, -8.13536280e-06,
          -5.95129904e-06, -2.36695587e-06, 6.71748921e-07,
          3.87247237e-05, 1.91209874e-05, -2.84141497e-05,
          -1.44676706e-05, -7.23115909e-06, -4.70056648e-06,
          -2.18013884e-06, -6.23139067e-06, -1.27440117e-05,
          -1.00553571e-05, -1.20500845e-05, -8.57307441e-06,
          -4.70333407e-06, 6.00390331e-06, 1.61453272e-06,
          5.00896522e-06, -2.85974323e-07, -1.33903950e-05,
          -1.31109291e-05, 7.14271755e-06, -2.50866651e-06,
          5.15053034e-06, -2.78865832e-06, 2.16753233e-06,
          -3.19157357e-06, 0., -9.65850541e-06, -1.81932216e-06,
          -1.22631366e-06, 3.45329340e-06, -4.31725721e-06,
          -5.90022955e-06, 1.94716392e-07, -7.25522113e-06,
          2.01298953e-05, 1.03640650e-06, -4.69041242e-06,
          6.13812574e-07, -2.97278712e-06, 1.10029478e-05,
          2.14772244e-05, 5.33562661e-06, -1.30227991e-05,
          -1.57341183e-05, -6.01542934e-06, -7.43931241e-06 ]
      - [ -4.83747317e-06, -1.06409789e-05, -2.17716461e-05,
          -1.53980691e-05, 3.41634154e-06, -1.30248327e-05,
          -1.30762055e-05, -7.46082833e-06, -3.22058077e-06,
          -9.85708994e-06, -1.12433518e-05, 1.17479303e-05,
          3.22727683e-05, 3.16405476e-06, -6.88626687e-06,
          -1.90890501e-06, -3.35647564e-06, 9.18939895e-06,
          4.02929945e-05, -1.62614651e-05, -2.49417972e-05,
          -8.68562256e-06, 9.45982208e-08, 5.31911951e-07,
          -1.37619850e-06, -7.41529163e-07, -4.15434306e-06,
          -7.26413100e-06, -2.36529741e-05, -1.86104462e-05,
          -7.02706529e-06, 5.81768791e-06, 3.44481464e-06,
          -2.36269852e-06, 2.30699516e-06, -1.97693544e-06,
          6.55652002e-06, -4.52008589e-06, -7.24501751e-06,
          7.30735019e-06, 3.10460086e-06, 1.24525986e-05, 9.59449267e-07,
          -2.36607616e-06, 8.30283341e-07, -1.03293278e-05,
          -4.55874351e-06, 4.22194262e-06, -4.04176990e-06,
          -5.83880183e-06, -9.33467345e-06, -1.33272524e-05,
          3.05052508e-05, 1.08884078e-05, 6.94845812e-06, 2.36000506e-06,
          -7.89984279e-06, -5.64096536e-06, 1.15923258e-05,
          2.65596896e-06, -9.55553605e-06, -6.07540414e-06,
          -6.25817120e-06, -4.53761277e-06 ]
      - [ 1.14120676e-05, 2.69338716e-06, -3.99164783e-05,
          -9.25789482e-06, 1.36197104e-05, -4.07231767e-07, 0.,
          -2.15692103e-06, -2.06027153e-06, 5.40015321e-07,
          6.16674606e-06, 2.95249101e-05, 2.90428507e-05, 5.24209736e-06,
          8.41122869e-07, 8.62184334e-06, 9.45668944e-06, 2.01273042e-06,
          4.69660279e-07, 2.50551839e-05, 6.35533142e-05,
          -4.54759942e-07, -1.17505961e-05, -9.13388521e-06,
          -1.71352497e-06, -3.77271249e-06, -1.54863176e-06,
          -2.46100553e-05, -2.80239055e-05, 9.72577982e-06,
          4.79141818e-06, -2.60658499e-06, 1.61168202e-07,
          4.39199812e-06, -2.25305866e-05, -1.41138999e-05,
          6.00832163e-06, 2.47581411e-05, 1.00161133e-05, 3.07129267e-06,
          8.19960974e-07, 4.13757289e-06, 5.87022623e-06,
          -3.48040658e-06, 1.13176629e-05, 3.98264501e-06,
          3.70218390e-06, -3.03404408e-06, -1.62007163e-05,
          1.79197050e-05, 2.83409076e-06, 1.01014766e-05, 4.29775537e-06,
          2.41589555e-06, 1.27093463e-05, -1.41122530e-06,
          -4.02194655e-06, 9.00829127e-06, 8.90915089e-06,
          1.13532469e-05, 1.85843001e-05, -1.14510449e-05,
          -1.43300867e-05, -6.31525700e-06 ]
      - [ -2.02602605e-05, -8.92798471e-06, 1.13533306e-05,
          1.17327008e-05, -1.22431775e-05, -1.44080159e-05,
          -1.16803894e-05, -1.44247324e-05, -9.35826756e-06,
          -1.17821746e-05, -5.15128340e-06, 3.46294037e-05,
          3.70236339e-05, 1.98339364e-07, 9.99913937e-07, 6.15554063e-06,
          5.20757203e-06, 4.09951269e-07, -3.13242822e-06,
          5.72933868e-06, -4.95544145e-06, 3.64638453e-07,
          6.82631196e-07, 0., -1.95921348e-06, -3.61123881e-07,
          -1.85986380e-06, -9.36860761e-06, -2.30390706e-05,
          5.25338874e-06, 1.40953193e-06, 3.70673519e-07, 8.50304878e-06,
          7.00860801e-06, 2.90740409e-05, 2.61143305e-05,
          -4.48647334e-05, -4.17140291e-06, 2.90344769e-06,
          1.50857077e-05, 1.18717171e-05, 2.19353024e-05,
          -1.63748541e-06, -5.27696502e-05, -3.73577241e-05,
          2.29448451e-05, 1.41234332e-05, 2.76463379e-06,
          -8.55681628e-06, 2.19422077e-06, -6.05952300e-06,
          1.53087640e-05, 8.68957522e-06, -5.07049253e-06,
          2.09056179e-06, -1.28767488e-06, -9.79877041e-06,
          -2.76474475e-05, -1.37371298e-05, 2.24405721e-05,
          2.15143045e-05, -2.96186272e-06, -4.18063428e-06,
          1.96056976e-06 ]
      - [ 9.30812405e-07, -1.38230507e-05, -2.73127516e-05,
          -1.55142970e-05, 2.89871764e-06, -8.95442099e-06,
          -4.92962045e-06, -7.41346321e-06, 9.03965088e-07,
          -9.41325379e-06, -1.73439021e-05, 2.49819186e-05,
          3.27486887e-05, 4.51627648e-06, 4.28709245e-06, 3.32845116e-06,
          -7.15029682e-06, 1.10131998e-06, 2.02073716e-06,
          2.20534948e-05, 2.63623624e-05, -2.10348044e-05,
          -1.30832232e-05, -6.29622855e-06, -5.29149520e-06,
          -5.53467862e-06, -8.74467787e-06, -1.91912732e-05,
          -9.22550225e-06, -1.76776830e-05, -5.84925237e-06,
          -3.82906592e-06, 4.04123648e-06, 6.42009263e-06,
          1.41368700e-05, -6.48154219e-06, -2.87504663e-05,
          -5.47947639e-06, 2.34168692e-06, 4.52764425e-06,
          4.14899432e-06, 9.48881188e-06, 2.32422195e-07,
          -4.32701308e-05, -1.37841707e-05, 1.06302305e-05,
          6.89928993e-06, 1.21208870e-06, 9.75372814e-07,
          -2.19238723e-06, -5.56414125e-06, -2.80131053e-06,
          7.04122670e-07, 6.19015236e-06, 6.17277374e-06,
          -6.65555149e-08, -3.66656053e-07, 1.03083914e-06,
          4.23737447e-06, 1.41331784e-05, 3.13579653e-06,
          -5.38810264e-06, -2.94557867e-06, -2.26748313e-07 ]
      - [ 3.59841738e-06, -1.67562143e-06, 5.38927907e-06,
          1.09678303e-05, -5.67807137e-06, 1.84191862e-07,
          -2.35393793e-09, 0., 2.84481644e-07, 2.79464558e-08,
          2.56940598e-06, 2.87021862e-06, -9.50587128e-06,
          2.27298824e-06, 1.29425121e-06, 2.03367244e-06,
          -9.82757410e-06, -2.99828534e-05, -1.50472511e-06,
          1.32547484e-05, 3.21519583e-05, 6.92304127e-07, 2.78287757e-07,
          0., -1.90216610e-06, -9.00921918e-07, -2.66911252e-06,
          -1.80440918e-06, 8.20782134e-06, 5.58579131e-06,
          9.32443598e-08, -4.95336280e-06, -4.99575117e-06,
          -3.70274347e-06, 7.27034649e-06, 8.12603685e-06,
          6.78279230e-06, 1.87526723e-06, 1.59885496e-06,
          -5.95177937e-07, -5.42111411e-06, -1.95649845e-05,
          2.58268346e-06, 3.14710547e-07, 1.09230168e-05, 2.23478833e-06,
          2.09154473e-06, -4.99706812e-06, 3.24331040e-06,
          4.60728097e-06, 9.79314427e-06, 1.35152804e-05, 6.17537080e-06,
          3.58133707e-06, 6.14777991e-06, -1.09320183e-06,
          -1.89891653e-05, -1.88660269e-05, 6.54813402e-06,
          6.65987682e-06, 2.33807441e-05, 7.94944572e-06, 3.09417896e-06,
          4.80990275e-06 ]
      - [ -1.21160820e-05, 3.68336237e-06, -1.40808097e-05,
          -8.51920959e-06, -4.35748480e-05, -3.36347075e-05,
          -2.29643101e-05, -1.19279612e-05, -6.70877080e-06,
          -2.23770985e-05, -1.07595142e-05, 3.80018137e-05,
          4.94140695e-05, -1.92305761e-05, -2.53826920e-06,
          2.96056140e-08, -1.15049706e-05, -6.27403551e-06,
          -1.74653214e-05, 4.72971406e-05, 3.82083344e-05,
          -2.33527444e-05, -2.77390609e-05, -1.71679167e-05,
          -1.70261210e-05, -2.46419841e-05, -3.08508497e-05,
          -5.20659523e-05, -2.40644404e-05, -1.90574247e-05,
          5.86517103e-07, -1.43238822e-06, 2.07108860e-06,
          -2.08020356e-06, 1.18884254e-05, 1.96116234e-05,
          -2.95963328e-05, -1.21012499e-05, -3.51287281e-06,
          7.44805857e-06, -3.27671796e-06, 8.71395696e-06,
          -1.15036510e-05, 4.28744079e-06, -5.72581257e-06,
          -6.58221916e-06, -1.08395006e-05, -7.55477868e-06,
          -5.87827026e-06, 6.46826265e-06, 1.08638405e-05,
          -5.99166697e-07, -1.14350269e-05, 3.80499728e-07,
          -1.37219113e-05, -7.64939341e-06, -3.50603727e-07,
          4.01995840e-06, -4.19376107e-07, 7.28234590e-06,
          2.71424938e-06, -1.84151431e-05, 3.20282652e-06,
          2.88476167e-06 ]
      - [ -3.25124438e-06, -6.68534585e-06, -3.06051734e-05,
          -5.42256976e-06, -7.18022102e-06, -1.92190491e-05,
          -3.42060193e-05, -1.43743373e-05, -8.29345208e-06,
          -2.10683884e-05, -1.75571440e-05, 4.55933223e-05,
          3.79110716e-05, 8.29410146e-06, -1.14737959e-05,
          9.48825891e-06, -1.28733755e-05, -6.21228446e-06,
          -9.64744049e-06, -1.19983342e-05, 2.64636546e-05,
          -6.84136421e-06, 6.79963421e-07, 0., -4.41301427e-06,
          -1.43874649e-06, -7.00821738e-06, -1.59891297e-05,
          -4.49774416e-05, -2.82336878e-05, -1.11031623e-05,
          -2.73520413e-07, -1.20227685e-06, -7.37129494e-06,
          9.88059128e-06, 2.98128434e-05, 8.45062914e-06,
          -5.12854376e-06, -1.24732730e-06, 5.34933724e-06,
          5.28084138e-06, 1.25690594e-05, 1.40927204e-05,
          -9.11709833e-07, 2.15469004e-06, -2.98735486e-05,
          -4.29017337e-06, -1.41657747e-05, 1.13551023e-05,
          1.80277038e-05, -2.49444583e-05, -1.66167101e-05,
          -1.28879492e-05, 3.15796365e-06, 2.28425815e-05,
          -6.72922170e-07, -1.00658835e-05, -3.04855021e-05,
          -3.32655218e-05, 8.99794213e-06, 1.91110885e-05,
          7.01547970e-06, -8.37124503e-07, 1.08167228e-06 ]
      - [ -1.59344017e-05, -4.10944267e-06, 3.61456005e-05,
          9.31635077e-06, -2.17868037e-05, -6.39341442e-06,
          -4.13411544e-06, -2.19419258e-06, -4.29931288e-06,
          -3.41659916e-06, 4.82094856e-06, -7.83635585e-07,
          -1.28965821e-05, -4.64701770e-06, -2.08729693e-06,
          2.73320264e-08, -3.01168348e-06, -2.86184928e-07,
          -1.60452359e-07, -2.50294397e-05, -4.28727253e-05,
          6.24609311e-06, 3.51204039e-06, 8.05263142e-07,
          -7.57794055e-07, 5.91046103e-07, 8.65924335e-07,
          -5.92667107e-07, 1.63016430e-05, -4.75632669e-06,
          -1.32836078e-07, 7.11921018e-07, 4.01415809e-06,
          1.20907353e-05, 1.93749111e-05, 1.49009584e-05,
          -3.47308996e-05, -1.18819880e-05, 1.41873420e-06,
          1.76294441e-06, 4.95299037e-06, 2.34197682e-06,
          -8.38240521e-06, -2.11243441e-05, -2.36330216e-05,
          5.10702876e-06, 5.65315759e-06, 6.63561605e-06, 9.73125134e-06,
          -1.42190675e-06, -1.11863383e-05, 2.51413894e-06,
          -6.62378943e-06, -9.33888714e-06, -2.64608752e-06,
          -2.49970572e-06, -5.76987532e-06, -1.85426252e-05,
          -6.41154429e-06, -7.23593212e-06, 7.42648581e-07,
          3.32425975e-06, 1.09623506e-05, -1.19150002e-06 ]
      - [ -1.56935475e-05, -2.32698621e-05, -3.33960998e-06,
          -1.23828556e-06, -1.37041752e-05, -1.11239242e-05,
          -1.25920378e-05, -7.63165190e-06, 6.60203295e-06,
          -1.67410963e-05, -1.38994874e-05, -2.56301360e-06,
          -2.73392129e-06, 0., 0., 6.00702776e-07, -2.77489107e-05,
          9.06571263e-09, 3.35555660e-06, 1.47018670e-06,
          -3.70780072e-05, -2.76780902e-05, -1.47921364e-05,
          -6.04996740e-06, -7.10311497e-06, -1.04309256e-05,
          -2.48884680e-06, -1.43154708e-07, 2.75907860e-05,
          -3.29925970e-05, -1.50567203e-05, -8.88397244e-06,
          6.08508981e-06, 1.19684464e-05, 2.30552068e-05,
          -7.04644344e-06, -4.15728209e-05, -2.80302083e-05,
          2.75580192e-07, -6.30283830e-06, 2.91915654e-07,
          1.01756420e-07, -1.06693433e-05, -5.20819922e-05,
          -1.51666172e-05, 7.32244462e-06, 8.16197917e-06,
          7.60243620e-06, 1.80679526e-05, -1.08020586e-05,
          -2.19200556e-05, -1.25422584e-05, -6.26427163e-06,
          8.20691866e-07, -4.29165716e-08, 8.99063757e-09,
          -1.51547465e-06, 3.51174617e-06, -1.31280167e-05,
          -8.58924068e-06, -4.48381616e-06, 1.02915192e-06,
          8.02674913e-06, 9.62429294e-06 ]
      - [ -2.06512073e-06, -1.02959530e-06, 2.14613428e-05,
          -1.37315214e-06, -4.68918870e-06, 1.97446207e-06,
          2.39781116e-07, 1.43196985e-06, 4.76149552e-07, 3.27785273e-07,
          -1.36054484e-06, -1.12388830e-06, -2.78288753e-05,
          -4.69869065e-06, 2.01201559e-07, 3.53591844e-07,
          -1.50209889e-05, -2.95099053e-05, 8.38431390e-07, 0.,
          2.64537948e-06, 2.86252362e-06, 9.24308551e-07, 4.24112613e-06,
          1.50598316e-06, -6.26278847e-07, 1.59931813e-06,
          6.84893439e-06, 1.31379511e-05, -9.62588842e-07,
          -1.97318946e-06, -3.12225302e-06, -5.42055022e-06,
          -2.81392136e-06, 1.06583921e-05, 1.69273080e-05,
          1.54446809e-06, -5.54795315e-06, -2.62158210e-06,
          1.22289322e-07, -6.14750434e-06, -2.62812027e-05,
          8.84916062e-07, 3.95551615e-06, 4.27496798e-06, 1.21506332e-06,
          -1.01648038e-06, 1.53999792e-06, 1.58836210e-05,
          3.66734048e-06, 4.50536754e-06, 6.88234923e-06, 2.01179819e-06,
          2.69925948e-07, 1.65475774e-06, 4.61171823e-07,
          -1.10232559e-05, -2.65859962e-05, 5.47434456e-06,
          2.91483502e-06, 7.93127492e-06, 7.44898398e-06, 8.01579790e-06,
          8.16880492e-06 ]
      - [ -8.90960382e-06, 5.88024295e-06, 2.87228904e-05,
          -8.18481203e-06, -4.73336113e-05, -2.64229438e-05,
          -1.12440130e-05, -3.73082048e-06, -6.06790309e-06,
          -5.19981313e-06, 5.80307074e-07, -1.01369506e-05,
          -1.81039031e-05, -1.24868857e-05, -1.67420167e-05,
          -1.09083012e-05, -1.71307329e-05, -1.63852546e-05,
          -5.54597136e-06, 5.80319511e-06, -4.69549705e-05,
          -1.42354584e-05, -1.22993270e-05, -2.53647187e-07,
          -1.05032195e-05, -1.20192708e-05, -1.54899481e-05,
          7.65059394e-06, 1.69162158e-05, -1.75850528e-05,
          -8.90053525e-06, 1.26366012e-06, -1.10948326e-06,
          9.37022924e-06, 7.22428967e-06, 4.44470015e-06,
          -2.99805124e-05, -1.80850730e-05, -1.04973778e-05,
          4.02039814e-06, -1.10703113e-05, -6.82488826e-06,
          -6.91947253e-06, 1.49662364e-05, -2.26897428e-05,
          -6.93625498e-06, -5.69424583e-06, 1.98765110e-06,
          1.25331808e-05, -5.57184831e-06, -3.54750341e-06,
          -1.03547586e-06, -2.46951186e-05, -8.61592798e-06,
          -1.61474672e-05, -1.12290911e-06, -2.57388592e-06,
          2.31949093e-06, -1.85663503e-05, -6.13367865e-06,
          -9.58483361e-06, 1.35030871e-06, 1.29102964e-05,
          4.24974405e-06 ]
      - [ -1.14044160e-05, -4.57223996e-06, 1.10006267e-05,
          6.08620985e-06, -1.04760693e-05, -5.94740868e-06,
          -2.14240426e-05, -1.02246213e-05, -1.20471186e-05,
          -1.13376618e-05, -1.12596354e-05, 2.03441141e-06,
          -3.70583894e-06, 6.39498751e-07, -1.47004102e-05,
          -1.78835114e-06, -1.71370466e-05, -6.10594134e-06,
          -8.78949777e-06, -4.08332598e-05, -3.37467682e-05,
          7.39941441e-08, 1.07938085e-05, 7.07174058e-06,
          -8.80933612e-07, 2.78875768e-06, -1.15429668e-06,
          8.19543220e-06, 7.12362953e-06, -2.42669175e-05,
          -1.32864425e-05, -3.38492811e-07, 3.78257346e-06,
          -2.08128722e-06, 1.73717526e-05, 3.50259179e-05,
          -6.79436425e-06, -2.51324182e-05, -5.01482191e-06,
          1.73881503e-07, 6.05093055e-06, 9.13492386e-06, 2.40935719e-06,
          5.88054900e-06, -4.72279726e-06, -2.09184145e-05,
          -1.30705384e-05, -6.42092027e-06, 2.40402078e-05,
          -3.58404600e-06, -2.34520994e-05, -2.24984105e-05,
          -8.83356643e-06, -2.60751882e-08, 5.46802357e-06,
          7.81661583e-07, -2.54660313e-06, -2.72046382e-05,
          -3.71055285e-05, -6.85355781e-06, -3.38886207e-06,
          1.75454188e-05, 1.23185164e-05, 7.31139062e-06 ]
      - [ 2.22956660e-05, -1.82587755e-05, -6.28951675e-05,
          -3.75599848e-05, 1.61496610e-06, 1.02205004e-05,
          9.31323575e-06, -2.13862450e-06, 3.64605648e-06,
          7.68757400e-06, -4.07041662e-05, -1.33957728e-05,
          -1.12493524e-06, 1.13578644e-05, 1.45505046e-05,
          6.19404273e-06, -1.03317607e-05, 6.57696773e-07,
          1.37603649e-06, 5.26374606e-05, 4.75685629e-05,
          -4.08445339e-05, -2.21438113e-05, -2.91078704e-05,
          -5.43400063e-07, -8.02315753e-06, -1.22994052e-05,
          -3.03070428e-05, 9.91238448e-06, -4.18215095e-05,
          -1.15793346e-05, -6.25115604e-07, -3.08426547e-06,
          -8.77367299e-08, 2.30538740e-06, -3.63985032e-06,
          1.79694291e-06, -5.67700818e-06, -1.41449277e-06,
          -6.73533395e-06, -1.03269042e-06, -2.98351847e-06,
          -3.49916513e-06, -5.43085889e-06, -9.85879615e-06,
          -2.80762765e-06, -8.00783596e-07, 0., 7.05370394e-06,
          -1.16351039e-05, 2.85065016e-06, -2.77437484e-05,
          2.19149933e-05, 1.27244257e-05, 1.24834719e-06, 1.78361506e-06,
          1.68226397e-05, 1.92307325e-05, 2.37376153e-05, 5.88577359e-06,
          -2.18229820e-06, -8.61383887e-06, -8.00930957e-06,
          -1.41318533e-05 ]
      - [ 4.35768152e-06, 3.71235001e-06, 1.42979502e-06, 2.74148078e-06,
          -1.40785755e-06, 3.62931178e-06, 2.01892408e-06,
          1.33352387e-06, 4.38149709e-06, 2.38389634e-06, 4.67700102e-06,
          -3.82482040e-06, -1.76566500e-05, 8.50449396e-07,
          8.85009399e-07, 0., -8.32275055e-06, -2.29951529e-05,
          -2.54405745e-06, 1.10057372e-05, 2.39658348e-05,
          1.76214451e-06, 2.19374158e-07, 0., -1.52545613e-06,
          -1.36491906e-06, -1.32277944e-06, 4.29811871e-06,
          1.72546861e-05, 8.85914062e-07, -1.01100113e-06,
          -3.12113752e-06, -7.04992590e-06, -5.60714261e-06,
          -2.95712425e-06, 5.32217928e-06, 1.24436101e-05,
          1.33332765e-06, -1.73334558e-06, -2.06056166e-06,
          -9.36995457e-06, -1.70421845e-05, 2.99896419e-06,
          1.32549321e-05, 1.52843404e-05, -2.44006287e-06,
          -1.93043411e-06, -6.51957635e-07, 7.21064544e-06,
          1.67193127e-06, 8.56330098e-06, 4.09787617e-06, 2.57192710e-06,
          5.43275200e-06, 2.33405785e-06, 1.14447084e-06,
          -8.41098881e-06, -7.67925212e-06, 3.62479796e-06,
          3.61518778e-06, 8.40758639e-06, 5.75106424e-06, 1.80947006e-06,
          3.00008151e-06 ]
      - [ 6.22069228e-06, 1.10413666e-05, -2.29977595e-05,
          -1.46086468e-05, -2.37883996e-05, -1.18914222e-05,
          -3.73893545e-06, 2.87442958e-06, 1.10966212e-05,
          -1.10738574e-05, -1.52646828e-06, -1.95760440e-05,
          -5.06871447e-06, -8.71334123e-06, -9.44948533e-06,
          -2.52816267e-06, -1.43941970e-05, -7.77258265e-06,
          -9.05286834e-06, 3.82250291e-05, 4.08998021e-05,
          -2.83225490e-05, -2.02839110e-05, -9.58511919e-06,
          -1.14460390e-05, -2.97790175e-05, -2.32977181e-05,
          -6.26680958e-06, 1.67774924e-05, -2.54112110e-05,
          -8.31804471e-07, -5.04817399e-06, -1.04930896e-05,
          -1.06373600e-05, -1.22364972e-05, 5.75204785e-06,
          2.41126709e-05, -3.27288785e-06, -8.94474124e-06,
          -8.77279854e-06, -1.47400706e-05, -1.13790875e-05,
          -1.52091261e-05, 5.51554149e-05, 4.90500897e-05,
          -2.20830407e-05, -2.06462919e-05, -1.73839726e-05,
          9.00054511e-06, -4.81404550e-06, 7.81956442e-06,
          -7.72795920e-06, -1.94000108e-06, 5.48939306e-06,
          -1.02376889e-05, -8.94848563e-06, 7.13723466e-06,
          1.35262835e-05, 2.29773468e-05, -4.34294270e-06,
          -1.65252077e-05, -3.41244595e-06, -2.27496344e-06,
          -6.12892472e-06 ]
      - [ 1.23597702e-05, 1.50658507e-05, -4.01190591e-05,
          -7.45917623e-06, 8.66154642e-06, -5.15245802e-06,
          -2.68476128e-06, 3.53251517e-06, -6.71052658e-06,
          -3.10123414e-06, -1.02771255e-05, -6.13660040e-06,
          1.46003758e-05, 3.67339908e-06, -3.22298820e-06,
          -5.26549627e-07, -9.61733349e-06, -6.73230488e-06,
          -1.10341261e-05, -1.31541010e-05, 2.75198399e-05,
          -7.89785645e-06, 4.06414529e-07, 0., -3.60567583e-06,
          -1.51289476e-06, -4.95653785e-06, 5.30926945e-06,
          1.13188053e-05, -2.91223150e-05, -1.20256645e-05,
          -2.88191723e-06, -1.12627704e-05, -2.23799707e-05,
          -7.97202210e-06, 1.02131571e-05, 2.93302110e-05,
          8.95026642e-06, -2.05353881e-05, -3.56179839e-06,
          -8.27437725e-06, 2.46149739e-06, 9.09940718e-06,
          3.97848962e-05, 3.72296417e-05, -2.50537996e-05,
          -1.15591420e-05, -1.15783905e-05, 1.14411077e-05,
          -4.37922336e-06, -5.89674073e-06, -1.82876174e-05,
          -9.36859976e-07, 1.56972674e-05, 6.18879585e-06,
          2.20177617e-06, -2.98344844e-06, -3.58525563e-06,
          -2.10941380e-05, -4.67149812e-06, 3.80570646e-06,
          9.79980814e-06, 9.57754651e-07, 6.18054264e-06 ]
      - [ 3.08448921e-06, 4.84335487e-06, 1.51118720e-05, 6.66313235e-06,
          -3.36258336e-06, 3.38294990e-06, 2.49419372e-06,
          2.40936197e-06, -3.95180649e-07, 4.47769071e-06,
          6.73529803e-06, -2.74695503e-06, -1.93212691e-05,
          -3.44351201e-06, -5.45992798e-08, 0., -2.98611508e-06,
          -1.96648052e-05, -2.36092410e-06, 0., 8.98494636e-06,
          8.90296269e-06, 3.60460490e-06, 4.11359360e-06, 1.41751264e-06,
          2.29173952e-06, 1.92740208e-06, 2.57637316e-06, 7.68440623e-06,
          6.82009932e-06, 2.49914979e-06, 8.89817045e-07,
          -6.73079057e-06, -3.93289702e-06, 5.86562692e-07,
          1.09396160e-05, 1.31912630e-05, 1.14691670e-06,
          -9.04164892e-07, 1.49036180e-06, -7.12369956e-06,
          -1.59568899e-05, 1.77203083e-06, 2.00443392e-05,
          4.80897188e-06, -6.54479265e-07, -1.80323809e-06,
          -1.09799714e-06, 2.60960633e-06, 4.20232436e-06,
          7.78019421e-06, 7.99141253e-06, 4.66779466e-06, 2.53908539e-08,
          1.87003224e-07, -4.37510124e-07, -8.91034870e-06,
          -1.65407982e-05, 3.96021824e-06, 5.51581979e-06,
          8.20725654e-06, 8.52584890e-06, 5.39776511e-06, 1.04995729e-06 ]
      - [ 6.24559061e-06, 2.93388748e-05, 3.95735769e-05, 1.03261909e-05,
          -4.12331210e-05, -1.50531550e-05, -7.07301569e-06,
          1.38134942e-06, -4.19072376e-06, -8.48674972e-06,
          2.62563681e-05, -8.42386817e-06, -4.92807703e-06,
          -1.38086734e-05, -2.27516430e-05, -1.65158835e-05,
          -9.69305347e-06, -1.37940287e-05, -1.13423494e-05,
          -1.76123194e-06, -1.07047708e-05, -1.24374924e-06,
          2.47508069e-06, 1.14009599e-05, -7.55852398e-06,
          -5.98541601e-06, 1.41953819e-06, 8.19916659e-06,
          -1.04178362e-05, 6.05921923e-06, 3.93394248e-06,
          -8.91788886e-07, -2.96512599e-06, -8.92837488e-06,
          -1.97700119e-05, -4.79611526e-06, 2.79967735e-05,
          6.53461893e-06, -7.14589578e-06, 2.70612830e-08,
          -1.33552503e-05, -1.43537909e-05, -5.18233583e-06,
          7.39372335e-05, 2.66328952e-05, -3.06222828e-05,
          -1.51331933e-05, -1.21420644e-05, -3.21052107e-06,
          7.43831288e-06, 6.47717025e-06, 1.17369682e-05,
          -1.21912044e-05, -1.44404994e-05, -1.92301686e-05,
          -9.93508365e-06, -2.26540146e-06, 3.11384315e-06,
          -1.58303592e-05, -5.97316557e-06, -2.51571346e-05,
          8.79035451e-06, 6.94109167e-06, 4.36264463e-06 ]
      - [ 4.66072152e-06, 1.18259850e-05, 8.49651042e-06, 1.08633603e-05,
          -3.79967173e-06, -4.14112355e-06, -5.24307370e-06,
          3.58239345e-06, -1.32791629e-05, 1.06075947e-06,
          1.96686710e-06, -3.80990014e-06, -1.63183884e-07,
          -7.17778448e-07, -8.70688018e-06, -1.48899551e-06,
          3.05559752e-06, -5.76821003e-06, -9.18047772e-06,
          -4.16311595e-05, -1.23479833e-06, 1.67728431e-05,
          1.05712852e-05, 8.50025208e-06, 4.09782888e-06, 6.39567224e-06,
          5.33453795e-06, 1.07077722e-05, -1.47465180e-05,
          -2.28854583e-06, -9.21104743e-07, 3.82452572e-06,
          -6.17351952e-06, -1.56649276e-05, -1.06683615e-06,
          2.49995373e-05, 2.71597255e-05, 2.84698285e-06,
          -1.35624778e-05, 1.65418101e-06, -6.93949573e-07,
          2.65397375e-06, 7.05929915e-06, 4.28641179e-05, 1.39992189e-05,
          -1.73060362e-05, -1.23846958e-05, -7.99372629e-06,
          3.17599438e-06, 4.16549710e-06, -4.40812710e-06,
          -2.92551704e-07, -2.15344426e-06, 2.06610807e-07,
          4.35919446e-07, -1.76963709e-07, -2.72090165e-06,
          -2.53389735e-05, -2.96956296e-05, -6.70523946e-07,
          6.14024202e-06, 1.73754033e-05, 6.34340131e-06, 7.28738542e-07 ]
      - [ -3.17058107e-06, 2.27042278e-06, -5.82027769e-06,
          -1.20958975e-05, -1.69031932e-06, -9.73413989e-06,
          -4.80829704e-06, -1.60045909e-06, -4.07485277e-06,
          -1.96459905e-06, -4.05585615e-06, 9.07492506e-07,
          2.21208447e-05, 1.56110218e-06, -7.06341825e-06,
          -4.64763843e-06, 5.06284641e-06, 1.81660962e-05,
          3.38224345e-06, 0., -1.88092617e-05, -1.05527342e-05,
          -4.13084308e-06, -5.47082891e-06, 1.18742173e-06,
          -2.79444180e-06, -7.10408722e-06, -6.82445670e-06,
          -1.62409142e-05, -5.44580871e-06, -1.80028303e-06,
          2.35243169e-06, 6.05420928e-06, 4.79899109e-06,
          -5.61244406e-06, -9.63948241e-06, -1.23451982e-05,
          -2.34266793e-07, -1.66596749e-06, -5.90634208e-08,
          2.97341467e-06, 1.90589144e-05, -3.04614923e-06,
          5.74600723e-09, -9.83827522e-06, -6.36771483e-06,
          -1.60379204e-06, 1.39501665e-07, -3.19923492e-06,
          -2.20830816e-06, -4.72176362e-06, -7.96153199e-06,
          -1.53029541e-05, -5.04370792e-06, -7.54388520e-06,
          1.22687175e-06, 1.12373382e-05, 1.80766838e-05,
          -6.79777122e-06, -4.04875573e-06, -1.90447990e-05,
          -1.27589501e-05, -3.77061133e-06, -3.72689442e-06 ]
      - [ -1.30497654e-06, 3.53605536e-08, -1.19056103e-05,
          -7.63661046e-06, 1.33935418e-06, -7.57405587e-06,
          -4.94556070e-06, -2.67542532e-06, -2.32061120e-06,
          -4.16313378e-06, -8.07992819e-06, -1.33525282e-06,
          2.21819446e-05, 4.78402080e-06, -1.87414696e-06,
          -1.50874570e-07, 7.12200199e-06, 2.27974670e-05,
          -1.44450701e-06, -1.97764966e-05, -1.58811927e-05,
          -4.98402187e-06, -1.41139580e-07, 0., -1.25557751e-08,
          1.44401497e-06, -2.75455420e-07, -5.73529496e-06,
          -1.85913686e-05, -8.16503234e-06, -2.77663048e-06,
          1.78473965e-06, 6.29050874e-06, -1.14256534e-06,
          -1.55895088e-06, 1.48964330e-06, -1.06387524e-05,
          -1.71099737e-06, -4.04061802e-06, 1.11464715e-07,
          7.56159716e-06, 2.27568707e-05, 3.93894908e-07,
          -3.69291371e-07, -8.95554331e-06, -7.21850802e-06,
          -2.21533946e-06, -2.02168849e-06, -2.83738996e-06,
          -2.95896166e-06, -1.21873272e-05, -1.19344768e-05,
          -2.65942890e-06, -1.29638153e-07, 0., 5.35177165e-08,
          7.54527991e-06, 9.06651985e-06, -1.54958616e-05,
          -5.34375931e-06, -8.98538929e-06, -3.10531641e-06,
          -3.08829635e-06, -1.97470627e-06 ]
      - [ 1.85282022e-06, -8.64966569e-06, -2.58003547e-05,
          2.59633725e-05, 2.61024052e-05, 5.69152235e-06,
          -9.59553199e-06, -9.56303779e-07, -5.84117515e-07,
          -4.92316167e-06, -9.30697115e-06, -6.52502149e-06,
          1.06675516e-05, 9.52209302e-06, 8.59530701e-06, 9.72166617e-06,
          -6.46059490e-08, 9.60341822e-06, -9.73959050e-06,
          -5.24950301e-05, 6.06813319e-06, 1.12191274e-05,
          2.14158681e-05, 1.08755949e-05, 3.34236711e-06, 1.28893244e-05,
          1.47705123e-05, 1.46658649e-05, 1.81328926e-06,
          -1.08760969e-05, -8.75089881e-06, 1.33473827e-06,
          -9.44602471e-06, -1.92289517e-05, 1.34404008e-05,
          2.86387331e-05, 3.55367265e-05, -6.27205782e-06,
          -9.66867992e-06, -1.19287517e-06, 7.92339142e-06,
          1.56339993e-05, 1.58379680e-05, -4.35512629e-06,
          4.48470200e-06, -8.68600637e-06, 2.84935322e-06,
          -2.04338721e-06, -2.63019615e-06, -1.82182339e-06,
          -8.97425525e-06, -8.66006940e-06, 1.02365884e-05,
          1.60382715e-05, 1.64920730e-05, 6.92805315e-06,
          -9.89116506e-06, -3.45255103e-05, -2.41426478e-05,
          -2.24407972e-06, 2.79900451e-05, 3.01439977e-05,
          4.52251106e-06, -1.16204347e-07 ]
   uncompressed_sv_total: 204
   uncompressed_support_vectors:
      - [ 1420., 5.73372998e+03, 4.74438184e+03, 4.32164453e+03, 2660.,
          0., 0., 2.06891870e+03, 2.84977197e+03, 4.43563232e+03,
          5.00233203e+03, 3.84435327e+03, 2040., 0., 0., 0., 3172., 0.,
          0., 0., 7.93121240e+03, 1.86766040e+03, 7.27898877e+03,
          5.02481842e+02, 2.48493726e+03, 1.88895862e+03, 0., 0.,
          5.58647119e+03, 1.43902271e+03, 5.96541162e+03, 1.86239648e+03,
          4080., 0., 0., 0., 6.17977246e+03, 8.24241797e+03,
          8.37454651e+02, 0., 1420., 0., 0., 0., 4.79516797e+03,
          2.34886890e+03, 7.62838916e+03, 4.49043427e+02, 5.53101807e+03,
          7.59698682e+03, 2.55945654e+03, 2.06222461e+03, 2040., 0., 0.,
          0., 2.12228003e+03, 2.35948657e+03, 7.11462988e+03,
          1.94851306e+03, 2040., 0., 0., 0. ]
      - [ 46., 1.73118799e+03, 6.13141162e+03, 5.42180713e+03,
          7.54154590e+03, 0., 7.07106781e+00, 2.05049365e+03,
          1.37110449e+03, 5.65930713e+03, 7.43558740e+03, 1.65291809e+03,
          1560., 0., 0., 0., 2040., 0., 0., 0., 6.14293994e+03,
          7.67791113e+03, 1.79198792e+03, 4.56645654e+03, 2040., 0., 0.,
          0., 4.02639209e+03, 5.78445508e+03, 3.96784399e+03,
          1.02028668e+03, 1.88024585e+03, 3.79082397e+03, 3.70904297e+02,
          2.16365967e+03, 8.89601563e+03, 4.87052344e+03, 3.21506177e+03,
          6.60903778e+01, 766., 0., 0., 0., 3.25242407e+03,
          4.29944971e+03, 5.03802002e+03, 2.01788599e+03, 1.35766089e+03,
          1.82310742e+03, 2.21855933e+03, 3.94239551e+03, 2040., 0., 0.,
          0., 2.98917310e+03, 4.12439258e+03, 6.09847949e+03,
          2.46601440e+03, 2040., 0., 5.65685415e+00, 8.15760596e+03 ]
      - [ 6.08713379e+02, 8.90394287e+02, 1.61361157e+03, 8.11897656e+03,
          10200., 0., 0., 2.13725195e+03, 2.86022656e+03, 5.12118262e+03,
          5.18300586e+03, 1.84194946e+03, 4080., 0., 0., 4.00499687e+01,
          2040., 0., 0., 0., 7.37180029e+03, 4.42139355e+03,
          4.14512891e+03, 6.59246484e+03, 0., 0., 0., 0., 3.14737158e+03,
          3.20209497e+03, 3.15394971e+03, 4.14874054e+02, 0., 0., 0., 0.,
          1.17740234e+04, 8.40641504e+03, 2.42511499e+03, 2.29315445e+02,
          0., 0., 0., 0., 2.69454175e+03, 3.21021191e+03, 4.92363770e+03,
          6.00903955e+03, 5.11201141e+02, 1.79936499e+03, 4.09049194e+03,
          3.01399756e+03, 2102., 0., 1.13137083e+01, 9.55384521e+02,
          2.95206519e+03, 6.48528076e+03, 3.77067578e+03, 1.92762305e+03,
          2086., 0., 3.32682076e+01, 8.14220947e+03 ]
      - [ 1424., 4.02478320e+03, 5.79045459e+03, 3.71618188e+03, 2660.,
          0., 1.65529461e+01, 4.63433643e+03, 1.86536475e+03,
          1.51156787e+03, 6.68089307e+03, 4.76810156e+03, 2040., 0., 0.,
          0., 1928., 0., 0., 0., 6.14687109e+03, 6.96056445e+03,
          2.12213770e+03, 6.44822461e+03, 0., 0., 0., 0., 3.52748486e+03,
          1.01997422e+04, 1.46085739e+02, 2.92290009e+02, 0., 0., 0., 0.,
          8.80698145e+03, 4.00425562e+03, 2.40982617e+03, 4.53088013e+02,
          1420., 0., 0., 0., 5.29062061e+03, 4.85464990e+03,
          1.36214868e+03, 8.00304004e+03, 2.01408850e+03, 1.11275415e+03,
          5.99557764e+03, 4.98356982e+03, 16., 0., 1.13137083e+01, 0.,
          1912., 2.98399048e+02, 6.60184863e+03, 4.40441357e+03, 2024.,
          0., 2.16093388e+01, 6.10666895e+03 ]
      - [ 1.76306909e+03, 2.69843579e+03, 5.40420166e+03, 3.56265479e+03,
          3296., 0., 0., 0., 4.55755420e+03, 7.47686719e+03,
          2.37775024e+03, 4.60817188e+03, 2040., 0., 0., 0., 2024.,
          4.24264050e+00, 0., 1.01980391e+01, 6.71151025e+03,
          4.78988818e+03, 4.75632666e+03, 5.67041443e+02, 6.09695557e+03,
          2.79491806e+01, 0., 0., 2024., 1.86921204e+03, 4.79598242e+03,
          2.48193726e+03, 6.11269434e+03, 1.65529461e+01, 0., 0.,
          7.85777881e+03, 6.61059131e+03, 2.06522876e+03, 8.40163818e+02,
          4.34062891e+03, 0., 0., 0., 4.08884521e+03, 4.66475244e+03,
          2.09362769e+03, 1.43434058e+03, 3.86324561e+03, 3.74831470e+03,
          4.81403271e+03, 3.87981909e+03, 0., 0., 0., 0., 4.29909619e+03,
          7.47458105e+03, 2.12021777e+03, 1.17811157e+03, 2040., 0.,
          2.37152661e+03, 2.03311401e+03 ]
      - [ 804., 5.48618262e+03, 9.83004297e+03, 1.37912988e+03, 4512.,
          2.77848873e+01, 1.65529461e+01, 6.10678906e+03, 1.97941846e+03,
          1.20621228e+03, 4.37361475e+03, 2.11859790e+03, 2040., 0., 0.,
          0., 2040., 0., 0., 0., 1.89898364e+03, 7.01763477e+03,
          2.94133350e+03, 3.82399609e+03, 2.02420349e+03, 2.39421216e+03,
          0., 0., 4.12156738e+03, 4.86611670e+03, 6.16339697e+03,
          2.49596094e+03, 0., 0., 0., 0., 1.17151982e+04, 2.20045435e+03,
          5.83161816e+03, 1.29011627e+02, 804., 0., 0., 0.,
          6.19659961e+03, 4.56676025e+03, 6.45079004e+03, 2.93580420e+03,
          2.36352441e+03, 4.93411816e+03, 5.44413965e+03, 3.69866602e+03,
          2.03430200e+03, 0., 3.67695541e+01, 6.50076904e+01,
          2.81811377e+03, 4.48504932e+03, 2.94121387e+03, 2.34760645e+03,
          2026., 0., 2.79491806e+01, 4.05259595e+03 ]
      - [ 8.93298218e+02, 3.83251892e+02, 4.14749072e+03, 6.95430664e+03,
          5748., 0., 0., 0., 4.60538672e+03, 7.00919287e+03,
          1.98163379e+03, 5.73591553e+03, 1.98632898e+03, 8.48999405e+01,
          0., 0., 2036., 0., 2.43655487e+02, 1.92373755e+03,
          2.54766528e+03, 9.15131055e+03, 2.46695142e+03, 5.68595276e+02,
          6.11620459e+03, 7.07106781e+00, 0., 0., 2036., 5.50608154e+03,
          2.31067505e+03, 0., 2046., 4.24264050e+00, 0., 0.,
          1.14674326e+04, 3.58397510e+03, 5.70315088e+03, 8.90360107e+02,
          1906., 0., 0., 0., 1.40152698e+03, 5.20361719e+03,
          5.47417188e+03, 2.31826074e+03, 5.24978369e+03, 4.79491455e+03,
          2.50098779e+03, 4.19004980e+03, 2., 0., 0., 1.15700549e+03,
          4.23325293e+03, 3.16132520e+03, 7.37440430e+03, 1.98275964e+03,
          2042., 0., 0., 2.04000391e+03 ]
      - [ 2.43870435e+03, 2.79587573e+03, 4.44210889e+03, 7.21794824e+03,
          4512., 0., 3.63593178e+01, 4.95815918e+03, 1.83656201e+03,
          1.02693152e+03, 7.71728467e+03, 2.51083496e+03, 2.04272571e+03,
          0., 0., 0., 1892., 0., 3.13336884e+02, 1.79671204e+03,
          5.14641650e+03, 2.08081812e+03, 7.11974609e+03, 1.73994214e+03,
          3.16776489e+03, 1.26634155e+03, 2.80471039e+02, 0.,
          5.08758008e+03, 1.92739636e+03, 6.10128174e+03, 2.20210159e+02,
          0., 0., 0., 0., 1.02311777e+04, 7.97987012e+03, 3.11211719e+03,
          1.07239001e+03, 804., 0., 0., 0., 3.60399609e+03,
          3.34689502e+03, 4.89480420e+03, 5.49142969e+03, 1.63763745e+03,
          3.56178564e+03, 2.18425684e+03, 6.14439160e+03, 16., 0.,
          1.13137083e+01, 6.91810760e+01, 5.53737451e+03, 7.02295020e+03,
          1.29133252e+03, 4.39631396e+03, 2040., 0., 4.62994194e+01,
          6.14897510e+03 ]
      - [ 1.02442297e+03, 1.02518738e+03, 4.43473389e+03, 8.28564355e+03,
          4496., 0., 0., 0., 4.06066528e+03, 6.05180664e+03,
          4.33325830e+03, 4.15429199e+03, 2040., 0., 0., 0., 1978.,
          3.25269127e+01, 2.72998169e+02, 3.92353418e+03, 3.74010498e+03,
          4.52893115e+03, 3.72938501e+03, 1.61478210e+03, 6.15091992e+03,
          4.24264050e+00, 0., 0., 4.55796729e+03, 1.77058923e+03,
          3.27572217e+03, 0., 2.04047009e+03, 0., 0., 0., 1.31722773e+04,
          6.85038086e+03, 9.29103760e+02, 1.76740955e+03, 804., 0., 0.,
          0., 2.12836206e+03, 4.42403467e+03, 5.60442383e+03,
          2.41311206e+03, 6.44527246e+03, 3.00372192e+03, 8.66064258e+03,
          0., 0., 0., 0., 0., 2.10609033e+03, 4.94443311e+03,
          5.70227246e+03, 2.05831152e+03, 2040., 0., 0., 0. ]
      - [ 4.92017188e+03, 3.67386499e+03, 8.00346631e+03, 2.55679834e+03,
          4464., 0., 0., 0., 4.70258887e+03, 5.93997900e+03,
          4.83145947e+03, 3.90115674e+03, 0., 0., 0., 0., 3.49839087e+03,
          0., 0., 2.04000415e+03, 3.88155908e+03, 3.79466309e+03,
          4.32493555e+03, 6.44524658e+02, 6.11418506e+03, 0., 0., 0.,
          9.69908008e+03, 1.18389453e+03, 6.03029395e+03, 9.36510620e+02,
          4.07927930e+03, 0., 0., 0., 1.13248438e+04, 4.93069482e+03,
          3.07583521e+03, 1.78080249e+03, 1.84235876e+03, 0., 0., 0.,
          6.22515088e+03, 1.60102283e+03, 7.18019971e+03, 6.43268188e+02,
          3.74634741e+03, 6.65631201e+03, 1.95264807e+03, 5.81972607e+03,
          0., 0., 0., 0., 4.59092627e+03, 3.86263818e+03, 6.15730371e+03,
          3.88225024e+03, 2660., 0., 0., 2.04000488e+03 ]
      - [ 2.78113843e+03, 3.94056519e+03, 7.93816748e+03, 2.58154346e+03,
          4512., 0., 0., 0., 6.68624707e+03, 1.89565173e+03,
          5.59952148e+03, 5.77831250e+03, 0., 0., 0., 0., 3.05104126e+03,
          0., 0., 2.04001636e+03, 6.75739160e+03, 1.49128394e+03,
          3.37185693e+03, 1.71884631e+03, 6.09641162e+03, 0., 0., 0.,
          3.97450073e+03, 3.18931445e+03, 7.87788037e+03, 1.58832813e+03,
          3.78738013e+03, 4.03481995e+02, 1.48553024e+02, 0.,
          1.12812031e+04, 4.23988037e+03, 3.56308594e+03, 2.39618091e+03,
          804., 0., 0., 0., 4.62042480e+03, 4.38466455e+03,
          3.78932202e+03, 2.08425000e+03, 7.76041406e+03, 3.72636377e+03,
          1.98651611e+03, 5.81170508e+03, 0., 0., 0., 0., 2.99076636e+03,
          5.68754980e+03, 8.16520410e+03, 0., 2040., 0., 0., 0. ]
      - [ 2.73361426e+03, 5.74766406e+03, 9.01490173e+02, 6.95100732e+03,
          5748., 0., 0., 0., 6.54422754e+03, 1.37756006e+03,
          8.69926660e+03, 7.29484741e+02, 2.04033240e+03, 0., 0., 0.,
          1420., 2.29102600e+02, 6.64830780e+01, 1.94338220e+03,
          2.54181665e+03, 4.31412988e+03, 7.68052051e+03, 1.54713428e+03,
          8.94924561e+02, 3.81537036e+03, 0., 0., 6.40563574e+03,
          3.77450977e+03, 3.71854395e+03, 2.07366260e+03, 4080., 0., 0.,
          0., 1.27349541e+04, 3.76425366e+03, 1.31732129e+03,
          2.06428638e+03, 804., 0., 0., 0., 4.18823438e+03,
          4.29866455e+03, 5.72247852e+03, 4.49043427e+02, 6.56904346e+03,
          2.55129248e+03, 6.14484131e+03, 5.13886426e+03, 0., 0., 0., 0.,
          2.41673950e+03, 3.70421240e+03, 3.68923364e+03, 2.50563550e+03,
          3900., 0., 0., 0. ]
      - [ 2.10722827e+03, 3.93683862e+03, 4.60110254e+03, 3.78602539e+03,
          3376., 0., 8.21263885e+01, 6.03466016e+03, 1.46800977e+03,
          1.82434546e+03, 3.45325073e+03, 5.16878613e+03, 2.09308325e+03,
          0., 5.72712860e+01, 8.44400391e+02, 2002., 0., 0., 0.,
          7.14051172e+03, 3.58361108e+03, 2.25182080e+03, 8.52754590e+03,
          0., 0., 0., 0., 4.39052686e+03, 2.30065771e+03, 2.78003101e+03,
          1.41515881e+03, 0., 0., 0., 0., 6.22523096e+03, 7.83634033e+03,
          5.16929443e+03, 9.12140350e+01, 1404., 0., 0., 0.,
          6.19066846e+03, 3.63483618e+03, 6.97629492e+03, 2.80731494e+03,
          4.36729834e+03, 8.64315430e+03, 3.82167627e+03, 2.56947192e+03,
          2056., 0., 9.89949512e+00, 7.76659546e+01, 3.81079468e+03,
          3.76150415e+03, 5.63697070e+03, 1.40529114e+03, 2040., 0., 0.,
          0. ]
      - [ 4.61173682e+03, 6.43639209e+03, 4.46053711e+03, 3.56838281e+03,
          2660., 0., 0., 0., 4.51353564e+03, 5.52385791e+03,
          6.05143701e+03, 2.70167627e+03, 0., 0., 0., 0., 3.62608374e+03,
          0., 0., 0., 5.04245947e+03, 1.77631384e+03, 7.43784473e+03,
          1.45227271e+03, 4080., 0., 0., 0., 8.46014258e+03,
          3.43579199e+03, 3.89894214e+03, 2.00748853e+03, 4.08519678e+03,
          7.07106781e+00, 0., 0., 1.16618262e+04, 2.07990332e+03,
          1.25236548e+03, 0., 1420., 2.82842708e+00, 0., 2.03800977e+03,
          3.98282959e+03, 4.75333350e+03, 5.84342969e+03, 5.45853455e+02,
          5.64638281e+03, 6.54100098e+03, 1.78655688e+03, 7.91714307e+03,
          0., 0., 0., 0., 1.47729822e+03, 1.39120508e+03, 5.64981494e+03,
          3.14961328e+03, 3280., 0., 0., 0. ]
      - [ 1.64042297e+03, 1.11652185e+03, 6.29712061e+03, 5.90429834e+03,
          2024., 0., 0., 0., 6.41652344e+03, 2.24264307e+03,
          6.08934668e+03, 6.66502148e+03, 0., 0., 0., 0., 1420.,
          5.65685415e+00, 0., 2.04003674e+03, 4.12538721e+03,
          6.63327734e+03, 1.45553308e+03, 2.01263354e+03, 6.13816455e+03,
          5.65685415e+00, 0., 0., 5.92861279e+03, 8.34784082e+03,
          1.59806137e+02, 0., 6.12303027e+03, 5.83095169e+00, 0., 0.,
          1.08143916e+04, 3.93500757e+03, 6.58465942e+02, 0., 1420., 0.,
          0., 0., 5.34518652e+03, 5.28034326e+03, 1.12269470e+03,
          1.99821289e+03, 8.06744873e+03, 1.16227808e+03, 6.74396191e+03,
          3.87228516e+03, 0., 0., 0., 0., 1.64042297e+03, 2.93928894e+02,
          6.22586768e+03, 4.83345605e+03, 3280., 0., 0., 0. ]
      - [ 1420., 5.61776465e+03, 5.89870264e+03, 6.84726196e+02, 3900.,
          0., 2.75548364e+03, 1.76205579e+03, 4.51247162e+02,
          5.66658887e+03, 4.73842676e+03, 3.84435327e+03, 2040., 0., 0.,
          0., 1420., 0., 0., 0., 5.03832080e+03, 6.14484131e+03,
          2.54987817e+03, 2.47532568e+03, 4080., 0., 0., 0.,
          5.83726172e+03, 5.61428564e+03, 4.01131860e+03, 0., 4080., 0.,
          0., 0., 6.17977246e+03, 8.08918750e+03, 2.50379492e+03,
          1.13762939e+03, 2554., 0., 0., 0., 5.88435352e+03,
          5.00233203e+03, 2.43409351e+03, 2.46422754e+03, 8.15451758e+03,
          1.51721741e+03, 5.79701855e+03, 2.99832080e+03, 2040., 0., 0.,
          0., 2.33434399e+03, 2.80616260e+03, 6.99138232e+03,
          1.55513000e+03, 3900., 0., 0., 0. ]
      - [ 1420., 6.64680405e+01, 1.11030244e+04, 3.05765942e+03,
          2.68928613e+03, 0., 1.27279224e+01, 2.04975684e+03,
          4.27401074e+03, 3.83922461e+03, 2.98914185e+03, 6.15778223e+03,
          2040., 0., 0., 0., 2046., 0., 0., 0., 7.95667334e+03,
          2.82788501e+03, 4.70945996e+03, 4.35228760e+03, 2040., 0., 0.,
          0., 4.70826953e+03, 6.34391260e+03, 3.42159985e+03,
          2.52982216e+01, 0., 0., 0., 0., 1.02440225e+04, 7.43722998e+03,
          6.44887390e+02, 1.22658920e+02, 1390., 0., 0., 0.,
          5.84033887e+03, 2.43193921e+03, 4.76471387e+03, 6.23260107e+03,
          2.50675903e+03, 3.20548193e+03, 4.53191455e+03, 3.94834814e+03,
          2040., 0., 0., 0., 2014., 4.63620752e+03, 5.46470459e+03,
          2.55455298e+03, 2040., 0., 5.65685415e+00, 4.07707739e+03 ]
      - [ 1.63385889e+03, 4.70637158e+03, 1.71302295e+03, 6.86775146e+03,
          5868., 0., 2.41660919e+01, 4.08166479e+03, 2.41024951e+03,
          2.86277783e+03, 4.53409521e+03, 3.79406982e+03, 2040., 0., 0.,
          0., 2040., 0., 0., 0., 3.94071655e+03, 7.94814355e+03,
          1.07074902e+03, 8.57946777e+03, 0., 0., 0., 0., 4.02403564e+03,
          5.42435938e+03, 2.25022241e+03, 6.60903778e+01, 0., 0., 0., 0.,
          1.37252080e+04, 4.40132764e+03, 1.16121216e+03, 1.95102005e+02,
          764., 0., 0., 0., 5.74473047e+03, 2.42388745e+03,
          5.77572705e+03, 5.32513379e+03, 1.47762903e+03, 3.96843311e+03,
          5.71759717e+03, 1.95036780e+03, 2056., 0., 1.13137083e+01, 0.,
          2034., 2.91552710e+03, 4.40208594e+03, 1.41583179e+03, 2040.,
          0., 1.13137083e+01, 6.11332031e+03 ]
      - [ 96., 3.19181714e+03, 3.92002637e+03, 6.75395508e+03, 8160., 0.,
          5.67978859e+01, 2.29930054e+03, 5.86806836e+03, 2.87897437e+03,
          1.00752960e+03, 6.35448926e+03, 1.94887524e+03, 1.21490738e+02,
          0., 0., 2040., 0., 0., 0., 4.44536963e+03, 5.17738232e+03,
          3.91908008e+03, 7.64148340e+03, 0., 0., 0., 0., 2040.,
          6.47464941e+03, 3.52480591e+03, 6.66069824e+02, 506., 0., 0.,
          3.43055396e+03, 6.24217285e+03, 3.21872241e+03, 1.04942129e+04,
          0., 602., 4.47213602e+00, 0., 0., 3.26432715e+03,
          2.35112061e+03, 1.06841621e+04, 1.10879846e+03, 6.91485352e+02,
          1.53837976e+03, 8.90196680e+03, 3.83261816e+03, 0., 0., 0., 0.,
          5.14183252e+03, 9.09209375e+03, 1.38568701e+03, 1.31398914e+03,
          2.03036072e+03, 4.21900444e+01, 6.91271515e+01, 5.96137207e+03 ]
      - [ 1.32740942e+03, 1.83905713e+03, 8.40449023e+03, 4.27999365e+03,
          2.79646875e+03, 0., 0., 3.47850533e+01, 4.60330811e+03,
          4.54150537e+03, 5.49881152e+03, 3.90270361e+03, 2040., 0., 0.,
          0., 1420., 0., 0., 0., 6.96924463e+03, 3.56669849e+03,
          6.20702295e+03, 4.96593213e+03, 0., 0., 0., 0., 6.63642041e+03,
          6.55881396e+03, 9.18859192e+02, 5.84580017e+02, 0., 0., 0., 0.,
          1.13206758e+04, 1.73303601e+03, 6.69800146e+03, 3.26587769e+02,
          1264., 0., 0., 0., 4.54782275e+03, 6.97971387e+03,
          1.18618066e+03, 6.44106934e+03, 1.45643848e+03, 6.41547559e+03,
          2.86882275e+03, 2.99740967e+03, 2136., 0., 2.26274166e+01,
          8.68936096e+02, 2.94669556e+03, 3.09367279e+02, 9.46004102e+03,
          1.44302271e+03, 3344., 0., 1.01477158e+02, 4.03455640e+03 ]
      - [ 804., 3.06523047e+03, 4.47225391e+03, 9.47821680e+03,
          3.34383545e+03, 0., 0., 1.61986218e+03, 2.83291016e+03,
          4.91312012e+03, 3.53024805e+03, 7.54632813e+03, 0., 0., 0., 0.,
          1966., 0., 0., 0., 7.01310645e+03, 6.42937061e+03,
          2.14029272e+03, 5.22801758e+03, 1.49974487e+03, 1.47648230e+01,
          1.60112457e+02, 0., 5.12011230e+03, 7.30682568e+03,
          8.29068665e+02, 3.26586060e+02, 0., 0., 0., 0., 1.36378057e+04,
          6.61257178e+03, 8.77263855e+02, 3.26586060e+02, 692., 0., 0.,
          0., 4.63728076e+03, 5.83894482e+03, 2.31195020e+03,
          6.49285498e+03, 4.95913300e+02, 4.88552930e+03, 2.88084473e+03,
          3.90970068e+03, 2056., 0., 1.13137083e+01, 7.53259583e+01,
          2.63685645e+03, 3.79941406e+03, 6.61846777e+03, 2.98663721e+03,
          2040., 3.16227760e+01, 3.05490913e+01, 6.06249805e+03 ]
      - [ 2.94652393e+03, 6.09685693e+03, 4.16750488e+03, 2.60246362e+03,
          5748., 0., 0., 0., 4.84715039e+03, 4.19517334e+03,
          4.75022607e+03, 6.20647363e+03, 0., 0., 0., 0., 2038., 0.,
          2.36279495e+02, 1.93355786e+03, 5.41448828e+03, 2.78727246e+03,
          4.12764551e+03, 1.79116650e+03, 6.12421436e+03, 5.65685415e+00,
          0., 0., 2038., 4.84491455e+03, 3.65883154e+03, 9.62416565e+02,
          4.64300781e+03, 0., 0., 0., 1.15359131e+04, 4.88114600e+03,
          3.30787158e+03, 1.91488269e+03, 804., 0., 0., 2.04054358e+03,
          4.17147510e+03, 4.83868604e+03, 2.08609619e+03, 1.90678052e+03,
          6.27587939e+03, 4.80489844e+03, 3.79575049e+03, 5.12028027e+03,
          0., 0., 0., 0., 3.17487280e+03, 4.12333691e+03, 5.70879248e+03,
          2.63446826e+03, 2040., 0., 0., 0. ]
      - [ 2.35184375e+03, 5.82067773e+03, 4.29182666e+03, 4.48677832e+03,
          3316., 0., 2.82842708e+00, 0., 7.57572803e+03, 3.23995508e+03,
          1.74731311e+03, 5.62985156e+03, 2040., 0., 0., 0.,
          2.11147021e+03, 0., 0., 0., 7.31089893e+03, 3.28127563e+03,
          1.44677441e+03, 1.75194836e+03, 8160., 0., 0., 0., 2040.,
          3.69747144e+03, 5.62041699e+03, 2.23291431e+03, 4080., 0., 0.,
          0., 6.29443018e+03, 7.63319092e+03, 2.19072339e+03, 0., 1404.,
          0., 0., 0., 5.79651025e+03, 2.46554883e+03, 5.82100488e+03,
          1.25542419e+03, 6.56904346e+03, 5.89774707e+03, 2.29989087e+03,
          6.15020020e+03, 0., 0., 0., 0., 2038., 2.31882349e+03,
          5.47606250e+03, 1.47301648e+03, 2038., 0., 0., 0. ]
      - [ 2.30098999e+03, 4.28034131e+03, 1.74582324e+03, 8.87781055e+03,
          2674., 0., 0., 4.63143213e+03, 1.88552112e+03, 2.13744214e+03,
          5.33593604e+03, 3.86180811e+03, 2104., 0., 0., 3.03940991e+03,
          1420., 3.60555115e+01, 0., 0., 5.03602295e+03, 5.79512451e+03,
          1.25070789e+03, 8.11575537e+03, 0., 0., 0., 0., 3.99308569e+03,
          1.03619355e+04, 2.80428003e+03, 1.34577502e+03, 0., 0., 0., 0.,
          7.13259375e+03, 6.58006299e+03, 3.06028345e+03, 1.95102005e+02,
          1420., 0., 0., 0., 5.79981494e+03, 2.42107422e+03,
          5.76994775e+03, 5.32513379e+03, 1.47270728e+03, 7.42001709e+03,
          1.75750732e+03, 2.98507227e+03, 2056., 0., 1.13137083e+01, 0.,
          1420., 1.76615662e+03, 9.80681836e+03, 1.56326575e+03, 3280.,
          0., 1.13137083e+01, 4.07365576e+03 ]
      - [ 1404., 9.11262024e+02, 8.10744092e+03, 4.44637500e+03, 2676.,
          0., 0., 0., 5.89306543e+03, 5.81386035e+03, 2.28740820e+03,
          2.71765894e+03, 4080., 0., 0., 0., 2040., 0., 0.,
          2.04180908e+03, 4.20526465e+03, 5.15310303e+03, 5.13407617e+03,
          1.34396802e+03, 2.57758716e+03, 1.81932971e+03, 0., 0.,
          3.50764795e+03, 5.46524463e+03, 2.49699731e+03, 0., 2040., 0.,
          0., 0., 7.12237500e+03, 4.77786816e+03, 5.83262158e+03, 0.,
          1404., 0., 0., 0., 4.71935986e+03, 1.36496692e+03,
          7.44986816e+03, 2.76722778e+03, 2.91603711e+03, 5.47582080e+03,
          5.59951758e+03, 3.70476538e+03, 0., 0., 0., 0., 2040.,
          6.40158691e+03, 2.62493823e+03, 1.77012976e+03, 2040., 0.,
          1.90767419e+03, 4.49043427e+02 ]
      - [ 2.30589136e+03, 1.07772742e+03, 8.27316895e+03, 3.26523340e+03,
          3346., 0., 4.99783173e+02, 2.19733984e+03, 1.30145740e+03,
          5.63659180e+03, 5.66064111e+03, 5.76350537e+03, 106., 0.,
          5.01597443e+01, 2.66230298e+03, 1440., 0., 0., 0.,
          7.92164893e+03, 2.48900610e+03, 5.18427734e+03, 5.82014063e+03,
          0., 0., 0., 0., 1.01393799e+04, 2.29737256e+03, 4.21711865e+03,
          1.04508459e+03, 0., 0., 0., 0., 5.57541016e+03, 1.10772148e+04,
          1.44426074e+03, 1.63293884e+02, 1440., 0., 0., 0.,
          2.04955688e+03, 6.91230957e+03, 5.99289502e+03, 3.32203857e+03,
          9.06446716e+02, 5.47125391e+03, 4.44262793e+03, 4.84872754e+03,
          16., 0., 1.13137083e+01, 0., 2.36767163e+03, 3.55402515e+03,
          5.13018164e+03, 5.33650928e+03, 2640., 0., 4.32770157e+01,
          4.05664844e+03 ]
      - [ 8.32090393e+02, 2.46872437e+03, 5.77138574e+03, 7.06356396e+03,
          5.46716504e+03, 0., 0., 0., 7.26452246e+03, 2.29103345e+03,
          4.97372070e+03, 3.84399072e+03, 2040., 0., 0., 0., 1440., 0.,
          0., 2.04039331e+03, 3.03929395e+03, 6.28517285e+03,
          1.97749316e+03, 1.76159436e+03, 5.40923486e+03, 7.11441284e+02,
          1.64103622e+02, 0., 5.74537207e+03, 7.72335498e+03,
          1.82121289e+03, 0., 3.31687769e+03, 5.65685415e+00,
          5.27327209e+02, 3.00392969e+03, 8.99651660e+03, 6.40850244e+03,
          1.28798145e+03, 0., 742., 0., 0., 0., 4.67764941e+03,
          4.21256543e+03, 5.50176074e+03, 1.93303857e+03, 5.33001074e+03,
          6.14100830e+03, 2.32353125e+03, 5.92776758e+03, 0., 0., 0., 0.,
          1.50609033e+03, 3.70803516e+03, 6.00424561e+03, 2.18037061e+03,
          3240., 0., 0., 0. ]
      - [ 3.18044531e+03, 2.73083789e+03, 7.71850586e+03, 3.77579761e+03,
          2676., 0., 8.48528099e+00, 8.15674170e+03, 6.48319885e+02,
          1.03583447e+03, 3.87188672e+03, 5.88292871e+03, 202.,
          1.43010483e+02, 7.07106781e+00, 0., 1404., 0., 0., 0.,
          2.81690088e+03, 6.00325537e+03, 1.98673450e+03, 5.70048096e+03,
          2040., 0., 0., 0., 4.98067432e+03, 7.00334961e+03,
          4.60270898e+03, 4.80593848e+03, 0., 0., 0., 0., 6.42842041e+03,
          1.96842896e+03, 6.86477637e+03, 2.08977710e+03, 1408., 0., 0.,
          0., 5.83985938e+03, 1.39396289e+03, 4.00965967e+03,
          7.72534668e+03, 3.71005957e+03, 3.68085156e+03, 2.65510645e+03,
          3.03451953e+03, 2.03711035e+03, 0., 4.24264050e+00, 0.,
          3.29896265e+03, 7.21496631e+03, 3.05995068e+03, 2.39427100e+03,
          3312., 0., 1.43162327e+01, 4.07534717e+03 ]
      - [ 1400., 3.18494751e+03, 7.61905273e+03, 4.94344873e+03, 2040.,
          0., 8.48528099e+00, 2.05190039e+03, 5.19813623e+03,
          3.31717969e+03, 3.46826880e+03, 3.93674512e+03, 2.03800977e+03,
          0., 2.82842708e+00, 0., 1420., 0., 0., 0., 5.90984814e+03,
          2.26154712e+03, 6.40017090e+03, 3.72906396e+03, 2040., 0., 0.,
          0., 8.37069141e+03, 3.85555298e+03, 3.78103784e+03,
          6.60903778e+01, 0., 0., 0., 0., 1.04140518e+04, 4.78465527e+03,
          3.91701318e+03, 3.13558301e+03, 1400., 0., 0., 0.,
          3.83511841e+03, 1.59285840e+03, 7.53818164e+03, 4.65445801e+03,
          2.67056348e+03, 4.83410840e+03, 3.07521777e+03, 4.09466553e+03,
          48., 0., 0., 3.05213379e+03, 2.32567480e+03, 5.59372754e+03,
          4.22170508e+03, 2.34521484e+03, 3328., 0., 8.48528099e+00,
          4.07534717e+03 ]
      - [ 5.60500293e+03, 2.10640259e+03, 1.11325469e+04, 2.88297461e+03,
          1976., 0., 0., 0., 7.74919580e+03, 1.89889673e+03,
          4.79087500e+03, 3.87439355e+03, 0., 0., 0., 0., 3.45580103e+03,
          0., 0., 1.85326736e+02, 5.32422705e+03, 2.69603345e+03,
          3.27204077e+03, 4.75690820e+03, 1.99277075e+03, 2.33269604e+03,
          1.48553024e+02, 0., 4.66502930e+03, 6.28440967e+03,
          5.74595508e+03, 7.90383423e+02, 2.06832031e+03, 1.30384045e+01,
          1.44222050e+01, 0., 1.06858467e+04, 4.12888037e+03,
          4.54465967e+03, 7.87568604e+02, 1396., 2.82842708e+00, 0.,
          2.03800977e+03, 3.91178906e+03, 1.76300818e+03, 7.33391992e+03,
          2.57507788e+03, 5.75697705e+03, 5.39703760e+03, 5.57294629e+03,
          3.73404956e+03, 0., 0., 0., 6.87313614e+01, 4.97995361e+03,
          4.20259521e+03, 5.29746582e+03, 3.92490088e+03, 2660., 0., 0.,
          0. ]
      - [ 2.65948340e+03, 3.83581177e+03, 4.36837207e+03, 1.13376426e+04,
          2040., 0., 0., 0., 0., 7.49400781e+03, 7.78884375e+03,
          4.69880078e+03, 0., 7.60263138e+01, 0., 0., 2040., 0., 0., 0.,
          3.98763599e+03, 9.82054199e+03, 5.88597363e+03, 1.40528613e+03,
          1.72951367e+03, 3.74985016e+02, 0., 0., 3.98168359e+03,
          5.74006885e+03, 2.99423682e+03, 1.82448022e+03, 2068.,
          4.24264050e+00, 0., 1.28746375e+03, 1.23553984e+04,
          1.34936060e+03, 5.51581885e+03, 0., 764., 0., 0.,
          2.04103320e+03, 3.61480688e+03, 6.63422119e+03, 4.25895020e+03,
          1.58919214e+03, 6.64538672e+03, 5.13124658e+03, 5.30931592e+03,
          3.97730737e+03, 2040., 0., 0., 0., 2.06529834e+03,
          2.20216138e+03, 5.31227832e+03, 1.93014783e+03, 2040., 0., 0.,
          0. ]
      - [ 1.13435620e+03, 1.87655615e+03, 9.79193457e+03, 1.59309912e+03,
          5.60057861e+03, 1.12021912e+03, 0., 0., 6.62507422e+03,
          2.64575781e+03, 9.79066992e+03, 0., 0., 0., 0., 0., 1882.,
          2.26274166e+01, 0., 3.05084656e+02, 9.24979102e+03,
          1.87940723e+03, 2.44642334e+03, 1.80091968e+03, 3.04441846e+03,
          3.53282764e+03, 2.98881256e+02, 0., 4.08092383e+03,
          7.64210596e+03, 3.01265308e+03, 0., 404., 4.38590912e+02,
          2.70573456e+02, 2.65432275e+03, 9.41718359e+03, 6.61889893e+03,
          6.22253952e+01, 0., 382., 0., 0., 0., 1.35103467e+03,
          5.01239551e+03, 1.12210771e+04, 1.45973657e+03, 4.37207178e+03,
          7.50911670e+03, 3.26516431e+03, 5.95818945e+03, 0., 0., 0., 0.,
          2.20808203e+03, 1.43355017e+03, 9.40846777e+03, 1.31245947e+03,
          2.18202100e+03, 0., 0., 0. ]
      - [ 1.40636072e+03, 3.30792261e+03, 2.85692310e+03, 3.69856201e+03,
          4008., 0., 3.36154709e+01, 6.83302588e+03, 1.86866064e+03,
          2.06461011e+03, 4.48600098e+03, 2.51645068e+03, 4.09560352e+03,
          0., 0., 0., 2040., 0., 0., 0., 5.78021631e+03, 2.30186597e+03,
          4.75861182e+03, 7.41927539e+03, 0., 0., 0., 0., 2040.,
          5.92183252e+03, 3.85256860e+03, 2.29315445e+02, 0., 0., 0., 0.,
          4.81601514e+03, 7.30095703e+03, 4.50560400e+03, 5.04193878e+02,
          1384., 0., 0., 0., 1.58519678e+03, 4.35683545e+03,
          5.59947119e+03, 6.39477344e+03, 1.39830750e+03, 3.83736035e+03,
          2.55317529e+03, 4.71315332e+03, 32., 0., 2.26274166e+01, 0.,
          3.92336475e+03, 5.86424268e+03, 5.53274121e+03, 9.05538559e+00,
          2040., 0., 4.03392754e+01, 6.09519287e+03 ]
      - [ 1.82762354e+03, 2.53573755e+03, 5.75653955e+03, 1.11700400e+04,
          2.07613867e+03, 0., 1.92353840e+01, 4.02970508e+03,
          4.90789154e+02, 1.71418176e+03, 7.47929932e+03, 3.53580054e+03,
          0., 0., 0., 0., 2040., 0., 0., 0., 6.08510693e+03,
          4.66381396e+03, 2.16636523e+03, 8.53791797e+03, 0., 0., 0., 0.,
          4.58877881e+03, 3.85966260e+03, 3.95920459e+03, 1.63293884e+02,
          6.98569946e+01, 0., 0., 0., 1.33676855e+04, 5.16506201e+03,
          2.58608447e+03, 2.10519409e+03, 0., 0., 0., 0., 1.73303027e+03,
          6.72453467e+03, 2.37594531e+03, 4.39653027e+03, 2.03296472e+03,
          3.21801587e+03, 2.34478320e+03, 2.72823242e+03, 2.04222729e+03,
          0., 3.25269127e+01, 0., 2.07929370e+03, 5.43186230e+03,
          2.60763379e+03, 1.30848291e+03, 2040., 0., 3.63519363e+01,
          8.14199072e+03 ]
      - [ 0., 8.21356079e+02, 7.58894482e+03, 1.18299512e+04, 2024., 0.,
          0., 0., 4.35295288e+02, 2.35314648e+03, 1.22770117e+04,
          3.64264380e+03, 0., 0., 0., 0., 2020., 0., 0., 0.,
          8.15772363e+03, 7.75682080e+03, 2.03348584e+03, 5.57838684e+02,
          6.03738770e+03, 1.41421354e+00, 3.25576401e+01, 0.,
          3.91032568e+03, 5.06122852e+03, 1.42188428e+03, 0., 6., 0., 0.,
          2.04034961e+03, 1.37585400e+04, 5.00797119e+03, 1.14150940e+03,
          0., 0., 0., 0., 0., 5.33137012e+03, 5.45704199e+03,
          5.55126611e+03, 1.20140112e+03, 4.41543652e+03, 6.75839746e+03,
          3.54922290e+03, 5.80554785e+03, 144., 0., 0., 0.,
          2.33363599e+03, 4.28481560e+01, 4.35802930e+03, 2.49225269e+03,
          1946., 0., 3.58050270e+01, 2.01099536e+03 ]
      - [ 3.41892627e+03, 5.70736230e+03, 7.21377148e+03, 3.38457861e+03,
          2040., 0., 0., 0., 6.82079492e+03, 4.83288232e+03,
          1.66238135e+03, 5.92110693e+03, 0., 0., 0., 0., 1414., 0., 0.,
          0., 5.97997998e+03, 3.30079541e+03, 2.15501074e+03,
          2.75318335e+03, 6.11534717e+03, 8.48528099e+00, 0., 0.,
          1.01411211e+04, 1.57322107e+03, 5.22822559e+03, 8.34655334e+02,
          6.09637354e+03, 2.63738251e+01, 0., 0., 7.05792773e+03,
          3.67046265e+03, 8.26435547e+03, 2.42374902e+03, 1420., 0., 0.,
          0., 3.91915454e+03, 5.09231299e+03, 1.84976001e+03,
          1.66740308e+03, 7.77507080e+03, 3.84700806e+03, 1.93591406e+03,
          5.95797803e+03, 0., 0., 0., 0., 4.46036523e+03, 2.99414331e+03,
          2.67774292e+03, 8.17008740e+03, 2040., 0., 0., 0. ]
      - [ 1.15933191e+03, 2.30938553e+02, 4.18915723e+03, 9.00507324e+03,
          4496., 0., 0., 0., 4.57323438e+03, 5.54785938e+03,
          4.41273975e+03, 4.15676709e+03, 2040., 0., 0., 0., 1420.,
          4.24264050e+00, 2.66810791e+02, 1.89430249e+03, 6.72242529e+03,
          3.35444409e+03, 3.40193896e+03, 1.66899011e+03, 6.09326416e+03,
          2.79491806e+01, 0., 0., 5.96358594e+03, 3.65565894e+03,
          3.24158301e+03, 8.03990021e+01, 4.58451221e+03, 1.65529461e+01,
          0., 0., 1.02440664e+04, 8.76548828e+03, 1.64937463e+03,
          8.27128418e+02, 804., 0., 0., 0., 4.14445605e+03,
          4.71368701e+03, 2.10976270e+03, 1.93476746e+03, 8.07138232e+03,
          3.87425024e+03, 2.40044849e+03, 4.17110107e+03, 0., 0., 0., 0.,
          1.56392358e+03, 7.51322266e+03, 6.08696777e+03, 3.33039771e+03,
          2040., 0., 0., 0. ]
      - [ 8.69969666e+02, 5.36698828e+03, 6.07480518e+03, 8.16788477e+03,
          2024., 0., 0., 0., 5.33717334e+03, 4.46651953e+03,
          1.46768115e+03, 8.84652441e+03, 0., 0., 0., 0., 1708.,
          7.07106781e+00, 0., 0., 8.91157813e+03, 2.66649609e+03,
          3.26785986e+03, 5.31085156e+03, 1.96103406e+03, 0., 0., 0.,
          5.20314160e+03, 4.22133057e+03, 5.05151416e+03, 2.46164917e+03,
          4.77562305e+03, 1.20610710e+02, 0., 0., 1.05480840e+04,
          4.46926025e+03, 5.06654199e+03, 4.33708398e+03, 8.19033325e+02,
          0., 0., 0., 4.61524951e+03, 4.00890405e+03, 2.81169238e+03,
          1.82718848e+03, 8.68613281e+03, 2.07130176e+03, 2.97753906e+03,
          5.97935693e+03, 0., 0., 0., 0., 1708., 9.91372754e+03,
          2.19519092e+03, 3.49725879e+03, 2040., 0., 0., 0. ]
      - [ 3.45674097e+03, 3.43858521e+03, 3.81175903e+03, 2.84635840e+03,
          3948., 1.20830460e+01, 5.65685415e+00, 4.06442822e+03,
          3.50134326e+03, 3.31984106e+03, 1.80873584e+03, 5.63176855e+03,
          2040., 0., 0., 0., 1404., 0., 0., 0., 6.12473633e+03,
          3.44010083e+03, 3.76747339e+03, 3.47325293e+03, 4080., 0., 0.,
          0., 6.47541943e+03, 4.29787598e+03, 3.62100659e+03,
          1.39788391e+02, 4.08000391e+03, 0., 0., 0., 6.31653125e+03,
          4.79688379e+03, 6.29453760e+03, 2.52982216e+01, 1404., 0., 0.,
          0., 5.79427637e+03, 2.59755859e+03, 1.83553662e+03,
          4.42055957e+03, 5.41848096e+03, 3.84545581e+03, 5.72518408e+03,
          1.93394592e+03, 0., 0., 0., 0., 1404., 6.61069824e+03,
          4.51402490e+03, 3.61508423e+03, 2676., 0., 5.65685415e+00,
          2.04535889e+03 ]
      - [ 1440., 8.04106104e+03, 5.74973828e+03, 2.72975806e+03,
          2.77147119e+03, 0., 0., 0., 4.80686133e+03, 5.66526025e+03,
          6.41438818e+03, 2.48101099e+03, 0., 0., 0., 0., 1440., 0., 0.,
          0., 2.08516846e+03, 7.15015918e+03, 5.39109912e+03,
          4.49043427e+02, 4080., 0., 0., 0., 9.43830566e+03,
          7.97042578e+03, 7.13248108e+02, 0., 4.20014990e+03, 0., 0., 0.,
          1.19335127e+04, 2.23593286e+03, 3.79812256e+03, 0., 1140., 0.,
          0., 3.47922394e+02, 6.96668164e+03, 2.01713953e+03,
          6.26254590e+03, 1.59549060e+03, 5.42396777e+03, 5.17746533e+03,
          6.06929834e+03, 3.04396265e+03, 2040., 0., 0., 0., 1440.,
          2.04346179e+03, 4.31063672e+03, 7.32012500e+03, 2640., 0., 0.,
          0. ]
      - [ 2.39119092e+03, 3.85649048e+03, 4.69604688e+03, 2.35388086e+03,
          6552., 1.62388428e+02, 1.17432396e+02, 5.98466016e+03,
          1.96072388e+03, 1.58964587e+03, 4.98128711e+03, 5.64090381e+03,
          0., 0., 0., 0., 1946., 0., 0., 8.94427185e+01, 6.98555127e+03,
          1.73526184e+03, 7.87037598e+03, 4.39247070e+02, 8.68431946e+02,
          3.77436475e+03, 0., 0., 4.84987939e+03, 6.09989209e+03,
          3.72624658e+03, 2.25055493e+03, 0., 0., 0., 1.97017761e+02,
          9.01538086e+03, 5.13356396e+03, 2.42579346e+03, 3.81008179e+02,
          804., 0., 0., 0., 2.50281885e+03, 7.85522314e+03,
          2.40712500e+03, 6.66646143e+03, 1.97233643e+03, 1.48632690e+03,
          5.12264600e+03, 3.90970068e+03, 2056., 0., 1.13137083e+01, 0.,
          1946., 5.01715283e+03, 4.96203076e+03, 2.14961816e+03, 2040.,
          0., 3.05490913e+01, 6.14902148e+03 ]
      - [ 4.57431543e+03, 5.51175244e+03, 3.39451221e+03, 8.09635596e+03,
          3228., 0., 0., 0., 4.66143896e+03, 5.77668457e+03,
          4.89226221e+03, 1.87940430e+03, 0., 0., 0., 0., 4120., 0., 0.,
          0., 5.44491357e+03, 2.77915381e+03, 2.26281738e+03,
          1.65644580e+03, 8.15534717e+03, 8.48528099e+00, 0., 0.,
          6.90773047e+03, 2.56060913e+03, 6.00140430e+03, 9.25279419e+02,
          4.89056738e+03, 8.48528099e+00, 0., 8.24621105e+00,
          1.13463311e+04, 2.79579663e+03, 5.43582471e+03, 0., 804., 0.,
          0., 2.04068982e+03, 4.52095166e+03, 5.07789551e+03,
          1.95888086e+03, 1.84775769e+03, 6.73683838e+03, 6.12037354e+03,
          3.13304272e+03, 5.21859619e+03, 0., 0., 0., 0., 3.05550464e+03,
          7.79502588e+03, 1.82180688e+03, 2.93647266e+03, 2040., 0., 0.,
          0. ]
      - [ 2.76198120e+03, 6.39320361e+03, 4.97549072e+03, 8.04281201e+03,
          2040., 0., 0., 0., 2.59032397e+03, 7.78186572e+03,
          5.89978271e+03, 1.83938989e+03, 0., 0., 0., 0., 1440., 0., 0.,
          0., 5.96058301e+03, 3.29886255e+03, 5.39182080e+03,
          1.73193530e+03, 4.08000977e+03, 0., 0., 0., 5.42762939e+03,
          6.45970947e+03, 4.05389111e+03, 3.50408594e+03, 4080., 0., 0.,
          0., 1.43029131e+04, 3.03894824e+03, 2.58089771e+03,
          1.94266077e+03, 1.90705847e+03, 0., 0., 2.04005920e+03,
          2.08977246e+03, 6.05664160e+03, 3.66742773e+03, 1.72839307e+03,
          1.73193530e+03, 6.38336230e+03, 2.55584570e+03, 5.87823779e+03,
          0., 0., 0., 0., 3.48841528e+03, 7.93612354e+03, 2.69304736e+03,
          2.98506445e+03, 2640., 0., 0., 4.08000977e+03 ]
      - [ 2.90415820e+03, 5.81279541e+03, 4.24215576e+03, 1.38090479e+03,
          7158., 0., 0., 0., 5.35446045e+03, 5.64366260e+03,
          2.62943311e+03, 3.78133838e+03, 2054., 0., 0., 9.99024536e+02,
          1404., 0., 0., 0., 6.12689990e+03, 2.58542920e+03,
          4.89097461e+03, 2.89535254e+03, 4080., 0., 0., 0.,
          5.90802295e+03, 7.19563379e+03, 1.94669348e+03, 1.06129333e+03,
          2.04522620e+03, 2.33452783e+03, 0., 0., 1.10049658e+04,
          2.64411670e+03, 6.55390576e+03, 0., 764., 0., 0., 0.,
          5.79427637e+03, 4.58078613e+03, 5.78292627e+03, 0.,
          7.54850732e+03, 2.02129480e+03, 9.21004785e+03, 1.93394592e+03,
          0., 0., 0., 0., 1404., 1.57241614e+03, 7.96820703e+03,
          4.45320996e+03, 2676., 0., 0., 0. ]
      - [ 1.62842297e+03, 1.05220349e+03, 4.56051709e+03, 9.90116016e+03,
          2024., 0., 0., 0., 4.44072559e+03, 5.65026758e+03,
          4.03711865e+03, 6.59790625e+03, 0., 0., 0., 0., 2030.,
          5.65685415e+00, 0., 0., 6.23256006e+03, 6.70192627e+03,
          1.47108936e+03, 2.01263354e+03, 6.15216455e+03, 1.55563488e+01,
          0., 0., 4.00353735e+03, 4.47154541e+03, 2.21256079e+03, 0.,
          6.12303027e+03, 0., 0., 1.84390888e+01, 1.11670938e+04,
          2.69170972e+03, 4.31070557e+03, 0., 1408., 0., 0., 0.,
          5.34306885e+03, 5.22518799e+03, 1.10430994e+03, 1.97519116e+03,
          8.06744873e+03, 3.66399536e+03, 2.54048779e+03, 6.21523145e+03,
          0., 0., 0., 0., 2.24642285e+03, 2.35342310e+03, 5.12313135e+03,
          2.84267554e+03, 2040., 0., 0., 0. ]
      - [ 2.32936133e+03, 1.21112061e+03, 7.35374023e+03, 6.27024219e+03,
          5.81795850e+03, 0., 0., 0., 7.14399609e+03, 3.06898804e+03,
          3.70440112e+03, 4.48470508e+03, 2.05628101e+03, 0., 0.,
          1.01203162e+03, 2040., 0., 0., 0., 5.21859619e+03,
          6.00267334e+03, 2.35346582e+03, 1.73200256e+03, 6.12000488e+03,
          0., 0., 0., 2040., 6.48165381e+03, 3.19633057e+03,
          2.99696997e+03, 2452., 0., 0., 3.74613599e+03, 9.45018652e+03,
          3.13093286e+03, 6.25864404e+03, 9.20672119e+02, 1.23118701e+03,
          3.68442383e+02, 0., 0., 4.89174854e+03, 4.69285107e+03,
          5.76896680e+03, 2.57943018e+03, 4.71688281e+03, 5.72630127e+03,
          4.90755273e+03, 3.79403418e+03, 16., 0., 0., 1.01203162e+03,
          7.40773291e+03, 5.77402734e+03, 1.35871484e+03, 1.30564453e+03,
          1030., 0., 0., 2.04000488e+03 ]
      - [ 1420., 1.19909412e+03, 4.55898486e+03, 3.99084619e+03, 3918.,
          0., 0., 2.03519971e+03, 2.02656873e+03, 6.92012646e+03,
          2.31582056e+03, 7.74004248e+03, 2.05700244e+03, 0.,
          1.41421354e+00, 0., 1420., 0., 2.30217285e+01, 2.04042859e+03,
          5.97034082e+03, 4.90496387e+03, 4.89840430e+03, 2.95787891e+03,
          2040., 0., 0., 0., 9.50075879e+03, 4.84861279e+03,
          2.80002747e+02, 4.07921562e+01, 0., 0., 0., 0., 7.47526221e+03,
          4.32391943e+03, 5.53365869e+03, 2.52982216e+01, 1452., 0., 0.,
          0., 4.57846338e+03, 3.63924756e+03, 5.46518408e+03,
          5.12486670e+03, 2.29640112e+03, 4.90539990e+03, 7.48894385e+03,
          1.82976074e+03, 0., 0., 0., 0., 1.55661621e+03, 2.87647876e+03,
          9.62562598e+03, 3.40126465e+03, 2040., 0., 2.82842708e+00,
          2.03828479e+03 ]
      - [ 3.80443408e+03, 3.84725415e+03, 8.40984863e+03, 3.62844336e+03,
          2024., 0., 0., 0., 4.47273633e+03, 6.68943896e+03,
          3.18221680e+03, 4.41566016e+03, 0., 0., 0., 0., 1954.,
          1.13137083e+01, 0., 0., 7.26753271e+03, 2.58871460e+03,
          2.56473145e+03, 2.32277539e+03, 6.06249805e+03, 3.05490913e+01,
          6.66084900e+01, 0., 3.62715112e+03, 7.78180957e+03,
          4.91854004e+03, 0., 4.10231201e+03, 7.07106781e+00,
          1.40014282e+02, 0., 1.14230762e+04, 1.85719189e+03,
          4.07561450e+03, 0., 1420., 1.41421356e+01, 0., 2.03024561e+03,
          3.87129053e+03, 4.97793848e+03, 1.54078040e+03, 3.91977100e+03,
          9.45969824e+03, 1.20344482e+03, 3.66085425e+03, 6.97186182e+03,
          0., 0., 0., 0., 2.11729395e+03, 2.17611768e+03, 7.67514795e+03,
          2.79032227e+03, 2040., 0., 0., 0. ]
      - [ 3.12715430e+03, 3.45947925e+03, 6.65866162e+03, 2.35775073e+03,
          5.78364697e+03, 2.69072475e+01, 0., 4.85433838e+03,
          1.83281592e+03, 2.81301880e+03, 4.16127588e+03, 4.54259131e+03,
          2.05702490e+03, 0., 1.98494339e+01, 9.52033630e+02, 1420., 0.,
          0., 0., 7.91074902e+03, 2.10666016e+03, 3.53098438e+03,
          7.79004980e+03, 0., 0., 0., 0., 5.40534863e+03, 4.39125439e+03,
          5.39497119e+03, 2.08661475e+03, 0., 0., 0., 0., 1.12797031e+04,
          3.12123682e+03, 6.12826855e+03, 3.19236304e+03, 808., 0., 0.,
          0., 4.00500708e+03, 4.57723828e+03, 1.98235522e+03,
          7.73075684e+03, 1.63140869e+03, 8.92800232e+02, 3.05814746e+03,
          4.09301538e+03, 2104., 4.53431358e+01, 2.82842708e+00, 0.,
          3.17215161e+03, 6.55112012e+03, 5.62095508e+03, 1.42875195e+03,
          3280., 0., 3.29470177e+01, 8.15537109e+03 ]
      - [ 1.56729395e+03, 6.61313818e+03, 5.55599707e+03, 1.41796497e+03,
          3296., 0., 0., 0., 3.70662451e+03, 6.30103320e+03,
          5.47773242e+03, 4.50687354e+03, 0., 0., 0., 0., 2040.,
          4.24264050e+00, 0., 0., 4.73697656e+03, 4.90012109e+03,
          8.31053516e+03, 1.60121399e+03, 2.05938770e+03, 1.41421354e+00,
          6.50691910e+01, 0., 7.08821533e+03, 3.77575708e+03,
          4.54024268e+03, 3.10161247e+01, 4.11401025e+03, 1.92353840e+01,
          0., 0., 1.20840391e+04, 1.43482910e+03, 1.05869226e+03, 0.,
          1404., 0., 0., 2.05836353e+03, 7.61935669e+02, 7.85700977e+03,
          2.90603662e+03, 2.45694238e+03, 6.51350928e+03, 5.70258545e+03,
          4.69739795e+03, 3.89548242e+03, 0., 0., 0., 0., 2.33229004e+03,
          1.39578442e+03, 5.78169678e+03, 2.06925977e+03, 2040., 0., 0.,
          0. ]
      - [ 1.61510205e+03, 1.00400714e+03, 8.02223486e+03, 3.81371484e+03,
          2644., 0., 0., 0., 4.33809619e+03, 8.59355078e+03,
          1.38350732e+03, 4.76364844e+03, 2040., 0., 0., 0., 1420.,
          4.24264050e+00, 0., 2.04026221e+03, 3.95446533e+03,
          7.04012988e+03, 3.56593677e+03, 5.71743042e+02, 4.07381763e+03,
          4.24264050e+00, 0., 0., 5.21031885e+03, 9.98737988e+03,
          9.87191895e+02, 0., 4.68165479e+03, 0., 0., 0., 5.55604150e+03,
          8.89460840e+03, 3.51825073e+03, 0., 1420., 0., 2.99327698e+02,
          0., 6.29184668e+03, 5.26647461e+03, 2.12188940e+03,
          1.88552112e+03, 5.48282080e+03, 3.82079053e+03, 7.65014453e+03,
          2.06150122e+03, 0., 0., 0., 0., 5.05871875e+03, 6.07078564e+03,
          7.97132324e+03, 1.34908569e+03, 2264., 0., 0., 0. ]
      - [ 840., 5.15128235e+02, 4.63545117e+03, 6.94792285e+03, 5640.,
