%YAML:1.0
---
opencv_ml_svm:
   format: 3
   svmType: C_SVC
   kernel:
      type: LINEAR
   C: 2.6699999999999999e+00
   term_criteria: { epsilon:1.1920928955078125e-07, iterations:1000 }
   var_count: 64
   class_count: 10
   class_labels: !!opencv-matrix
      rows: 10
      cols: 1
      dt: i
      data: [ 0, 1, 2, 3, 4, 5, 6, 7, 8, 9 ]
   sv_total: 45
   support_vectors:
      - [ 9.98906899e-07, 1.58772181e-07, -3.21402126e-06,
          2.33560513e-07, 0., 0., -2.30559785e-08, -8.03735873e-07,
          -2.07571162e-07, -9.38344726e-07, -5.37003814e-07,
          -6.88153591e-07, 0., 0., -1.24626909e-09, -2.24674368e-09,
          -4.01197713e-06, 6.22693449e-07, 1.36913354e-06,
          1.98692010e-06, -4.25194116e-07, 3.19574156e-07,
          -2.17231582e-06, 1.31695992e-06, -5.24395205e-07,
          -1.86442833e-06, 4.13726468e-07, -4.02840570e-08,
          -2.04671528e-06, 2.35108496e-06, 3.46013394e-06,
          2.11268244e-07, -1.01315845e-06, 2.44707326e-06,
          1.10058886e-06, -4.05153429e-07, 3.02197350e-06,
          3.80347302e-07, -3.99036651e-07, 4.49439585e-06,
          -2.10327198e-06, -3.56280066e-06, -4.42030412e-08,
          -1.57870920e-06, -2.33743876e-07, 8.77377886e-07,
          4.64025646e-07, 1.27629974e-07, 9.50339563e-06, 1.04324045e-06,
          -9.95518985e-06, -1.05135887e-05, -3.76487856e-06,
          2.79559890e-06, 1.73967669e-06, 3.32091804e-06, 1.31359084e-05,
          3.53152291e-06, -8.88922659e-06, -7.63586195e-06,
          -8.31525995e-07, 8.96163712e-08, 2.17358206e-06,
          9.44727890e-06 ]
      - [ -4.29264492e-06, -5.65556434e-07, -2.41126781e-06,
          -7.35630437e-08, -5.85099087e-07, 0., 0., 0., -4.03477344e-07,
          -6.46329681e-07, -3.84850836e-07, -7.69712543e-08, 0., 0.,
          -7.25587839e-08, -2.77737490e-06, -7.83262840e-06,
          4.26612132e-06, 5.19360992e-06, 8.29424698e-06,
          -7.63176672e-07, 5.19492630e-07, -1.68151632e-06,
          2.46802369e-06, 7.38562858e-06, 1.20018024e-06, 1.80026825e-06,
          1.48848801e-06, 4.77478295e-07, 4.10464827e-06, 3.10515770e-06,
          -1.11649888e-05, -6.06698620e-07, -6.41153383e-06,
          -6.83321332e-07, -3.85128578e-06, 2.12705777e-06,
          -1.00224288e-05, -2.12501095e-06, 3.65358346e-06,
          -9.35476351e-07, -1.14150553e-05, -5.77948185e-06,
          -3.22702135e-06, -2.94793995e-06, -4.32561365e-06,
          1.23113159e-06, 9.02343709e-06, 3.55171414e-06, 8.13669612e-06,
          2.08062431e-07, 1.13950819e-06, -1.77747806e-05,
          -1.49115094e-05, -9.43607301e-06, 1.98925864e-06,
          1.27694466e-05, 1.08743379e-05, -2.51424740e-06,
          -3.08093581e-06, -5.20613321e-06, -1.14853128e-05,
          -7.64814286e-06, 1.38265641e-05 ]
      - [ -3.52991196e-06, -2.08265988e-06, -6.93999573e-06,
          -4.05548491e-07, -5.35934703e-07, -4.62141571e-07,
          -7.30363524e-07, -3.06637617e-06, -2.18797459e-06,
          -1.83766429e-06, -1.68649535e-06, -6.72429337e-07,
          -3.65542320e-07, 0., -4.79052176e-07, 1.82249607e-07,
          -1.05588433e-05, -2.02349582e-07, 1.05453882e-05,
          3.00063220e-05, -2.47828552e-06, -1.37794109e-06,
          -1.36012204e-06, 3.44136254e-07, 9.12789744e-07,
          -1.21435560e-05, 6.89101444e-06, 1.02749755e-05,
          3.45891794e-06, 1.01109563e-05, 8.64856702e-06,
          -2.89588172e-07, 1.87572732e-05, -1.50478354e-06,
          -2.51010192e-06, -4.87378884e-06, 2.55343878e-07,
          1.59581793e-06, -3.51622202e-06, 1.84510027e-05,
          1.98945527e-05, -1.30817507e-05, -1.21384301e-05,
          -1.78725968e-05, 2.36851133e-06, -2.32787647e-06,
          6.57732107e-06, 1.46278599e-05, 1.00288526e-05,
          -2.17579327e-05, -9.64645915e-06, 9.82523215e-06,
          -2.99671365e-06, 7.72846124e-06, -1.70788608e-05,
          -1.07295018e-05, 8.77283219e-06, -3.14485533e-06,
          -9.39199981e-06, 1.19330834e-05, 3.29284740e-06,
          1.52503480e-05, -1.88585418e-05, -7.56542431e-06 ]
      - [ -4.70923638e-08, -3.38046652e-06, -2.54313954e-06,
          1.90126272e-07, -5.72590807e-07, -1.29516550e-07, 0., 0.,
          -1.78832386e-06, -2.95299719e-06, -3.62276268e-07,
          -1.76202448e-07, -1.79875471e-07, -2.98198586e-07,
          -2.14358280e-07, -2.50918447e-07, 2.91138122e-06,
          2.67349060e-06, 2.66804545e-06, 7.07775916e-06,
          -2.57661077e-06, -2.66089705e-06, -3.03906222e-06,
          -1.36942469e-06, 4.19697153e-06, -3.66063972e-07,
          2.25814779e-06, 1.72733917e-06, -1.52813769e-07,
          2.72669217e-06, -2.20325160e-06, 3.87151317e-07,
          4.68791904e-06, -4.42930165e-10, -3.28148690e-06,
          -2.28772096e-05, 3.60285526e-06, 2.68715780e-06,
          -7.16840020e-07, 7.36715037e-06, 2.66492111e-06,
          -9.58473174e-06, -1.20229251e-05, -2.32543680e-05,
          -7.60652028e-06, -5.38321615e-07, 1.63734660e-06,
          5.60559829e-06, 8.25451752e-06, -2.57481065e-06,
          -1.51281729e-05, -2.17030347e-07, -1.15347561e-07,
          -1.16862839e-06, -9.34199306e-06, -4.39371547e-07,
          1.37462857e-05, 1.70911756e-06, -5.46346837e-06,
          1.04531955e-06, 9.62270678e-06, 7.15522174e-06,
          -8.54489826e-06, 4.98297641e-06 ]
      - [ 3.89561410e-06, 2.56831891e-06, -1.34167033e-06,
          2.13934322e-06, 0., -1.90884833e-07, 0., 0., -6.51146877e-07,
          -2.43950268e-07, -1.85670376e-06, -1.20137230e-07,
          -2.74277454e-07, 0., 0., -1.74328747e-07, -8.87202077e-06,
          -6.06087860e-06, 9.91993966e-06, 1.75667810e-05,
          2.04473324e-07, -4.86623492e-07, -5.18022671e-06,
          6.18123158e-06, 1.07727137e-05, -1.43737350e-06,
          6.51875507e-06, 4.77975800e-06, 6.33145518e-08, 9.58976852e-06,
          1.09874218e-05, 4.91600940e-06, 1.39471322e-05, 2.00097384e-06,
          -9.70126712e-06, -4.59381135e-06, 8.67623658e-06,
          -3.06022275e-06, -7.20937805e-06, 8.36281379e-06,
          5.95895426e-06, -1.17670452e-05, -4.39898440e-06,
          -7.77084551e-06, 9.11899519e-07, -3.54398185e-06,
          -7.15470651e-06, 6.32238471e-06, 1.01627302e-05,
          1.25428517e-06, -1.98489288e-05, -5.25925680e-06,
          -1.77066249e-05, -8.64559752e-06, -1.12234120e-05,
          1.27986186e-05, 1.80879979e-05, 1.16138144e-05,
          -3.09317193e-06, 2.73779074e-06, 5.91773505e-06,
          6.49682534e-06, -2.96687831e-05, 1.98055295e-05 ]
      - [ 7.42342718e-06, 8.28739849e-06, -5.62244486e-06,
          -5.92494916e-06, -2.91831128e-07, -2.40563249e-08,
          -1.49859886e-07, -8.69950938e-08, -2.00632144e-07,
          -2.58119400e-07, -9.13466636e-07, -2.05347192e-06,
          -3.13549947e-07, -9.62187343e-08, -4.58608262e-08,
          1.01893214e-08, -1.48626395e-05, -1.58294642e-05,
          2.16812691e-06, 1.57067643e-05, 2.22998281e-07, 1.17767661e-06,
          3.14336404e-07, 6.59211253e-07, 1.24196667e-05,
          -3.73364333e-06, -1.89745163e-06, -8.62779598e-06,
          1.09333075e-06, 9.48416346e-06, 1.14500144e-05,
          -1.81400480e-06, 9.26856228e-06, 5.87640307e-06,
          -1.13768738e-06, -1.58885814e-05, -1.01383939e-05,
          -4.04649882e-06, 6.28323596e-06, 2.25596777e-05,
          -6.46560329e-06, -6.83115195e-06, -7.47087415e-06,
          -1.67072631e-05, -7.21722381e-06, 1.19640265e-06,
          6.54688120e-06, 2.95177415e-06, 5.53081918e-06, 5.68789392e-06,
          -1.73032549e-05, 1.61938306e-06, -1.49262123e-05,
          -5.00951637e-06, -1.03417760e-05, 2.01578450e-06,
          1.61702301e-05, 4.95644190e-06, -1.22841984e-05,
          -2.17821480e-06, -2.15135151e-05, -6.43330532e-06,
          -2.26413104e-05, 1.42761901e-05 ]
      - [ 3.18361140e-06, -2.45152160e-06, -4.17613319e-06,
          -5.93419088e-07, -4.89924332e-06, -2.48358310e-06,
          -1.55571740e-07, -8.40352925e-08, -2.48303809e-06,
          -2.94846200e-06, -1.05371475e-06, -2.27683381e-06,
          -2.26357884e-06, -2.86775389e-07, 0., -1.58356295e-06,
          6.53680945e-06, -6.99363000e-06, 6.72591432e-06,
          1.14844697e-05, -3.24567031e-06, -4.01875877e-06,
          -7.88815032e-06, 2.69920633e-06, 1.37056995e-05,
          -6.01309011e-06, -9.26961604e-07, 1.82615008e-06,
          -2.27966007e-06, 3.12235193e-06, -7.71456143e-07,
          -4.22634866e-06, 5.66546350e-06, -6.19407137e-06,
          -6.83998269e-06, -9.18085880e-06, 1.08725189e-05,
          -1.40126099e-06, -1.68119209e-06, 1.39824533e-05,
          4.85904957e-06, -1.39573385e-05, -1.40120092e-05,
          -1.02560698e-05, 9.05842853e-07, 2.21846039e-06,
          3.31827187e-06, 9.77998479e-06, 1.43439602e-05,
          -6.97786663e-06, -9.25504901e-06, 3.84704481e-06,
          -9.21587252e-06, -9.18366254e-07, -1.72829878e-05,
          5.34696301e-06, 1.17152458e-05, 1.68102160e-05,
          -5.93430400e-07, 1.71297029e-06, 1.02916620e-05,
          2.90858293e-06, -9.28522695e-06, 2.04569060e-05 ]
      - [ -2.97861743e-06, -7.21560582e-07, -2.49474084e-07,
          -1.11787722e-06, -1.45145191e-06, -1.41407497e-06,
          -4.89700142e-06, -4.70842679e-07, 0., 0., 0., 0., 0., 0., 0.,
          -7.29305782e-07, -5.70478505e-06, 2.71382009e-06,
          3.07061009e-06, 7.57498174e-06, 2.87094508e-07, 1.43370031e-07,
          -1.38719173e-07, -6.57718101e-06, -3.78671302e-06,
          3.28876069e-07, 9.30547799e-07, 4.74173447e-07, 1.83121426e-06,
          1.86631291e-06, 3.58586732e-07, -1.71541651e-05,
          -2.41596331e-06, 1.62914034e-06, 2.80257751e-07,
          1.01334490e-06, 9.79789320e-07, -1.00482403e-05,
          -3.85851035e-06, -1.13855810e-06, 5.49081278e-06,
          -3.14883164e-06, -2.40290842e-06, -3.65427309e-06,
          -4.03994864e-06, -1.27327633e-06, -1.81023404e-06,
          -1.19175161e-06, 6.05612195e-06, 4.14982287e-06,
          5.58589454e-06, 6.19626007e-06, 9.15177338e-07,
          -3.41814575e-06, -1.20591158e-05, -8.24086874e-06,
          -3.09977599e-06, 9.46053933e-06, 2.88121612e-07,
          6.14628334e-06, -9.13729025e-07, -6.50151878e-06,
          -1.60317868e-05, -7.02528860e-06 ]
      - [ -4.42285170e-07, -6.20050560e-06, -4.90569209e-06,
          -1.56232460e-07, -3.42084172e-06, -2.41720318e-06,
          -6.62751518e-06, -3.82600183e-06, -4.35592347e-06,
          -1.12815815e-06, -6.02980990e-08, 0., -3.22955628e-07, 0.,
          -3.68276915e-07, -3.10782661e-06, -4.55772079e-06,
          -1.87028718e-06, 6.94391110e-06, 1.55086072e-05,
          2.01169982e-07, 3.65654557e-07, -3.68565088e-06,
          -1.26993718e-05, -5.06063498e-06, -7.34148625e-06,
          1.49337268e-06, 2.98518148e-06, -2.39342080e-06,
          8.92881599e-06, 2.49513187e-06, -2.17708384e-05,
          1.57906707e-05, -1.30491771e-05, -1.17339650e-05,
          1.37470067e-06, -1.70870283e-06, -1.00689715e-06,
          -7.79113543e-06, 8.40563280e-06, 1.05844856e-05,
          -6.88409818e-06, -6.39382915e-06, -4.84607290e-06,
          4.34693129e-06, 2.53269127e-06, 1.44521243e-06, 8.77089769e-06,
          -4.93079506e-06, -7.60379817e-06, -1.01419719e-05,
          7.09402184e-06, 4.47981438e-06, 1.10691954e-05,
          -2.37026393e-06, -3.49851371e-06, 7.43713645e-06,
          -2.33792234e-05, -9.36896777e-06, 5.26416443e-06,
          1.20355617e-05, 1.34719749e-05, -3.44110413e-06,
          -1.00717525e-05 ]
      - [ -1.42413705e-06, 5.01506577e-07, 2.73655701e-06,
          -1.03612692e-08, -6.35052288e-07, -3.88857558e-07,
          -1.44123049e-07, 7.73545537e-07, 6.74795544e-08,
          7.67527581e-07, 3.01306642e-07, 5.86339297e-07,
          -1.34712550e-07, -1.04512331e-07, -3.98245760e-07,
          -1.05903655e-06, 4.20454126e-06, 6.56859584e-07,
          5.25014570e-07, 2.48485975e-07, 4.78213963e-07, 2.49779415e-08,
          2.18854848e-06, 9.34794230e-07, 6.33454920e-06, 2.21507730e-06,
          4.69994426e-08, 1.05147571e-07, 1.80677819e-06,
          -6.55629094e-07, -1.59306751e-06, -2.37216818e-06,
          2.89273657e-06, -4.15609929e-06, -2.31676040e-06,
          -1.09056896e-06, -1.67749363e-06, -3.34874380e-06,
          -1.85365934e-06, -3.01101568e-06, 2.40568238e-06,
          -3.81346666e-07, -2.30409773e-06, -4.39090712e-07,
          -1.80272048e-06, -2.95446739e-06, -1.52268967e-06,
          1.73436126e-06, -8.22186848e-06, 1.97836312e-06,
          9.11353072e-06, 1.05396011e-05, -5.15288275e-06,
          -8.30541558e-06, -7.47925969e-06, -5.10802101e-06,
          -6.66954656e-06, 1.41408270e-06, 8.49631942e-06,
          5.12922907e-06, -8.01632837e-07, -6.13355360e-06,
          -5.88008152e-06, -6.49141566e-06 ]
      - [ 6.06019626e-07, 3.57789759e-06, 9.59266799e-06, 4.48772788e-08,
          -4.10823361e-07, -3.18931761e-08, -6.73045308e-09,
          1.07180745e-06, 2.54534456e-07, 2.30475757e-06, 7.46060891e-07,
          4.63663525e-07, -1.47263131e-06, -4.20281026e-07,
          -1.65353896e-07, 3.12140713e-09, 7.22181721e-06,
          2.06437576e-07, -1.52322855e-06, 1.49320726e-06,
          1.90167657e-06, -6.38986137e-07, 3.37861434e-06,
          1.30790454e-06, 6.52622975e-06, -5.52077881e-06,
          4.64939558e-06, 8.94210586e-07, 4.59217927e-06, 2.44863230e-07,
          -6.89126068e-07, -1.02183685e-06, 6.92963295e-06,
          -1.07729124e-06, -5.75670401e-06, -4.96436815e-06,
          -5.67227880e-06, -3.02612921e-06, -9.18650983e-07,
          1.55325324e-06, 7.97496250e-06, 4.04779075e-06,
          -3.64963603e-06, -7.64996275e-06, -2.98445229e-06,
          -1.19438187e-06, -6.69142992e-07, 7.86259761e-07,
          -7.19357240e-06, -1.82293461e-05, 1.40716099e-06,
          1.69358336e-05, 2.72423608e-06, -5.52157599e-06,
          -7.93362415e-06, -1.15683633e-05, -1.35650434e-05,
          -5.00905116e-06, 6.15026420e-06, 1.06016796e-05,
          -1.25245879e-06, -1.64049595e-06, -7.83774067e-06,
          -7.75231911e-06 ]
      - [ -5.02726425e-06, -3.33150183e-06, 3.95800862e-06,
          3.09038995e-07, -1.06615282e-07, -3.09261665e-08,
          3.06008658e-08, 1.06675213e-06, -5.05462867e-06,
          -1.77179311e-06, 2.40229781e-07, 8.71272618e-07,
          -4.29509477e-08, -7.12043260e-08, -4.95307084e-08,
          -6.83326249e-08, 5.99515442e-06, 2.99418843e-06,
          2.28598287e-06, -6.28388352e-06, 1.86099385e-06,
          -1.16928254e-06, -1.75046978e-06, -1.50730344e-07,
          1.03896355e-06, 1.19432187e-07, 6.94167784e-06, 8.13178531e-07,
          3.39396433e-06, -2.06914024e-06, -9.83370137e-06,
          -7.62660363e-07, 3.25133328e-06, -1.01590440e-05,
          -6.05581545e-06, -2.39408018e-06, 1.61616572e-06,
          2.13718707e-07, -6.42389114e-06, -9.31183934e-07,
          3.48318213e-06, -4.25875305e-06, -1.01077057e-05,
          -1.09550665e-05, -6.82388963e-06, -8.22895572e-07,
          -6.61828494e-07, -8.10995857e-07, -1.68035785e-05,
          -1.45365666e-05, 8.78246556e-06, 1.29614436e-05,
          -4.25983444e-06, -1.17012305e-05, -8.07058677e-06,
          -3.09826419e-06, -7.13077179e-06, -6.24722088e-06,
          3.87108003e-06, 4.10425719e-06, 4.40436088e-06, 1.94116569e-06,
          -1.35900666e-06, -2.64718688e-06 ]
      - [ 5.42437249e-07, -6.10168797e-07, 7.23365065e-06,
          7.73045940e-07, 8.44664356e-08, 0., 4.65352876e-08,
          1.49924108e-06, 4.18953533e-07, 1.27480962e-06,
          -1.00464831e-06, 1.38894234e-06, 0., 0., 2.51542098e-09,
          4.53473969e-09, 6.49075128e-06, -7.61260526e-06,
          -6.22363302e-07, -1.64663606e-06, 3.54964027e-06,
          -1.74133518e-07, 3.37242705e-06, -2.96684379e-06,
          6.17892374e-06, -4.02836076e-06, 6.31628291e-06,
          -8.36017898e-06, 3.86908732e-06, -6.50069722e-08,
          -1.25890892e-06, -1.72626699e-06, 6.18885906e-06,
          -6.72397982e-06, -6.02575801e-06, -2.26410543e-06,
          -3.93582741e-06, -2.01158514e-06, -2.74933313e-06,
          -8.93367996e-07, 9.04710851e-06, -8.86331691e-06,
          -7.21480592e-06, 3.04661512e-07, -2.22616040e-06,
          -6.26683732e-06, -4.21880350e-06, 1.89984257e-06,
          -1.71919928e-05, -1.64430730e-05, -3.54618351e-06,
          2.35738662e-05, -5.18491674e-07, -3.35763434e-06,
          -8.84177462e-06, -7.75004537e-06, -1.01664491e-05,
          -1.45164540e-05, 1.09308321e-05, 2.58821819e-05,
          4.89121021e-07, -4.95845870e-06, -3.56796295e-06,
          -1.14869727e-05 ]
      - [ -1.60021898e-07, 5.04791024e-06, 5.65854452e-06,
          -3.54857161e-06, -2.21202598e-07, -8.04837299e-08,
          1.81223321e-08, 7.44073361e-07, -7.65195580e-07,
          -8.29525106e-07, -1.37876600e-06, -7.48365835e-07,
          -9.53345761e-07, -6.18718332e-07, -8.74752232e-07,
          -9.61656951e-07, 7.79547645e-06, -6.56526163e-06,
          -5.66527615e-06, -1.82116162e-06, 1.74399827e-06,
          -2.60709413e-07, 1.56121177e-06, 1.03529715e-06,
          -3.56821239e-09, -1.28794345e-05, 5.29284353e-06,
          -2.93764424e-06, 4.31529043e-06, 2.06545991e-07,
          -6.91535377e-07, 1.93319437e-07, 7.12799056e-06,
          -4.34088861e-06, -9.98737141e-06, -2.81303937e-06,
          -8.41736437e-06, -9.62800755e-07, 4.54678627e-07,
          1.67382188e-06, 5.42079397e-06, 3.62958212e-06,
          -6.48420746e-06, -9.23885818e-06, -4.69760789e-06,
          -1.98230396e-06, -4.36721564e-07, 2.57792067e-06,
          -1.10526780e-05, -6.17476417e-06, 1.45356780e-05,
          1.71063948e-05, -8.45176419e-06, -1.13081251e-05,
          -6.40195822e-06, -2.81535404e-06, -6.71029466e-06,
          8.12662790e-07, 1.02352051e-05, 1.56085898e-05,
          -2.07502580e-06, -4.78324864e-06, -4.64578352e-06,
          -4.31206308e-06 ]
      - [ 6.90930790e-07, -5.14868225e-06, 6.28437056e-06,
          -4.20536480e-06, -1.43703005e-06, -9.98974315e-07,
          -4.70441080e-07, 1.24778842e-06, -7.52221325e-08,
          -1.06207642e-06, -4.08955202e-06, -1.48069910e-06,
          -4.78054176e-07, -4.53816028e-07, -2.36674875e-08,
          -1.36245106e-07, 1.54000827e-05, 9.20136301e-07,
          4.33639298e-06, -1.15783689e-06, -3.26108329e-06,
          -5.85225416e-06, 1.44810599e-06, -3.23953009e-06,
          8.03664898e-06, 3.27959555e-07, 7.70965653e-06,
          -3.39204598e-06, -4.30444516e-06, -7.36609854e-06,
          -3.82761664e-06, 2.10287141e-07, -4.12915279e-06,
          -5.48922162e-06, -8.49424487e-06, -5.17463604e-06,
          -6.17160413e-06, -1.54894963e-06, -1.06906487e-06,
          -3.91954791e-06, -1.88952106e-06, 6.47770605e-07,
          -9.14704560e-06, -9.88563443e-06, -3.44377281e-06,
          -3.46892580e-06, -2.35001221e-06, 6.47509410e-07,
          -1.37927445e-05, -6.40568805e-06, 1.85659665e-05,
          1.42442786e-05, -4.06911249e-06, -7.56091276e-06,
          -6.64135314e-06, -4.81027246e-06, -1.26217628e-05,
          4.75291472e-06, 1.40200918e-05, 3.18386856e-06,
          -1.62885340e-06, -1.56225667e-06, -5.89145202e-06,
          -4.68598773e-06 ]
      - [ -3.12201053e-07, 5.43555188e-07, 1.48656238e-06,
          -1.43512111e-07, -3.79596827e-07, -4.33020176e-07,
          -8.82167399e-07, 2.75271759e-07, 9.30433117e-08,
          4.20610917e-07, 2.40710762e-07, 3.08463314e-07, 0., 0.,
          5.58637359e-10, -1.44699300e-07, 2.94130723e-06,
          7.15767214e-07, 5.00646706e-07, 1.23717044e-07, 4.95197185e-07,
          -1.02880460e-08, 1.15714420e-06, -1.22961535e-06,
          2.13141243e-06, 8.39474808e-07, 1.55186797e-07,
          -7.92013921e-08, 9.87919179e-07, -2.17434419e-07,
          -4.76243997e-07, -4.05687570e-06, 2.58021117e-07,
          -3.29929804e-07, -6.80994447e-07, 4.50090084e-07,
          -2.88070737e-07, -2.21425512e-06, -2.09560017e-06,
          -2.38328948e-06, 2.68748158e-06, 9.10659992e-07,
          -5.51399978e-07, -6.09852179e-07, -8.78176365e-07,
          -7.25440202e-07, -1.26683267e-06, -1.41010355e-06,
          -3.62730589e-06, 1.07476137e-06, 5.01795421e-06,
          5.72692579e-06, -3.08717773e-07, -2.24877499e-06,
          -5.70231714e-06, -7.30907414e-06, -4.99474618e-06,
          2.01358989e-06, 3.99039163e-06, 3.78065556e-06, 1.79456681e-08,
          -1.61828154e-06, -6.31198554e-06, -7.79471156e-06 ]
      - [ -2.23651426e-07, -8.46157832e-07, 6.03284025e-06,
          -1.88457273e-06, -9.01852502e-07, -1.01419118e-06,
          -1.10472183e-06, -2.47203758e-07, -8.99771294e-07,
          -1.28848819e-06, -5.49317747e-07, 3.78685684e-07,
          -3.81060801e-08, -1.39674672e-09, -4.36301306e-08,
          -6.31852117e-07, 2.76553919e-06, 1.37930510e-06,
          -1.54428562e-07, 2.05317178e-06, 3.62254355e-06,
          -1.32232663e-06, 2.68383957e-07, -1.61128196e-06,
          2.23264055e-06, -4.49635036e-06, 5.43510214e-06,
          -1.16854119e-06, 1.85100271e-06, 1.20270988e-06,
          -5.53653422e-07, -3.09203642e-06, 3.05175968e-06,
          -2.15850287e-06, -1.63336954e-05, -2.21261735e-06,
          -3.57195586e-06, -2.80154950e-06, -1.97509257e-06,
          1.33395247e-06, 2.27977034e-06, -4.41597831e-06,
          2.07435141e-06, -1.82483939e-06, 4.46151006e-07,
          1.54885299e-07, -1.41699488e-07, 3.95117780e-07,
          -8.30869976e-06, -1.01086034e-05, -9.98146334e-06,
          1.44174028e-05, 4.34276262e-06, 4.73477201e-07,
          -1.45955528e-06, -5.84107875e-06, -7.21749348e-06,
          -9.05373508e-06, -1.47750497e-05, 1.28306583e-05,
          3.26195459e-06, 2.08532356e-06, -3.30305033e-06,
          -9.50849244e-06 ]
      - [ 6.02605269e-06, 1.97443592e-06, -6.99654663e-07,
          -9.09578091e-07, 1.15648663e-06, 2.41728321e-06,
          7.74899434e-07, 1.46593197e-06, -7.87714782e-09,
          2.89671334e-07, 2.49808267e-07, 4.87972784e-07, 6.77570995e-07,
          8.81647964e-07, 1.39678355e-06, 6.95150493e-06,
          -5.77109677e-06, -2.79379469e-06, 3.81541099e-07,
          -1.44114081e-08, 1.45210970e-06, 4.68820446e-07,
          -2.22444487e-06, 9.15033127e-07, -1.81685646e-05,
          -4.48264927e-06, 3.27433213e-06, 2.13157500e-06,
          8.93931769e-07, 2.45758361e-06, 8.20928199e-06, 4.86627323e-06,
          8.30730642e-06, 1.23467153e-05, -1.64842834e-06,
          1.80366533e-06, -4.46879631e-06, 6.54340647e-06,
          3.69413056e-06, 9.68565655e-06, 1.16302181e-05, 1.02575186e-05,
          2.80068389e-06, -4.07606967e-06, 7.75479202e-06,
          7.44312410e-06, -3.72111049e-06, 2.88629508e-06,
          3.80602387e-06, -2.43421327e-05, -8.82955101e-06,
          -3.78426807e-06, 1.11752643e-05, 1.66941099e-05,
          3.19230071e-06, -1.02734612e-05, -7.18973570e-06,
          -7.78865797e-06, -1.13687456e-05, -2.88418846e-06,
          4.16863395e-06, 2.34681447e-05, -1.25801871e-05,
          -1.27391186e-05 ]
      - [ 9.67820597e-07, -5.86899432e-06, -2.81546181e-06,
          -8.14191424e-07, -2.43385614e-07, 6.66048606e-07,
          5.92307174e-07, 1.09905716e-06, -3.16856972e-06,
          -4.33826244e-06, -1.01415640e-06, -9.89867814e-08,
          -9.10713496e-08, -6.99913301e-08, -5.53796937e-08,
          3.55795692e-06, 8.62205161e-06, 1.89024945e-06, 5.90896889e-07,
          -4.44319403e-06, -1.04601486e-06, -3.44498767e-06,
          -6.13693101e-06, -8.29638225e-07, -6.47584375e-06,
          -2.25980170e-06, 2.24145856e-06, 8.24661811e-07,
          -2.41458338e-07, -2.01642774e-06, -7.31553246e-06,
          6.51198161e-06, 2.32391471e-06, 7.39137568e-06, 1.41048736e-06,
          -1.40512102e-05, 6.70118970e-06, 8.26701671e-06,
          3.86984965e-07, -4.11382794e-09, 3.12624798e-06,
          5.57653766e-06, -3.43258876e-06, -1.77482434e-05,
          1.20029915e-06, 4.62993876e-06, -9.16644524e-07,
          -3.05426761e-06, -2.52891732e-06, -6.84893894e-06,
          -1.29391010e-05, -6.79460845e-06, 1.38120959e-05,
          1.05139843e-05, 6.24382437e-06, -3.90407604e-06,
          2.32466323e-06, -1.12022838e-06, -8.94431651e-06,
          -3.16890964e-06, 1.05292283e-05, 2.00975119e-05,
          7.82671850e-06, -2.86824138e-06 ]
      - [ 1.11150111e-05, 3.20449794e-06, 1.24248015e-06,
          -1.02972103e-06, 1.47265246e-06, 5.73827265e-07,
          9.45677812e-08, -1.83472946e-06, -4.99875092e-08,
          4.65337315e-08, -9.93711183e-07, 1.06110775e-07,
          -1.37703307e-08, 1.26975280e-07, 5.60892147e-07,
          3.59825208e-06, 8.35301671e-06, 3.77619654e-06, 1.14711736e-06,
          -8.03140665e-07, 1.99730857e-06, -1.38443590e-06,
          -7.62006096e-07, -1.21668791e-07, -7.31695707e-07,
          -2.95445466e-06, 5.56102123e-06, 4.14807982e-06,
          1.73461910e-06, 3.12683937e-06, 8.92314347e-06, 1.73339340e-05,
          5.77137507e-06, 1.39230533e-05, -4.61365062e-06,
          6.27198779e-06, 3.23152699e-06, 1.30679837e-05,
          -2.33568244e-06, -2.71763247e-06, 7.57766929e-06,
          9.15564306e-06, 3.55334464e-06, 6.75241881e-06, 7.22175719e-06,
          3.93394112e-06, -1.15565208e-05, -8.11177506e-06,
          2.65299718e-06, -2.40103709e-05, -2.16846747e-05,
          -2.07274115e-06, 2.20863276e-05, 2.68954773e-05,
          1.72719647e-05, 5.40156498e-06, -8.77244565e-06,
          2.88821320e-06, -1.11875570e-05, 1.05780264e-05,
          1.16267493e-05, 3.24602333e-05, 1.52012979e-06,
          -4.00913405e-06 ]
      - [ 9.21647188e-06, 8.14654322e-06, -3.43028255e-08,
          -5.29218642e-06, 9.25321729e-07, 6.89037279e-07,
          4.36978183e-07, 1.47597305e-07, -1.40218242e-06,
          1.58404802e-07, -9.14323380e-07, -2.80580912e-06,
          -4.00657473e-06, -1.34136667e-06, -4.53136209e-07,
          5.29586259e-06, -1.84609149e-07, -4.80069093e-06,
          1.67711528e-06, -1.34080310e-05, -3.18909065e-06,
          -7.67049926e-07, 2.74769718e-06, -7.05884759e-06,
          -3.02968347e-05, -7.57970474e-06, 2.47673006e-06,
          -4.78352331e-06, -1.28630074e-06, -2.49649202e-06,
          5.05950311e-06, 1.26741479e-05, 7.57761609e-06, 1.81998439e-05,
          -3.50211508e-06, 1.67921394e-06, -2.63299125e-06,
          2.70251112e-05, 1.14389331e-05, 3.89001798e-06,
          -4.28092198e-06, 2.51476213e-05, 7.75068202e-06,
          -1.52012251e-06, -1.30707031e-06, 1.09084012e-05,
          6.36896539e-06, -3.00195029e-06, 8.84390283e-06,
          -1.21627290e-05, -1.26442701e-05, -8.31966645e-06,
          1.76561898e-05, 2.91980832e-05, 1.98831331e-05,
          -6.16720126e-06, -7.59066916e-06, 8.58413568e-06,
          -5.49426341e-06, -2.66273389e-07, -1.48539066e-05,
          2.02061437e-05, -8.44671831e-06, -1.04830688e-05 ]
      - [ 1.16326437e-05, -3.33097159e-06, -5.86648957e-06,
          2.42484958e-07, -1.08413915e-05, -6.54163614e-07,
          2.81002167e-06, 4.34680624e-06, -1.08438689e-05,
          -5.23074323e-06, -1.87025580e-06, -1.44513194e-06,
          -6.16559328e-06, 1.10681185e-06, 3.29703857e-06,
          5.55826000e-06, 1.26367113e-05, -2.67416112e-06,
          9.21812330e-07, -2.58540950e-07, -5.37091807e-07,
          -1.53226083e-05, -3.05160302e-05, -3.69804343e-06,
          6.67964241e-06, -1.42207261e-06, 3.41209966e-06,
          5.64701224e-07, -6.17011528e-06, -1.08893228e-05,
          -1.60988420e-05, -3.82450844e-06, 9.97475763e-06,
          -6.07679158e-06, -4.21135201e-06, 3.97781560e-06,
          9.76865886e-06, 2.30276237e-05, 5.86743727e-06, 3.40194197e-06,
          9.85403858e-07, 2.15063574e-05, 1.24213166e-05, 1.49446869e-05,
          1.27359144e-05, 2.32710026e-05, 1.19320903e-05,
          -3.77107881e-06, 1.24931848e-05, -1.56793303e-05,
          -5.84617510e-06, 9.03583782e-07, 2.53506478e-05,
          2.51423680e-05, -1.32177172e-06, 9.39839538e-06,
          -5.01271984e-07, 8.26243559e-06, 1.80628172e-06,
          1.19375791e-05, 1.88398353e-05, 3.08983035e-05, 1.30583294e-05,
          1.32790374e-05 ]
      - [ 1.66409200e-06, 2.17023057e-06, 5.04473348e-07, 3.75464225e-07,
          -1.04478045e-06, 1.57976672e-06, -1.85568331e-06,
          3.27896896e-06, 9.54135430e-07, 5.66669769e-07, 3.84313580e-07,
          7.05290859e-07, 9.34786442e-07, 1.29169416e-06, 1.73509591e-06,
          4.74906210e-06, 4.67570317e-07, 4.31528546e-09, 4.24034141e-07,
          3.19848283e-07, 6.24215318e-07, 3.79915264e-07, 1.39696419e-06,
          -2.00112959e-06, -1.25665110e-06, -1.95750886e-07,
          -1.99201125e-07, -1.64463461e-06, 3.63894713e-07,
          -9.50595506e-07, 5.55185761e-06, -9.11741881e-06,
          9.60617172e-07, -1.08400855e-06, -7.49410106e-07,
          -3.41624400e-07, 2.77894628e-06, 4.96596613e-06,
          -6.30874729e-06, -7.63168646e-06, 3.56284568e-06,
          7.07716708e-06, 2.72096736e-06, -3.76906405e-06,
          -1.34710717e-07, 7.06830633e-06, -2.16829926e-06,
          -9.23126663e-06, -7.24652591e-06, -2.83522945e-06,
          6.33374566e-06, 2.87427065e-06, 2.13614544e-06, 7.88933266e-06,
          -1.15962348e-05, -1.69558080e-05, -1.28259644e-05,
          4.19093283e-07, -1.60545881e-06, 5.87185104e-06,
          -2.88068736e-06, 5.44699742e-06, -1.31573579e-05,
          -2.37042550e-05 ]
      - [ 2.85414967e-06, 2.19725429e-08, -1.30004946e-06,
          -3.55477709e-07, -1.04450214e-06, -3.93756380e-07,
          -2.10593907e-06, -4.57658672e-07, -6.99118175e-07,
          -6.59011505e-07, -4.38700027e-07, 1.57443694e-07,
          8.53245119e-09, 3.24653428e-07, 5.53186581e-08, 1.65701647e-06,
          4.93399193e-06, -1.55892724e-06, -8.80329253e-07,
          -4.53273060e-07, 5.53743348e-07, -2.10530487e-07,
          -1.23780308e-06, -4.18650188e-06, -1.82938606e-06,
          -1.56273700e-06, -1.45079537e-06, -1.23109703e-06,
          -1.67147778e-06, 4.84239138e-07, -1.41009522e-07,
          -3.85869441e-07, 4.48055152e-06, -8.81205267e-07,
          -6.29549504e-06, 1.58897228e-06, -3.11104714e-06,
          2.73020464e-06, -1.08686140e-06, 3.23541690e-06,
          3.00805141e-06, 2.93738981e-06, 1.12610337e-06,
          -1.26201115e-07, 3.38643895e-06, 5.02388684e-06,
          -1.84391212e-07, -1.38436235e-06, -4.99610405e-06,
          -6.40092094e-06, -7.38419976e-06, 2.00623344e-06,
          1.08962504e-05, 1.38406212e-05, 6.05089235e-06,
          -2.82340784e-06, -5.83207520e-06, -1.47623014e-05,
          -8.43029557e-06, 4.24147584e-06, 7.67270012e-06,
          1.37912239e-05, 4.96868893e-07, -1.19883716e-05 ]
      - [ -4.32472279e-06, -1.40899247e-05, -6.19230650e-06,
          1.28455804e-06, 9.85967858e-07, 1.24248390e-06, 1.91555159e-06,
          3.03027377e-06, -6.52490098e-06, -7.15348551e-06,
          -3.95443152e-07, 2.32603270e-06, 6.17097930e-06,
          1.95629400e-06, 6.72691783e-07, 4.00494145e-07, 1.57692211e-05,
          1.02726399e-05, 5.46678848e-06, -1.43505185e-05,
          -5.55003226e-06, -4.23623578e-06, -6.61781314e-06,
          -1.32548948e-05, 1.93257915e-06, 1.64079356e-05,
          5.29019144e-06, 1.40312693e-06, -6.84039776e-07,
          -4.19001299e-06, -2.28942299e-05, 2.09587802e-06,
          -1.73787521e-05, -1.72942018e-05, -2.55216241e-06,
          -3.26860900e-05, 4.55728014e-06, 1.58089388e-05,
          -3.67366624e-06, -8.05351010e-06, -2.25590647e-05,
          -2.60402285e-05, -1.56325732e-05, -1.33627109e-05,
          -2.55937557e-05, -1.09100756e-06, 4.82909354e-06,
          -3.43160252e-07, -4.22111316e-06, 1.53260680e-05,
          7.91623734e-06, -7.87442514e-06, -1.06212030e-06,
          -1.01008136e-05, -6.41374208e-06, 5.16110549e-06,
          1.95201974e-05, 4.09825316e-06, 6.77935213e-06, 1.09335872e-06,
          1.83615157e-05, 9.60686248e-06, -2.72226112e-06,
          3.17040826e-06 ]
      - [ -3.01786031e-06, -6.07599350e-06, 1.76508479e-07,
          6.02825048e-06, 3.25116343e-06, 1.50549022e-06, 1.95290454e-06,
          6.48402761e-07, -6.79418179e-07, -1.73554793e-06,
          -2.80477389e-06, 1.09527491e-06, 1.15696866e-06,
          2.63448300e-07, 7.36505115e-07, -2.36253959e-06,
          -1.11489753e-05, -1.16086039e-05, -1.39546682e-05,
          -2.55233772e-06, 7.51520611e-06, 1.24368908e-05,
          1.63202967e-05, 3.22195547e-06, 2.46194413e-05, 2.30421465e-05,
          -4.23214215e-06, -1.16038236e-05, 6.12046460e-06,
          1.52941739e-05, 1.76281242e-06, 1.22551537e-05,
          -1.36562612e-05, -3.44720902e-05, -3.88937497e-06,
          -5.63077037e-06, 9.95676874e-06, -4.94308870e-06,
          -1.69415016e-05, -2.63594047e-05, -2.25504282e-05,
          -3.87366672e-05, 7.66643643e-06, 2.83023783e-05,
          8.78380069e-06, -1.07925216e-05, -1.74226607e-05,
          -9.84795861e-06, -8.36914842e-06, 5.62200330e-05,
          -2.32546199e-06, -1.91890631e-05, -1.52941229e-05,
          -3.92066386e-06, 3.44454820e-05, 2.91389715e-05,
          -5.62035439e-07, 1.18660028e-05, 4.01286388e-06,
          2.32490220e-05, 5.39712983e-06, -2.05423839e-05,
          8.92971730e-06, 2.01793482e-05 ]
      - [ 1.88034301e-05, 6.04000343e-06, -1.49512252e-05,
          -2.54356910e-05, -4.24388162e-07, 2.06725827e-06,
          3.27985344e-06, 9.54550796e-06, 2.98691202e-06,
          -9.82982783e-07, -1.25090346e-05, -1.50208170e-05,
          -8.02169211e-07, -1.39623376e-06, 3.99175320e-07,
          -2.04573514e-08, 3.04759874e-06, -4.25319122e-05,
          -1.97610752e-05, -1.36173730e-05, 3.99537703e-06,
          6.10188999e-06, 6.29529177e-06, -1.03705224e-06,
          1.40830962e-05, -1.85916033e-05, -5.21324364e-06,
          -1.64383837e-05, 6.15608315e-06, -4.14414171e-06,
          -1.17242371e-06, 9.05080924e-06, 8.33644663e-06,
          -1.46411458e-05, -1.45983986e-05, -2.84707876e-05,
          -1.29430146e-05, 1.86483539e-05, 1.87112200e-05,
          8.07585639e-06, -3.34692413e-05, -5.42983707e-06,
          -4.54255996e-06, -1.17541840e-05, -2.26338234e-05,
          7.13894951e-06, 1.17010095e-05, 3.75635341e-06,
          -3.52318348e-05, 3.13508608e-05, 2.08118781e-05,
          9.75363832e-07, -2.99941767e-05, -1.77053334e-05,
          1.38119713e-05, 2.41699017e-05, 6.71083569e-07,
          -2.83006239e-06, 6.01859938e-06, 1.20493123e-05,
          -2.08603142e-05, -1.72221062e-05, -6.27166446e-06,
          2.21825576e-05 ]
      - [ 7.51832090e-07, -1.87261467e-05, -1.39154399e-05,
          -6.96911502e-06, -1.07532060e-05, -3.74638466e-06,
          9.06865068e-07, 2.50570088e-06, -3.62125502e-06,
          -6.96680036e-06, -7.04883269e-06, -4.92238860e-06,
          -3.77038236e-06, -9.43689486e-07, 5.25690155e-07,
          -3.24997040e-06, 1.22725478e-05, -1.44995729e-05,
          1.82041947e-06, -7.77852904e-07, -5.85884663e-06,
          -5.73584612e-06, -1.07448386e-05, -1.09255088e-05,
          1.50056230e-05, 2.89572836e-05, -1.36370027e-05,
          -1.66210393e-05, -8.01859824e-06, -6.90594516e-06,
          -2.13821641e-05, 3.47191235e-06, -1.89989023e-05,
          -3.25802866e-05, -6.16905436e-06, -1.22712727e-05,
          1.00499092e-05, -3.42435419e-06, 4.10508210e-06,
          -4.39216905e-07, -3.83366350e-05, -2.62607718e-05,
          -1.05909021e-05, -2.28805402e-06, 7.52723918e-06,
          6.36225650e-07, 9.52003745e-07, -3.85182057e-06,
          -2.67367591e-06, 8.94647656e-06, 2.77013623e-05,
          1.42350382e-06, -1.77455786e-06, -1.40450693e-05,
          1.51317854e-05, 1.09792190e-05, 3.41537407e-06, 2.08327274e-05,
          1.40816446e-05, 1.46598823e-05, 2.34562722e-05,
          -3.97218355e-06, 1.48751960e-05, 1.93002015e-05 ]
      - [ -4.11814199e-06, -3.59948018e-07, 1.29062016e-07,
          -1.16337890e-06, -2.08475217e-06, -9.58363671e-07,
          -6.01144666e-06, -3.38596379e-07, 1.85815225e-07, 0., 0., 0.,
          0., 0., 0., -1.24118969e-06, 5.47705440e-06, 1.61268883e-06,
          2.45737283e-07, 2.13303011e-07, 5.63018375e-07, 9.32769737e-08,
          1.96066196e-07, -7.10139648e-06, -9.68868449e-07,
          2.82309429e-07, -1.21978474e-06, -2.72151328e-06,
          4.20875722e-07, -9.07206925e-07, -2.30808951e-06,
          -2.28038534e-05, -1.20910745e-05, 1.37206416e-06,
          5.45979583e-06, 3.17282797e-06, -2.25718679e-08,
          -1.34904340e-05, -4.12518239e-06, -1.42263725e-05,
          -4.44168165e-07, -1.67945780e-06, 6.32101501e-06,
          3.39656822e-06, -5.74132036e-06, -1.00317891e-06,
          -4.76276136e-06, -9.99279564e-06, 6.53913139e-06,
          1.09938928e-05, 8.23040955e-06, 2.74019158e-06, 7.83938958e-06,
          -3.54499070e-06, -6.62204684e-06, -8.23441223e-06,
          -3.93615392e-06, 8.20308014e-06, 1.58022453e-06,
          2.30091382e-06, -3.37512188e-06, -1.62226952e-05,
          -1.10790388e-05, -5.81772156e-06 ]
      - [ 1.15202429e-05, -5.78399749e-06, -7.92161882e-06,
          1.94605775e-07, -2.63835773e-06, -1.63925881e-06,
          -5.51119592e-06, 5.62719777e-07, -4.93839661e-06,
          1.25257147e-05, -2.73875571e-06, 3.38305495e-06,
          9.82087749e-06, 3.48923436e-06, 9.43549992e-07,
          -3.33021808e-06, -1.41646469e-05, -1.88359372e-05,
          1.99058309e-06, -1.32153673e-06, 1.42682484e-06,
          1.18421872e-06, -3.82497956e-06, -2.53905091e-05,
          -2.12692921e-05, 2.80239965e-05, -2.92657624e-05,
          -5.13891473e-06, 3.89565275e-06, 2.40258032e-06,
          -2.09278983e-06, 2.22557301e-05, 1.52879948e-05,
          -2.77705039e-05, -2.47553435e-05, 7.54157008e-06,
          -7.43888313e-06, 4.24065092e-06, -6.76363061e-06,
          1.34037677e-07, -3.62306969e-06, 7.10745735e-06,
          7.41062468e-06, 3.51073068e-05, 1.70391650e-05, 6.59396073e-06,
          9.60722355e-06, 1.45932481e-05, -2.80660443e-05,
          3.98310658e-05, -2.05833130e-05, 2.37097247e-05,
          -1.89757145e-06, 1.49977341e-05, 2.48813594e-05,
          1.37670841e-05, 1.61946391e-05, -3.28507704e-05,
          -2.30172791e-05, 1.97130248e-05, 7.71333089e-06,
          2.63656420e-06, -2.03700292e-05, -1.57278773e-05 ]
      - [ 1.11635545e-05, 1.13477863e-05, 7.32223157e-07,
          -7.84440317e-07, 6.21959089e-07, -1.05534248e-07,
          -7.89278474e-08, -1.43102272e-06, 1.05856752e-05,
          7.51078142e-06, -4.30432146e-06, -1.37493529e-07,
          -3.44868710e-07, 2.41812984e-07, 1.92317458e-07,
          -1.81989253e-06, -1.63467430e-05, -1.34245402e-05,
          -5.88698686e-06, 8.76449940e-06, 1.58361092e-06,
          3.29673912e-06, 3.78914297e-06, 1.09772436e-05, 1.38802052e-05,
          -3.76936350e-06, -9.74307841e-06, -1.09756393e-05,
          -8.16593285e-07, 5.91710705e-06, 2.87811235e-05,
          5.57262410e-06, -1.55760210e-06, 8.67972722e-06,
          -2.38995170e-07, 2.29267880e-05, -2.91313597e-07,
          -9.59746467e-06, 8.57050236e-06, -5.55290626e-06,
          1.56154272e-06, 4.55041857e-07, 1.21729145e-05, 3.29601826e-05,
          2.49104742e-05, -8.74542820e-06, -9.42862698e-06,
          -1.27058706e-06, 1.62929723e-06, 1.25216802e-05,
          -1.61779371e-05, 3.71911426e-07, -4.92140316e-06,
          4.36868686e-06, 1.27105968e-05, 9.27607471e-06,
          -5.09188067e-06, 1.01199544e-06, 7.93134041e-06,
          1.24587659e-05, -1.82121039e-05, -1.33132908e-05,
          -1.12615207e-05, 1.03816301e-05 ]
      - [ 1.61829321e-05, 1.70965614e-05, 5.05152912e-06,
          -1.64956036e-05, -3.12248176e-06, -3.07108138e-07,
          -5.04572135e-08, 3.48596177e-06, 1.28958318e-05,
          7.72715066e-06, -3.85759085e-06, -7.36648462e-06,
          -2.19514436e-06, -2.17288132e-07, 4.31226681e-08,
          7.73878673e-06, -1.82336826e-05, -1.96279743e-05,
          -4.89736431e-06, 1.31117367e-05, 1.17967675e-05,
          1.45993827e-05, 1.56540955e-05, 1.77234706e-05,
          -3.54108965e-06, -2.49151199e-05, -2.96612666e-06,
          -5.41357895e-06, 2.73458434e-09, 1.02883314e-05,
          4.53001230e-05, 7.37462051e-06, 6.83611597e-06, 1.19399965e-05,
          -1.98367161e-05, 1.42533245e-05, -1.02355680e-05,
          -4.95855193e-06, 1.84773980e-05, 1.63492386e-05,
          -4.85974215e-06, 1.56930946e-05, 5.96914424e-06,
          -5.48399566e-06, -4.52556696e-06, -3.58383932e-06,
          1.48762092e-06, 1.03388065e-05, -1.04774317e-05,
          -1.19599499e-05, 4.96570465e-06, 1.30497729e-05,
          -1.41090368e-05, 7.12754127e-06, 6.43829935e-06,
          1.24331355e-05, -3.10549103e-06, 5.79508105e-06,
          -1.39022932e-05, 2.57328475e-06, -2.11441875e-05,
          -2.81582234e-05, -2.19048525e-06, -5.61172465e-06 ]
      - [ 1.88778104e-05, -8.40480243e-06, -2.18796322e-05,
          -4.39598443e-06, -3.57113663e-06, -3.92836546e-06,
          -1.23271536e-06, -1.52312651e-07, 1.78309656e-05,
          -5.18492288e-06, -1.47302017e-05, -7.99364352e-06,
          -1.44973819e-06, 5.40733424e-07, 7.34331422e-07,
          1.20637696e-06, 9.75365037e-06, -1.28685906e-05,
          9.47403441e-06, 1.85576428e-05, -1.60943655e-05,
          -7.62194759e-06, -3.45360974e-07, -5.15040529e-06,
          4.20266178e-06, -9.98298583e-06, -3.57792169e-06,
          -1.61694352e-05, -2.00415270e-05, -6.02488853e-06,
          2.02690462e-05, -4.85786131e-06, -1.19225006e-05,
          -1.19990618e-05, -2.55224277e-05, 2.20096899e-05,
          -2.83137751e-06, -6.48305968e-06, 6.37913035e-06,
          1.04271830e-05, -1.78440332e-05, 3.67158691e-06,
          3.17269496e-06, 3.91738868e-05, 3.74260417e-05, 2.15231353e-06,
          5.60085164e-06, 4.72781448e-06, 1.47463143e-05,
          -3.64414950e-06, 2.61243931e-05, 7.44813451e-06,
          9.39472375e-06, 1.37899251e-05, 1.13905680e-05, 3.02522335e-06,
          -9.22988238e-06, 2.36261931e-05, 1.64186372e-06,
          1.42954032e-05, -4.32568777e-06, -1.24084727e-05,
          -2.02156734e-05, 1.82528984e-05 ]
      - [ -2.59559874e-06, 8.01669216e-07, -7.39430490e-08,
          -6.97953681e-07, -9.55349037e-07, -1.26162934e-06,
          -3.88228318e-06, -3.72272979e-07, 2.75854660e-07,
          9.75874286e-07, 1.88464696e-07, 1.03937587e-07, 1.06104210e-07,
          1.75900169e-07, 1.26444789e-07, -4.47565810e-07,
          -4.43675935e-06, 1.71172496e-06, 1.49813752e-06,
          9.92122068e-07, 1.62620313e-06, 2.10857297e-06, 1.96341398e-06,
          -5.20021786e-06, -3.40777865e-06, -5.09992390e-07,
          -2.98543114e-07, -7.65597520e-07, 4.16065092e-07,
          1.00916100e-06, 7.51337666e-07, -1.59150077e-05,
          -1.04924186e-06, 1.09381836e-06, 9.48255320e-07,
          1.53163619e-05, -9.89121872e-07, -8.96858637e-06,
          -4.52702989e-06, -4.98470627e-06, 5.17096942e-06,
          1.76030983e-06, 3.33072489e-06, 1.23492373e-05,
          -1.77936852e-06, -4.74813930e-07, -3.15150623e-06,
          -4.32586830e-06, 2.82640485e-06, 2.07443145e-06,
          1.15600888e-05, 3.78508821e-06, -4.46813192e-06,
          -1.25405847e-06, -4.84079874e-06, -3.22162214e-06,
          -4.29738748e-06, 3.83634551e-06, -3.07465982e-08,
          1.52163625e-06, -6.82174459e-06, -8.81629512e-06,
          -5.73643047e-06, -3.52815300e-06 ]
      - [ 5.46050933e-06, -2.27717109e-07, -1.11578777e-06,
          -2.49812456e-06, -3.27528437e-06, -2.18082869e-06,
          -4.53273515e-06, -3.18248408e-06, 1.12515329e-06,
          4.07777151e-07, -2.89042623e-06, -9.07562203e-09,
          -3.45462041e-07, 0., -3.90362004e-07, -2.21827941e-06,
          -5.10335803e-06, -9.42567931e-06, -6.93935718e-08,
          5.56764962e-06, 5.31779096e-06, 1.31381262e-06,
          -1.30524234e-06, 8.75521522e-08, -5.80283483e-07,
          -5.22620576e-06, -7.10879613e-06, -4.26839824e-06,
          -2.30092201e-06, 2.54744441e-06, 1.08477943e-05,
          -1.18299022e-05, 6.01686224e-06, -4.41092925e-06,
          -2.05183896e-05, 2.48601536e-05, 2.64703431e-06,
          -9.22819527e-06, 1.17836770e-07, 6.44209422e-07,
          6.53112784e-06, 2.69629709e-06, 1.21961557e-05, 1.40731599e-05,
          2.67243795e-05, 4.93774360e-06, -3.11462657e-07,
          8.62457625e-07, -8.60841646e-06, 4.94946562e-06,
          -6.43441945e-06, 8.44957867e-06, 1.35471300e-05,
          9.52224309e-06, 1.16220026e-05, -4.79261871e-06,
          -6.65199877e-06, -1.08230824e-05, -1.59650863e-05,
          4.90752836e-06, -1.66617099e-06, -2.02499518e-06,
          -4.49214298e-07, -6.64453319e-06 ]
      - [ 5.45164312e-06, 1.02044714e-05, -1.87905498e-05,
          -2.84447269e-05, -3.00462943e-06, -6.85444661e-07,
          1.27397044e-07, 2.48340052e-06, 1.21474852e-06, 9.57489760e-07,
          -8.42963982e-06, -2.05606666e-05, -2.47232401e-06,
          -9.40621590e-07, -5.26268025e-07, 3.27501220e-06,
          1.36565332e-05, -1.30306689e-05, -1.93759752e-05,
          -1.38152209e-05, -9.20565435e-06, -1.45286435e-06,
          1.24673852e-06, -1.25334327e-05, -1.33849526e-05,
          -3.71551432e-05, -2.68085460e-05, -2.00786599e-05,
          4.37111930e-06, -5.67367033e-06, -2.86349814e-06,
          -1.48409144e-05, 5.81413315e-06, 1.90690571e-05,
          -8.19887100e-06, -1.85663396e-06, -3.94517592e-05,
          4.98886266e-06, 3.43241009e-05, 2.65731378e-05,
          -2.41445287e-05, 4.15447757e-05, -2.65813173e-06,
          -2.84761809e-05, 1.51803363e-06, 1.18558728e-05,
          2.37421573e-05, 1.10638321e-05, 4.11014844e-06,
          -3.36541262e-09, 2.86403174e-05, -4.00006638e-06,
          -8.77846651e-06, -9.34067046e-08, -4.08462938e-06,
          -5.31899923e-06, -1.43317566e-05, -6.02359296e-06,
          -3.15400212e-06, -1.32949635e-05, -2.86250397e-05,
          -1.39829790e-05, -1.43204988e-05, 2.95266204e-06 ]
      - [ 3.13354462e-06, -1.30312719e-05, -3.04026835e-05,
          -1.37426978e-05, -1.74542874e-05, -6.97360474e-06,
          -1.31465083e-06, -3.02887202e-07, -6.96619418e-06,
          -1.31919924e-05, -1.89578225e-06, -7.62375839e-06,
          -5.61642673e-06, -1.91117397e-06, -5.12381604e-08,
          -4.54866904e-06, 1.62992001e-05, 1.85612998e-06,
          1.70727399e-05, 4.33222158e-06, -1.28452257e-05,
          -1.54516838e-05, -2.96273920e-05, -1.87317655e-05,
          1.17007839e-05, 6.22907555e-06, -2.08625770e-05,
          -4.78203629e-06, -1.51202021e-05, -2.79247524e-05,
          -3.21184416e-05, -4.00008721e-05, -1.50142732e-05,
          -2.85171664e-05, -2.34325753e-07, -2.17875040e-05,
          -9.94132097e-06, -6.74958937e-06, 1.24427061e-07,
          1.10020264e-05, -1.19775962e-06, 1.55519592e-05,
          -9.63775437e-06, -2.93115809e-05, 5.85676116e-06,
          2.08267393e-05, 3.41464947e-05, 1.08653130e-05, 4.56186262e-06,
          6.38568144e-06, 4.23845522e-05, 1.05480476e-05, 5.30766283e-06,
          1.08610293e-05, -1.62741367e-06, -2.68348158e-05,
          -6.44755528e-06, -6.13644829e-07, 1.00817642e-05,
          -2.15889795e-05, 2.87517032e-05, 1.42029967e-05,
          4.57041351e-05, -7.38337485e-06 ]
      - [ -3.29317709e-06, -1.47404228e-06, -3.77753054e-07,
          -1.32080299e-06, -1.57015700e-06, -1.66499126e-06,
          -4.43414183e-06, -3.80356028e-07, 2.12122320e-08,
          1.69564203e-08, 5.35159579e-08, 3.07393511e-09, 7.01790004e-09,
          0., 2.13043486e-10, -6.61436218e-07, -7.54524808e-06,
          8.05408362e-08, 3.02230929e-09, 3.56813530e-08, 4.84975011e-08,
          -5.23586969e-08, -2.06498186e-07, -7.89518799e-06,
          -6.53801726e-06, -1.48782158e-06, -9.90308308e-07,
          -1.88756917e-06, -5.64666891e-08, -9.45141096e-07,
          -2.33079800e-06, -2.08449910e-05, -6.21148092e-06,
          3.31888623e-06, 3.57000681e-06, 3.75791569e-06, 1.74441993e-06,
          -6.63445144e-06, -1.91990694e-06, -3.90399009e-06,
          2.54578617e-06, -9.21529534e-07, -1.24285134e-06,
          -3.52863822e-06, -4.09308723e-06, 2.06900648e-08,
          1.52824748e-06, -8.36943582e-06, -2.22359176e-06,
          2.16671606e-06, 6.82357268e-06, 5.00980650e-06, 1.80249731e-06,
          -5.12897316e-07, -9.40392692e-06, -1.99257065e-05,
          -1.45120191e-06, 7.51876314e-07, 1.17227967e-06,
          2.70761552e-06, -3.50227720e-06, -4.53981238e-06,
          -4.06694744e-06, -1.09836701e-05 ]
      - [ -2.16515650e-06, -1.44950609e-05, -4.72559896e-06,
          -4.61089849e-06, -4.08812230e-06, -2.31263039e-06,
          -4.48620858e-06, -3.19210721e-06, -2.62328604e-06,
          -5.11729604e-06, -2.83933355e-06, 3.94144450e-09,
          -2.93268386e-07, -1.78357880e-08, -3.94613693e-07,
          -2.27180180e-06, 2.01149419e-06, 9.79620563e-06,
          1.00280940e-05, 7.93310028e-06, 2.25256554e-06,
          -1.52180121e-06, 4.35710035e-07, -7.05061575e-06,
          -6.85269333e-06, -1.42522481e-06, -1.00287525e-06,
          6.23864889e-06, 3.94648305e-06, 1.28409795e-06,
          -5.84244572e-06, -1.84417695e-05, 9.41398321e-06,
          8.36097058e-07, -3.75039817e-05, 4.99541284e-06,
          -8.59914144e-06, -7.61409456e-06, -1.17177069e-06,
          -1.14416150e-06, 2.00761588e-06, 2.01788976e-06,
          1.22198735e-05, -8.16422744e-06, 2.07681910e-06,
          6.95988774e-06, 3.88684293e-06, 1.03234352e-05,
          -1.13244951e-05, -6.10727739e-06, -9.78759817e-06,
          1.62884080e-05, 2.43332051e-05, 1.34394877e-05, 2.42359965e-06,
          -9.18638852e-06, -8.22084530e-06, -1.70613966e-05,
          -2.10041544e-05, 1.26955347e-05, 1.01864025e-05,
          1.32014320e-05, 8.09935318e-06, -1.37820980e-05 ]
      - [ -3.53404585e-06, -2.44329567e-05, -6.24656695e-06,
          1.34340280e-05, -8.83712164e-06, -4.74782610e-06,
          -1.77922948e-06, -7.19881029e-07, -3.37699908e-06,
          -1.16640203e-05, 2.87216176e-06, 1.13309698e-05,
          5.67351037e-07, 5.10629370e-08, 7.00264479e-07,
          -2.93141488e-06, 2.35362731e-05, 1.07548231e-05,
          2.65366270e-05, 9.63792445e-06, -8.94409277e-06,
          -1.17007994e-05, -1.32347304e-05, 2.24270343e-06,
          1.71456668e-05, 2.13742442e-05, 6.85179157e-06, 4.21350751e-06,
          -1.35844257e-05, -1.17380077e-05, -2.17103498e-05,
          -3.11378676e-06, -3.11259937e-05, -2.91876186e-05,
          1.83126872e-06, -1.82713819e-07, 2.61866462e-05,
          -4.38770940e-06, -1.47637975e-05, -9.23854259e-06,
          -3.98238399e-06, -2.60679135e-05, -1.24985590e-05,
          1.56973674e-05, 1.41593518e-05, 4.11235669e-06, 2.17283196e-06,
          -2.00274053e-06, -2.43284467e-06, -3.18714820e-06,
          1.66321770e-05, 3.09281131e-06, 1.23874233e-05, 7.71138639e-06,
          -2.36999017e-06, -5.37073493e-06, 6.48444825e-07,
          1.40915799e-05, 2.71318368e-06, -9.67221240e-06,
          2.60441520e-05, 1.75634123e-05, 1.89866369e-05, 5.09127449e-06 ]
      - [ -3.13487681e-06, -1.24920609e-06, 3.89730815e-07,
          -1.55421347e-07, -1.34023981e-06, -1.30956801e-06,
          -4.49819072e-06, -4.32447962e-07, 9.79577450e-08,
          1.72123293e-08, 5.62277656e-08, 1.50624885e-07, 1.93408056e-07,
          7.69410491e-08, 3.66724855e-08, -7.20621074e-07,
          6.24024779e-07, 5.21536595e-06, 2.35882089e-06, 1.12994360e-06,
          4.57829117e-07, 5.66790419e-08, 5.38076712e-08,
          -5.05957860e-06, -3.71181773e-06, -7.63633523e-07,
          6.15802207e-07, 1.41895032e-06, 2.51816175e-07,
          -9.71373950e-08, -8.71778695e-07, -1.40279226e-05,
          -4.78668198e-06, 1.49406878e-06, 1.49327434e-06,
          5.16904902e-06, 6.66705091e-06, -8.67734889e-06,
          -7.11127268e-06, -6.56671727e-06, 6.39419750e-06,
          -1.37434097e-06, -6.21382625e-08, 3.27423595e-06,
          7.15403246e-07, -1.92901553e-06, -4.93402786e-06,
          -3.94252993e-06, -1.13979679e-08, 1.29119917e-06,
          7.43864348e-06, 4.15904742e-06, 1.20692857e-06,
          -1.20961192e-06, -9.33758929e-06, -1.47946275e-05,
          -6.52030531e-06, 8.05395484e-06, 3.52789039e-06,
          3.93847540e-06, 5.20888852e-06, -3.14953991e-06,
          -7.22853611e-06, -1.21820367e-05 ]
      - [ -1.72321916e-06, -1.20630802e-05, 1.52503071e-06,
          9.48968136e-06, -1.56138685e-06, -1.47494961e-06,
          -3.68771066e-06, -2.51697884e-06, -3.32575382e-06,
          -3.23610834e-06, 4.50808830e-06, 8.13516453e-06,
          -2.17717101e-07, 3.89535977e-08, -3.08833506e-07,
          -1.92176731e-06, -9.93790877e-07, 1.23761438e-05,
          1.28860538e-05, 9.11862116e-07, -1.14134991e-06,
          -2.10138722e-07, 4.43456372e-07, -7.94106109e-06,
          -8.90423325e-06, 1.39289768e-05, 3.24049415e-06,
          1.64266316e-06, -2.09924315e-06, 2.58153909e-06,
          -2.66000234e-06, -1.35516575e-05, 1.55730288e-06,
          -5.79674406e-06, -1.65242782e-05, 8.96961046e-06,
          1.66697682e-05, -1.57631996e-06, -4.53180337e-06,
          -5.63362028e-06, 1.00680509e-05, -1.23363197e-05,
          5.78083518e-06, 1.95099437e-05, 1.16336914e-05, 4.87444549e-06,
          1.76351216e-06, 4.06415211e-06, -4.61242917e-06,
          3.70809676e-06, -1.27683243e-05, 7.24663550e-06,
          8.27952590e-06, 1.11016334e-05, 9.82971869e-06,
          -3.45757508e-06, -6.22521293e-06, -1.68639162e-05,
          -1.68335391e-05, 8.28126122e-06, 1.38295463e-05,
          7.80189293e-06, -4.78685024e-07, -1.18499438e-05 ]
      - [ -5.53265750e-07, 3.58320608e-06, 1.48613447e-06,
          -4.50729232e-07, 1.10543135e-06, 4.13416586e-07,
          -4.13792122e-06, -2.52792489e-07, 1.64922028e-06,
          1.80683935e-06, 1.02285492e-06, 1.15852083e-06, 1.45423689e-06,
          7.74986404e-08, 1.81196516e-08, 3.80781188e-07,
          -6.83447752e-07, 1.65823394e-06, 2.24571025e-07,
          5.35158676e-07, 2.01151784e-06, 3.13928354e-06, 6.20607079e-06,
          -4.17578531e-06, -2.57021657e-06, 8.50677395e-08,
          -2.67614752e-07, -5.92984634e-07, 1.24885833e-06,
          2.37561289e-06, 6.44012971e-06, -1.23105547e-05,
          -3.77805645e-06, 2.61223681e-06, 4.14793521e-06,
          6.92259391e-06, -1.36652443e-06, -7.29911744e-06,
          -5.57881685e-06, -6.84990346e-06, 6.23414098e-06,
          9.01458122e-07, 5.32086415e-06, -1.42702959e-06,
          -3.80011556e-06, -2.30694081e-06, -5.19691730e-06,
          -5.23400240e-06, -4.00558474e-06, 3.71104261e-06,
          4.75715478e-06, 3.09390430e-06, -7.58875444e-07,
          -1.08104257e-06, -4.15015666e-06, -1.93986416e-05,
          -5.13840178e-06, 1.42169188e-06, -5.40842507e-07,
          3.18156140e-07, -4.55033205e-06, -3.71392593e-06,
          -1.08664271e-05, -1.86968318e-05 ]
      - [ -2.83738291e-06, -4.12489362e-06, 1.85218789e-06,
          2.89998297e-06, -9.33971211e-09, -2.05475612e-06,
          -3.88146600e-06, -3.50899677e-06, -4.64420873e-06,
          2.15485557e-06, -4.66188226e-07, 2.30271689e-06,
          -2.30222241e-07, 2.05692174e-07, -3.73833217e-07,
          -1.75695425e-06, -1.77048951e-05, 4.60406727e-06,
          2.01587477e-06, 4.01084480e-06, 1.04681958e-05, 3.46409456e-06,
          -2.51811116e-07, -7.47671538e-06, -7.74300406e-06,
          5.76300681e-06, 2.48269839e-06, 3.25217002e-06, 6.63209585e-06,
          3.98991187e-06, -9.50115577e-07, -1.66247792e-05,
          1.71720003e-05, 3.71054989e-06, -2.38575431e-05,
          1.66942827e-05, -4.67614382e-06, -6.76560649e-06,
          -4.25672852e-06, -4.28352769e-06, 8.20331024e-06,
          2.03014429e-06, 5.93618051e-06, 1.88109079e-05, 3.73255057e-06,
          3.19749483e-06, -8.96879783e-07, -9.54369170e-07,
          -1.83189295e-05, 1.06946936e-05, -2.22094732e-05,
          6.98292524e-06, 1.01478381e-05, 8.07103788e-06,
          -2.26540010e-06, -2.99615772e-06, 4.59868852e-06,
          -3.52442621e-05, -1.92626485e-05, 6.00762678e-06,
          -5.93948334e-06, 4.83911322e-07, -2.91244851e-06,
          -1.26191953e-05 ]
      - [ 1.30287276e-06, -2.13370959e-06, -1.55918019e-06,
          3.83260499e-07, -2.12736410e-07, -2.30833479e-07,
          7.65720188e-07, -9.13733629e-07, -8.96539973e-07,
          -1.77670245e-07, -1.06107443e-08, 0., -7.68681474e-08, 0.,
          -9.60636015e-08, -2.28002864e-06, -2.34618278e-06,
          -1.79264362e-06, -4.42203458e-07, -3.18144174e-07,
          -8.02893965e-07, -1.22182485e-07, -3.53944938e-06,
          -2.62642038e-06, -2.81260918e-06, -3.39943568e-07,
          -1.59260799e-06, -8.79417072e-08, -8.74696809e-07,
          1.08011614e-06, 1.96648875e-06, 5.79832476e-06, 6.86814974e-06,
          -1.00538764e-05, -2.37736435e-06, -2.66193911e-06,
          -1.19668512e-05, 6.47324669e-06, -1.79262554e-06,
          8.06418575e-06, -2.41032126e-06, 5.03292540e-07,
          5.96688423e-08, 2.94193887e-06, 7.55768542e-06, 3.54407143e-06,
          3.44256023e-06, 6.37772837e-06, -2.74730473e-06,
          5.78937374e-07, -5.13341547e-06, 2.29977104e-06,
          9.41847611e-06, 9.45606462e-06, 1.24712615e-05, 5.32675085e-06,
          3.89338084e-06, -1.97877453e-05, -1.80520874e-06,
          2.02857723e-06, 9.99003169e-06, 1.57261784e-05, 4.65928588e-06,
          -1.41474020e-05 ]
   uncompressed_sv_total: 83
   uncompressed_support_vectors:
      - [ 0., 0., 0., 0., 0., 0., 0., 0., 0., 0., 0., 0., 0., 0., 0., 0.,
          4.07743530e+03, 6.67969849e+02, 3.52365674e+03, 1.32697754e+04,
          964., 0., 0., 0., 0., 2.61635315e+02, 5.02202637e+03,
          5.85993604e+03, 2.51319312e+03, 5.05605518e+03, 1.01599518e+03,
          1.05655798e+03, 1.71353438e+04, 5.44036230e+03, 6.84869873e+03,
          5.80324414e+03, 8.25828320e+03, 1.16027764e+04, 7.92677734e+03,
          7.37397314e+03, 1.21502373e+04, 3.27070752e+03, 1.41339246e+03,
          2.04003540e+03, 6.78357520e+03, 2.01002783e+03, 4.30654346e+03,
          7.50922363e+03, 6.64811641e+04, 1.74669551e+04, 7.76065479e+03,
          4.69403467e+03, 1.33778828e+04, 1.32541992e+04, 1.72336719e+04,
          3.41831289e+04, 5.88727266e+04, 2.64623008e+04, 1.13665957e+04,
          7.98741504e+03, 7.09033838e+03, 9.89901172e+03, 1.89317988e+04,
          2.81564434e+04 ]
      - [ 1.10136276e+02, 4.52548332e+01, 0., 0., 0., 0., 0., 0., 0., 0.,
          0., 0., 0., 0., 0., 1.14560028e+02, 1.30784021e+03,
          3.25046338e+03, 3.52647217e+03, 1.09475381e+04, 70., 0., 0.,
          0., 1.64365186e+03, 2.63876709e+03, 2.60086987e+03,
          3.61185327e+03, 2.90496558e+03, 3.18256421e+03, 2.47472461e+03,
          2.68299731e+03, 1.27805225e+04, 5.01582275e+03, 5.15542822e+03,
          2.82136523e+03, 6.84098096e+03, 5.18851318e+03, 7.55929785e+03,
          1.17000244e+04, 1.14378486e+04, 2.17197754e+02, 0.,
          8.18351990e+02, 3.65113550e+03, 3.47177002e+03, 6.02043799e+03,
          1.09519355e+04, 4.57959141e+04, 1.39209834e+04, 9.33654980e+03,
          1.25180869e+04, 1.82953613e+04, 1.18726387e+04, 1.63013623e+04,
          4.07800898e+04, 4.24474961e+04, 1.88519941e+04, 7.05601074e+03,
          1.51022617e+04, 1.48761270e+04, 1.18428555e+04, 9.62954395e+03,
          4.12542188e+04 ]
      - [ 4.20450195e+03, 5.05526270e+03, 8.73786865e+02, 1.39930908e+03,
          0., 0., 0., 0., 0., 0., 0., 0., 0., 0., 0., 0., 1.50047188e+04,
          5.16059863e+03, 5.64208545e+03, 5.13573535e+03, 1.54223950e+03,
          9.06744751e+02, 1.30839978e+03, 6.27332910e+03, 1.66585898e+04,
          1.78321753e+03, 2.73849658e+03, 1.56424390e+03, 478.,
          5.33582373e+03, 8.29439160e+03, 5.76951270e+03, 1.43573965e+04,
          7.94859229e+03, 2.56722974e+03, 4.30526855e+03, 1.11802705e+04,
          3.93285815e+03, 2.75850879e+03, 1.31817764e+04, 1.32966289e+04,
          2.98399048e+02, 0., 0., 1.12995459e+03, 2.50034741e+03,
          2.21642456e+03, 7.90410352e+03, 2.96125547e+04, 1.52650371e+04,
          4.22348486e+03, 9.03996191e+03, 5.07459473e+03, 1.32724502e+04,
          9.51415918e+03, 1.86131523e+04, 4.15447969e+04, 2.67247188e+04,
          7.58710596e+03, 7.76111182e+03, 1.53112393e+04, 1.37558398e+04,
          1.05296650e+04, 2.73511484e+04 ]
      - [ 0., 1.20921797e+04, 2.19491675e+03, 0., 0., 0., 0., 0., 0., 0.,
          0., 0., 0., 0., 0., 0., 2.15410498e+03, 1.57374316e+04,
          4.35901758e+03, 1.90075537e+03, 4.09776074e+03, 2.15892676e+03,
          2.18885986e+03, 4.26279266e+02, 7.49481982e+03, 7.68082617e+03,
          1.56674336e+04, 2.00544592e+03, 3.58748633e+03, 1.05578308e+03,
          5.42054810e+02, 6.83520279e+01, 1.35177185e+03, 9.49313232e+02,
          6.21440381e+03, 5.49462793e+03, 364., 2.15791138e+03,
          6.46408325e+02, 2.77617725e+03, 2.92744067e+03, 5.50161963e+03,
          1.18504766e+04, 0., 0., 0., 3.48285797e+02, 4.24499702e+01,
          1.12535840e+04, 9.89335449e+03, 3.42343242e+04, 3.77062773e+04,
          2.02961113e+04, 6.35491992e+03, 5.37481201e+03, 3.07448096e+03,
          6.75522119e+03, 2.39862500e+04, 3.49056328e+04, 3.76803398e+04,
          1.98258164e+04, 6.88818750e+03, 3.66378540e+03, 4.89600684e+03 ]
      - [ 1.93746716e+03, 4.69492676e+03, 8.16805811e+03, 8.69239868e+02,
          0., 0., 5.23259010e+01, 1.82409106e+03, 4.71085968e+02,
          2.12958789e+03, 1.21873853e+03, 1.56177527e+03, 0., 0.,
          2.82842708e+00, 5.09901953e+00, 2.41099629e+04, 3.74738623e+03,
          2.53481567e+03, 6.26389587e+02, 2.50722412e+03, 1.81466248e+02,
          6.23850391e+03, 3.28446826e+03, 1.78487129e+04, 6.01456641e+03,
          1.79953796e+03, 1.65566919e+03, 5.12305225e+03, 0.,
          4.41564087e+02, 5.29003613e+03, 1.66567754e+04, 2.39492139e+03,
          6.94262161e+01, 5.22477051e+03, 4.32185498e+03, 3.06965405e+03,
          3.66412866e+03, 2.98167578e+03, 1.80700371e+04, 8.38423047e+03,
          1.00319489e+02, 3.58290503e+03, 1.66043994e+03, 5.09124725e+02,
          1.16331116e+03, 7.61444531e+03, 8.04445166e+03, 1.28973867e+04,
          2.68169434e+04, 3.29007148e+04, 1.36190449e+04, 6.92779541e+03,
          5.56593604e+03, 1.10762773e+04, 1.17326484e+04, 1.87098730e+04,
          2.77613438e+04, 2.50908184e+04, 1.71984004e+04, 1.35524541e+04,
          5.59668701e+03, 5.91040234e+03 ]
      - [ 0., 2.21924048e+03, 1.77271992e+04, 0., 134., 0., 0., 0., 0.,
          2.69761963e+03, 0., 0., 0., 0., 0., 0., 3.28065991e+03,
          5.69529053e+03, 8.88976074e+03, 5.20243701e+03, 7992.,
          1.51558563e+02, 8.33846497e+02, 1.99275598e+03, 3.96626221e+03,
          5.35351514e+03, 1.83003086e+04, 1.57373877e+03, 1.04209434e+04,
          2.29998218e+03, 6.57050049e+02, 4.97965851e+02, 2.87059741e+03,
          4.35617041e+03, 7.63642041e+03, 6.73720264e+03, 1.49220129e+03,
          0., 8.79567139e+02, 4.44238818e+03, 3.58388110e+03,
          6.11117529e+03, 1.55408730e+04, 4.95516455e+03, 1.95456885e+03,
          1.11981580e+03, 1.04820264e+03, 0., 5.97110400e+03,
          4.80754346e+03, 3.50995703e+04, 2.91656777e+04, 1.02817402e+04,
          3.87607153e+03, 5.96976221e+03, 3.77834521e+03, 7.01311279e+03,
          1.91151328e+04, 3.04181191e+04, 3.05203965e+04, 8.86178418e+03,
          2.09180151e+03, 5.53388281e+03, 3.83215186e+03 ]
      - [ 2.64801819e+02, 1.49575720e+03, 1.89525726e+02, 0., 0., 0., 0.,
          0., 0., 0., 0., 0., 0., 0., 0., 0., 6.43028955e+03,
          9.78218262e+03, 6.65894531e+03, 0., 0., 0., 0., 1.14017544e+01,
          0., 4.31335144e+02, 4.46874268e+03, 3.36790210e+03,
          5.31555664e+02, 2.41333643e+03, 3.85314844e+03, 5.10688672e+03,
          5.55764111e+03, 1.00707227e+04, 1.12214121e+04, 1.20357734e+04,
          1.16231006e+04, 7.89235938e+03, 2.37141138e+03, 2.37058813e+03,
          8.30909375e+03, 1.05371133e+04, 5.95031641e+03, 1.26825654e+04,
          9.18453418e+03, 2.92849512e+03, 2.73588452e+03, 4.38164453e+03,
          2.56466719e+04, 1.17103271e+04, 4.78823486e+03, 9.67698633e+03,
          3.38785781e+04, 2.43666465e+04, 2.16471914e+04, 8.50578613e+03,
          3.05900801e+04, 2.26118008e+04, 9.24977930e+03, 1.48633545e+04,
          1.65993359e+04, 3.19578301e+04, 2.37890605e+04, 1.48527568e+04 ]
      - [ 6.26318555e+03, 2.07998950e+03, 1.73883362e+02, 1.73915833e+03,
          1.65571887e+03, 5.71086621e+03, 1.32453455e+03, 2.16304639e+03,
          5.22427002e+02, 0., 1.02904663e+03, 7.53675232e+02,
          1.39114185e+03, 7.13122681e+02, 3.76266675e+03, 1.60544641e+03,
          8., 0., 0., 5.30094337e+01, 0., 1.69026627e+02, 4.33065186e+03,
          1.01196631e+03, 0., 0., 0., 0., 0., 0., 1.79576660e+04, 0.,
          9.15000293e+03, 1.06702075e+03, 1.95854382e+03, 1.78889893e+03,
          3.79980176e+03, 2.25227520e+04, 1.48348203e+04, 9.88706543e+03,
          1.03519795e+04, 2.11898389e+03, 2.04592749e+03, 5.03800439e+03,
          2.69476147e+03, 1.02019697e+04, 1.00429434e+04, 1.61195957e+04,
          8.59957520e+03, 9.80901953e+03, 1.04452578e+04, 7.29594727e+03,
          2.40995449e+04, 3.02489648e+04, 3.92581328e+04, 2.98577031e+04,
          1.07128174e+04, 7.18905859e+03, 8.85982324e+03, 1.33580830e+04,
          2.47973145e+04, 2.84058066e+04, 4.67744844e+04, 1.68119375e+04 ]
      - [ 3.39007446e+03, 3.34910669e+03, 4.00858838e+03, 2.00930957e+03,
          0., 0., 0., 0., 6.20691528e+02, 1.18043201e+03, 7.02876953e+02,
          1.40577377e+02, 0., 0., 0., 0., 7.02597070e+03, 5.65685415e+00,
          2.16837219e+02, 9.67677612e+01, 3.16227760e+01, 0.,
          3.20838232e+03, 3.02460889e+03, 3.25938525e+03, 0., 0.,
          6.52533493e+01, 0., 1.84114090e+02, 4.62965088e+03,
          2.31532305e+04, 2.07750625e+04, 4.23609961e+03, 1.90910767e+03,
          3.71744702e+03, 8425., 1.70251309e+04, 3.40224390e+03,
          7.16993945e+03, 1.17185488e+04, 8.66609180e+03, 1.99693994e+03,
          2.16843213e+03, 3.13290503e+03, 5.44320947e+03, 4.02565479e+03,
          2.08464209e+03, 3.00014824e+04, 3.12327905e+03, 5.55311084e+03,
          1.11157686e+04, 3.03647578e+04, 2.55074492e+04, 1.47132236e+04,
          3.05279629e+04, 3.30598164e+04, 1.08838994e+04, 1.14652646e+04,
          1.34080166e+04, 1.58967383e+04, 2.38133867e+04, 1.73357227e+04,
          2.22374961e+04 ]
      - [ 9.78157813e+03, 4.22161963e+03, 1.49568591e+03, 0.,
          1.02994177e+03, 0., 0., 0., 112., 0., 0., 0., 0., 0.,
          1.27724220e+02, 4.97429346e+03, 2.69022188e+04, 8.62392273e+02,
          7.96115570e+01, 9.21954422e+01, 3.35677222e+03, 2.56550201e+02,
          1.55736243e+03, 8.41189636e+02, 6.59539111e+03, 2.12427173e+03,
          1.98121057e+03, 1.78326794e+03, 1.90182373e+03, 1.68365320e+03,
          2.34778296e+03, 6.41755566e+03, 8.70235156e+03, 2.04751309e+04,
          5.70563232e+03, 9.98657324e+03, 6.82787744e+03, 9.60518945e+03,
          9.48211133e+03, 1.22236465e+04, 1.54409463e+04, 1.15257324e+04,
          7.81821240e+03, 3.28210815e+03, 5.68341895e+03, 7.97075781e+03,
          1.10096521e+03, 1.54002853e+02, 3.53253008e+04, 1.19008789e+04,
          6.34281592e+03, 7.57763916e+03, 1.97497148e+04, 2.58831992e+04,
          2.52900820e+04, 2.08681426e+04, 2.87100234e+04, 1.72849063e+04,
          7.75918359e+03, 1.26951797e+04, 2.34939336e+04, 2.15375840e+04,
          1.58027852e+04, 1.91999824e+04 ]
      - [ 1.58987964e+03, 4.30627393e+03, 2.89147656e+03, 2.59948730e+03,
          5.49726367e+03, 4.54041211e+03, 1.86895288e+03, 0.,
          7.32431763e+02, 8.53427185e+02, 2.22369800e+03, 1.09696973e+03,
          1.61572681e+03, 1.15788550e+03, 4.62615771e+03, 1.06280786e+03,
          3.04954053e+03, 2.39071487e+02, 0., 0., 0., 0., 7.03846588e+01,
          2.34238068e+02, 1.30291977e+02, 0., 0., 7.75241928e+01,
          7.24560364e+02, 1.55253271e+03, 7.55009229e+03, 1.15017451e+04,
          5.94478076e+03, 2.28421387e+03, 2.05429272e+03, 2.44556812e+03,
          6.88651172e+03, 8.61104980e+03, 1.46218125e+04, 1.49001123e+04,
          1.22857852e+04, 2.76357422e+03, 2.18159497e+03, 1.76236523e+03,
          4.98969824e+03, 1.13258750e+04, 1.54128320e+04, 1.28933389e+04,
          4.71097217e+03, 3.27434961e+03, 8.16169824e+03, 1.00893564e+04,
          2.46453945e+04, 2.69032891e+04, 2.53238809e+04, 3.19001934e+04,
          1.19700947e+04, 9.49589160e+03, 6.95013525e+03, 1.43129404e+04,
          1.53252549e+04, 4.01420664e+04, 2.22749863e+04, 2.76660156e+04 ]
      - [ 3.84941797e+03, 4.95211768e+03, 1.19125220e+03, 1.93904810e+03,
          7.90974060e+02, 3.64712744e+03, 2.48815576e+03, 4.61690430e+03,
          1.12677539e+03, 6.79143555e+02, 0., 7.15112244e+02,
          7.96816162e+02, 1.66117664e+03, 9.32147278e+02, 7.55120654e+03,
          1.28293086e+04, 1.92174362e+02, 6.18035583e+02, 4.52635132e+02,
          9.57197449e+02, 1.06929541e+03, 1.86214935e+02, 1.12394443e+04,
          7.04989209e+03, 2.35560083e+03, 1.02013147e+03, 3.92326385e+02,
          8.13435913e+02, 2.06867111e+02, 3.85385571e+03, 2.44978887e+04,
          1.81368301e+04, 4.18382813e+03, 2.76635352e+03, 3.70532104e+03,
          1.00161914e+04, 1.48652100e+04, 8.19491309e+03, 8.19919922e+03,
          5.81747412e+03, 1.42417637e+04, 7.46742432e+03, 3.37580249e+03,
          6.22978125e+03, 1.15136543e+04, 3.67677441e+03, 4.22150391e+03,
          1.64552871e+04, 1.62712561e+03, 6.55341406e+03, 5.64055615e+03,
          1.24338965e+04, 2.51235078e+04, 2.06676641e+04, 3.42080859e+04,
          2.29038848e+04, 9.58069336e+03, 4.42983838e+03, 1.05465205e+04,
          1.00538936e+04, 2.75997480e+04, 2.18346387e+04, 2.42409238e+04 ]
      - [ 0., 0., 0., 0., 0., 0., 0., 0., 0., 0., 0., 0., 0., 0., 0., 0.,
          1.24809631e+03, 4.05149829e+03, 8.09952734e+03, 1.66906470e+03,
          3.62010742e+03, 6.18379639e+02, 1.03002344e+03, 6.81703735e+02,
          3.70807080e+03, 1.49445479e+04, 3.81019067e+03, 0., 2040., 0.,
          4.65814117e+02, 5.01114551e+03, 3.15279053e+03, 3.10356885e+03,
          1.20478867e+04, 7.64019092e+03, 0., 1.83876855e+03,
          4.26927637e+03, 9.73573608e+02, 2.97819653e+03, 3.49402661e+03,
          1.07731172e+04, 7.21145215e+03, 0., 0., 6.52993088e+01,
          3.99575586e+03, 1.32879375e+04, 2.76315352e+04, 2.02332285e+04,
          1.56824814e+04, 1.11792988e+04, 1.40762549e+04, 1.49540723e+04,
          2.05986387e+04, 1.98152012e+04, 1.74174395e+04, 2.30907637e+04,
          1.50562705e+04, 1.58241953e+04, 1.06054141e+04, 1.48672646e+04,
          1.36287627e+04 ]
      - [ 0., 0., 0., 0., 0., 0., 0., 0., 0., 0., 0., 0., 0., 0., 0., 0.,
          9.58704492e+03, 7.73800928e+03, 3.40698193e+03, 2.65520581e+03,
          3.44805200e+03, 1.60137390e+03, 1.25277759e+03, 2.71825586e+03,
          8.78807715e+03, 1.35063037e+04, 2.30484961e+03, 2.00997505e+01,
          2040., 7.04131714e+02, 4.64702002e+03, 7.30270947e+03,
          4.62919531e+03, 6.79229443e+03, 1.05555625e+04, 1.70837866e+03,
          7.59743408e+02, 9.09343689e+02, 3.72752344e+03, 3.46382251e+03,
          2.15371704e+03, 3.61505298e+03, 7.49193604e+03, 7.03460742e+03,
          2.77759961e+03, 1.40636917e+02, 3.01582489e+02, 1.71851917e+03,
          1.94274609e+04, 2.37749004e+04, 2.19731543e+04, 7.40634375e+03,
          9.51465137e+03, 9.73655859e+03, 2.19196367e+04, 1.71490742e+04,
          3.01861328e+04, 3.34541133e+04, 5.19016260e+03, 7.69556201e+03,
          8.67690820e+03, 8.87751367e+03, 1.39092129e+04, 1.54400752e+04 ]
      - [ 9.16711719e+03, 5.30845752e+03, 6.95557373e+02, 1.61107996e+03,
          2.20494904e+02, 7.45140564e+02, 1.19853857e+03, 3.35302344e+03,
          1.56498950e+03, 0., 0., 0., 0., 0., 0., 0., 1.69768262e+04,
          8.02550635e+03, 1.30299652e+02, 0., 1998., 0., 0.,
          1.13730444e+03, 1.90165762e+04, 8.49078027e+03, 1.47264465e+03,
          7.71697632e+02, 5.51749756e+02, 6.90792297e+02, 1.18813135e+03,
          1.44955850e+04, 8.72226758e+03, 2.42991846e+03, 6.74507031e+03,
          1.00621748e+04, 1.59338828e+04, 6.98765039e+03, 5.81602490e+03,
          5.24279443e+03, 5.77629004e+03, 7.73477600e+02, 8.82866309e+03,
          1.63341260e+04, 4.09833936e+03, 4.12777148e+03, 3.00504053e+03,
          2.82888306e+03, 1.30217197e+04, 2.67299980e+04, 1.37638623e+04,
          1.03569297e+04, 1.19403477e+04, 1.19554248e+04, 1.35027021e+04,
          2.69212637e+04, 4.03976602e+04, 1.91594023e+04, 1.23714561e+04,
          1.24752295e+04, 1.50508379e+04, 1.64040254e+04, 1.57909570e+04,
          1.80366680e+04 ]
      - [ 0., 1.72534058e+02, 3.99607007e+03, 1.97814978e+03,
          1.41873267e+03, 8.54743652e+02, 1.03883459e+03, 1.20131909e+03,
          38., 0., 0., 0., 0., 0., 0., 0., 2.63257983e+03,
          2.80018774e+03, 3.66652435e+02, 6.19838676e+01, 4.12697656e+03,
          5.43997363e+03, 7.43334229e+03, 1.79971875e+03, 3.11817773e+03,
          8.15155322e+03, 2.64197705e+03, 1.66588953e+03, 7.50018213e+03,
          8.70800781e+03, 6.22418404e+01, 0., 6.11470898e+03,
          2.19526685e+03, 3.92971436e+03, 8.64998047e+03, 1.52816318e+04,
          2.63832202e+03, 4.10406982e+03, 2.45762817e+03, 3.26530005e+03,
          2.06545020e+03, 5.35435791e+03, 8.48246680e+03, 1.01900762e+04,
          3.91620483e+03, 3.12842944e+03, 2.03900525e+03, 1.92727207e+04,
          3.00465352e+04, 3.54320703e+04, 6.46416992e+03, 1.72490938e+04,
          5.55472607e+03, 1.02224727e+04, 1.13492461e+04, 2.91462715e+04,
          2.22640313e+04, 2.67834004e+04, 9.80918359e+03, 1.17555898e+04,
          6.70681592e+03, 5.03865479e+03, 1.07484502e+04 ]
      - [ 1.37498662e+04, 4.60095264e+03, 5.12337769e+02, 8.92121094e+02,
          0., 8.69166260e+02, 1.47997717e+03, 7.29084570e+03,
          5.48154736e+03, 0., 0., 0., 0., 0., 0., 0., 1.60836064e+04,
          7.59457178e+03, 4.75484131e+02, 0., 3.08356958e+03,
          3.59469055e+02, 6.89965881e+02, 6.93835059e+03, 2.06173730e+04,
          8.60900195e+03, 2.50689990e+03, 2.58583325e+03, 3.12047852e+03,
          2.17653809e+03, 1.74330737e+03, 9.59235547e+03, 5.75188770e+03,
          3.71188477e+03, 2.66316553e+03, 1.37075605e+04, 2.07761621e+04,
          1.22624121e+04, 3.62315894e+03, 3.88871509e+03, 2.70701611e+03,
          2.01065625e+03, 6.06110107e+03, 1.45804121e+04, 9.43931152e+03,
          2.77838086e+03, 3.38948511e+03, 2.81214697e+03, 2.70076035e+04,
          2.75509355e+04, 1.44149707e+04, 6.38939307e+03, 5.80695264e+03,
          9.81350684e+03, 1.00525801e+04, 1.21990918e+04, 3.59344883e+04,
          3.36520469e+04, 1.75670352e+04, 7.43754053e+03, 1.18969707e+04,
          6.20060840e+03, 8.34086035e+03, 2.00815703e+04 ]
      - [ 8.79590430e+03, 4.38854541e+03, 1.19381995e+03, 1.30879260e+03,
          4.59210205e+02, 1.20267432e+03, 1.39348865e+03, 2.35736694e+03,
          1.58288403e+03, 0., 0., 0., 0., 0., 0., 0., 1.49562480e+04,
          7.34553223e+03, 1.27475487e+02, 0., 2020., 1.98494339e+01, 0.,
          5.93841736e+02, 1.95270703e+04, 8.58491016e+03, 1.81910876e+03,
          7.21197571e+02, 9.33238220e+02, 1.02068604e+02, 2.33819238e+03,
          1.29074189e+04, 7.98729053e+03, 2.80567480e+03, 6.90290283e+03,
          1.32023535e+04, 1.60312207e+04, 8.57198242e+03, 5.19928271e+03,
          4.57260547e+03, 4.10272656e+03, 1.93671936e+03, 8.01703174e+03,
          1.52955283e+04, 4.27452246e+03, 4.36180078e+03, 2.10273828e+03,
          1.88229639e+03, 1.16536240e+04, 2.31879141e+04, 1.51233467e+04,
          1.11487461e+04, 1.17329736e+04, 1.22464844e+04, 1.47674238e+04,
          2.00526914e+04, 3.90846953e+04, 1.65724258e+04, 1.49866445e+04,
          1.26724678e+04, 1.75171016e+04, 1.55685479e+04, 2.04498105e+04,
          1.38076387e+04 ]
      - [ 0., 0., 0., 0., 0., 0., 0., 0., 0., 0., 0., 0., 0., 0., 0., 0.,
          7.18202832e+03, 3.19612274e+02, 0., 3.42242615e+02,
          3.28274261e+02, 1.44201248e+02, 1.97989902e+01, 0., 418., 0.,
          0., 0., 0., 0., 8.48528099e+00, 2.16175171e+03, 6.43354492e+03,
          5.93799658e+03, 7.42975098e+03, 3.18191724e+03, 5.37946973e+03,
          5.71117285e+03, 9.67247852e+03, 2.13963794e+03, 4.82384912e+03,
          4.22215088e+03, 4.47720117e+03, 7.12501758e+03, 2.37072583e+03,
          4.76395898e+03, 2.89392041e+03, 4.49161523e+03, 5.34442461e+04,
          1.58911934e+04, 7.25913623e+03, 5.09737305e+03, 1.91710156e+04,
          1.18350020e+04, 2.64532480e+04, 4.86541602e+04, 4.82018828e+04,
          1.50167178e+04, 7.01340039e+03, 6.43972314e+03, 1.21924531e+04,
          6.08002100e+03, 2.39581992e+04, 4.45110859e+04 ]
      - [ 0., 2.51502026e+03, 1.92151624e+03, 1.64533447e+03, 0., 0., 0.,
          0., 0., 0., 0., 0., 0., 0., 0., 0., 2.34434043e+04,
          5.47511572e+03, 3.64095215e+03, 0., 1.61245155e+01,
          5.38144951e+01, 4.71054102e+03, 4.52860742e+03, 1.73323555e+04,
          2.92631323e+03, 0., 8.22776733e+02, 5.59022339e+02, 0.,
          2.31920776e+02, 5.98046045e+03, 4.14706543e+03, 5.01011572e+03,
          6.82002246e+03, 6.17439844e+03, 1.08043965e+04, 9.99678613e+03,
          4.59447656e+03, 2.67619312e+03, 4.47455127e+03, 7.45259570e+03,
          3.69002563e+03, 5.50497119e+03, 7.33442566e+02, 2.84130542e+03,
          8.25997754e+03, 2.45673730e+03, 1.38038779e+04, 2.47329199e+04,
          9.87465723e+03, 1.12835664e+04, 1.87709395e+04, 2.24071816e+04,
          2.62515313e+04, 1.98925117e+04, 1.59859941e+04, 2.35515098e+04,
          1.66424766e+04, 1.92009551e+04, 1.81277500e+04, 1.79463262e+04,
          3.88678242e+04, 2.30282168e+04 ]
      - [ 1904., 1.10345848e+02, 5.64850977e+03, 0., 0., 0., 0., 0.,
          122., 0., 0., 1.85252759e+03, 5.54050488e+03, 1.58123010e+03,
          6.28627869e+02, 0., 8.18148340e+03, 8.36592676e+03,
          8.89341016e+03, 7.85875320e+01, 2.68727783e+03, 1.28926501e+03,
          0., 1.00579474e+03, 4.17333740e+03, 1.20934922e+04,
          5.49031348e+03, 2.59334644e+03, 4.46482275e+03, 1.16287170e+03,
          3.46756372e+03, 2.42815991e+03, 6.78451025e+03, 6.73184033e+03,
          6.48850830e+03, 1.35211680e+04, 5.85272314e+03, 4.42363330e+03,
          2.92949365e+03, 2.45218994e+03, 8.49302441e+03, 4.77212354e+03,
          1.28720117e+04, 1.64440996e+04, 2.82275806e+03, 1.53952295e+03,
          3.16619336e+03, 3.50261206e+03, 1.75768965e+04, 3.47116563e+04,
          4.34904414e+04, 1.59484512e+04, 6.54393164e+03, 7.88951172e+03,
          1.11630645e+04, 9.30865723e+03, 2.99344590e+04, 4.71371523e+04,
          2.94820449e+04, 1.66347402e+04, 1.00342256e+04, 5.89652637e+03,
          4.41309619e+03, 1.38574199e+04 ]
      - [ 3.71793335e+02, 1.88047681e+03, 1.95292456e+03, 2.07866333e+03,
          2.04945386e+03, 0., 0., 0., 0., 0., 0., 0., 0., 0., 0., 0.,
          2.96799277e+04, 1.02305310e+03, 4.38634262e+01, 0., 0., 0.,
          2.26274166e+01, 3.88930908e+03, 1.48452979e+04, 1.52965222e+03,
          6.85989014e+02, 0., 0., 0., 2.86276520e+02, 6.38195264e+03,
          3.72200879e+03, 3.73802075e+03, 4.14142529e+03, 1.51738789e+04,
          3.39616719e+04, 1.38455498e+04, 2.08525073e+03, 3.78011157e+03,
          3.03185376e+03, 1.87899670e+03, 3.51136768e+03, 1.68499902e+04,
          1.80792363e+04, 6.86964551e+03, 3.95871777e+03, 4.27403955e+03,
          1.25653975e+04, 1.92955801e+04, 2.89177559e+04, 1.27147295e+04,
          9.47198145e+03, 9.73893750e+03, 1.39828613e+04, 3.27791797e+04,
          2.24055352e+04, 9.91410059e+03, 1.24063154e+04, 2.30951777e+04,
          2.23434336e+04, 1.86147129e+04, 2.27893828e+04, 9.75259570e+03 ]
      - [ 9.55846094e+03, 7.31541699e+03, 1.17153296e+03, 0.,
          1.43662720e+03, 9.85154175e+02, 1.87074585e+03, 2.18480566e+03,
          2.20402271e+03, 1.86797119e+03, 1.53003265e+02, 8.68643250e+02,
          1.00895988e+02, 7.08089722e+02, 0., 1.38072949e+03,
          1.90039961e+04, 4.30827002e+03, 0., 3.65299866e+02, 1890.,
          3.19530914e+02, 0., 1.28037415e+03, 1.97918555e+04,
          7.43362402e+03, 2.53148178e+02, 2.20021387e+03, 2.00182373e+03,
          9.60467773e+02, 3.04437524e+03, 9.82500977e+03, 7.53771094e+03,
          4.44629541e+03, 8.07087256e+03, 7.35232031e+03, 1.78486191e+04,
          9.71096777e+03, 1.17062295e+04, 7.99941943e+03, 7.14938721e+03,
          2.87236890e+03, 7.93217285e+03, 1.57958818e+04, 1.51836563e+04,
          4.24912988e+03, 3.28443042e+03, 1.11186406e+04, 3.28562813e+04,
          3.83486523e+04, 2.76095039e+04, 7.01144873e+03, 5.63708496e+03,
          6.85482715e+03, 1.11027246e+04, 2.50842617e+04, 4.04400234e+04,
          4.98314805e+04, 1.46256367e+04, 1.13906064e+04, 1.63673132e+03,
          6.65682227e+03, 9.52102246e+03, 1.90603438e+04 ]
      - [ 556., 1.82449258e+04, 4.72840723e+03, 0., 0., 0., 0., 0., 0.,
          4.93487793e+03, 2.40187598e+03, 0., 0., 0., 0., 1.49264862e+02,
          1.59050732e+04, 5.27260352e+03, 2.78172607e+02, 0., 1884.,
          8.87693634e+01, 5.23812622e+02, 8.00343872e+02, 1.70282349e+03,
          1.30066074e+04, 3.39178955e+03, 3.35313812e+02, 2.20660205e+03,
          1.10535065e+02, 5.49254395e+02, 1.79890488e+04, 312.,
          1.33839893e+03, 2.52115527e+04, 3.59081079e+03, 3.25449805e+03,
          3.00715649e+03, 2.33179639e+03, 6.87905859e+03, 7.55452734e+03,
          1.37910078e+04, 3.54411670e+03, 1.50421094e+03, 7.55331909e+02,
          3.62833862e+02, 7.03259888e+02, 4.61885254e+02, 2.23742754e+04,
          7.09967109e+04, 1.98916230e+04, 3.02559937e+03, 2.64343579e+03,
          6.24200684e+03, 9.22051367e+03, 1.43132549e+04, 2.91563691e+04,
          6.29908359e+04, 3.39916602e+04, 4.74130127e+03, 1.96702844e+03,
          1.28725305e+03, 1.28693436e+02, 2.91212451e+03 ]
      - [ 1.09991614e+03, 6.17262158e+03, 1.33382207e+04, 1.10716248e+03,
          686., 0., 0., 0., 0., 3.67163403e+03, 3.36960010e+03,
          1.34350684e+03, 7.30349731e+02, 0., 9.57141235e+02, 0.,
          7.17633301e+03, 9.50209863e+03, 1.79661206e+03, 1.42632373e+03,
          3642., 1.43034204e+03, 1.51833508e+03, 2.22360886e+02,
          2.89570044e+03, 2.59953027e+04, 3.23471729e+03, 0., 2550.,
          1.89335678e+02, 1.41421354e+00, 1.19570557e+03, 1.64558613e+04,
          1.01819365e+04, 3.62008081e+03, 7.55361963e+03, 5.80702637e+03,
          4.40752393e+03, 5.75011279e+03, 1.51456367e+04, 9.84214844e+03,
          1.40502070e+04, 2.92199365e+03, 9.82344131e+01, 0., 0.,
          8.55580688e+02, 6.62799658e+03, 3.49917383e+04, 4.19385313e+04,
          1.72950762e+04, 1.13261543e+04, 8.26238574e+03, 3.79161377e+03,
          1.16081260e+04, 2.67736504e+04, 3.78759883e+04, 4.88159102e+04,
          2.00925488e+04, 1.24782402e+04, 9.37521191e+03, 8.53475000e+03,
          1.04065635e+04, 3.15010078e+04 ]
      - [ 1.46931091e+03, 3.11703857e+03, 1.30021399e+03, 1.55731958e+03,
          3.91675873e+02, 2.85186816e+03, 3.69023364e+03, 0., 0., 0., 0.,
          0., 0., 0., 0., 2.60768089e+01, 2.79014141e+04, 7.01369568e+02,
          0., 0., 294., 0., 1.04355591e+03, 1.05692559e+04,
          1.72512012e+04, 3.83184033e+03, 8.33819153e+02, 6.63123718e+02,
          9.31929199e+02, 1.19119800e+03, 3.45893164e+03, 1.12798242e+04,
          5.59483301e+03, 3.25734326e+03, 1.16862129e+04, 4.43090771e+03,
          4.63554590e+03, 7.82472314e+03, 7.07447900e+03, 0.,
          3.26471826e+03, 8.23323059e+02, 1.47000713e+04, 7.77253516e+03,
          5.81758301e+03, 3.24025439e+03, 4.29210449e+03, 2.74652734e+03,
          3.16247109e+04, 1.73479141e+04, 6.79338672e+03, 5.53175049e+03,
          2.64063281e+04, 1.55348555e+04, 2.59479785e+04, 3.40149180e+04,
          4.00526445e+04, 1.25030654e+04, 7.17824072e+03, 6.09811523e+03,
          1.39181289e+04, 4.71723975e+03, 1.62764033e+04, 5.00967344e+04 ]
      - [ 3.36237817e+03, 4.80762793e+03, 8.71364746e+03, 1.66472791e+03,
          0., 0., 0., 2.41110522e+03, 3.38293799e+03, 1.87068701e+03,
          3.10369238e+03, 1.83999780e+03, 0., 0., 1.78885441e+01,
          4.12473535e+03, 1348., 2.49094482e+03, 4.81151318e+03,
          2.88713379e+03, 3.03452881e+03, 5.00904150e+03, 6.10860449e+03,
          6.58744092e+03, 2.51775122e+03, 3.31179907e+03, 4.98535156e+03,
          3.56931381e+01, 648., 5.03609912e+03, 1.47167402e+04,
          8.50025000e+03, 2.78034375e+03, 5.76186768e+03, 5.46992529e+03,
          2.41528770e+04, 2.97811016e+04, 6.23505664e+03, 2.09275781e+03,
          7.69481445e+03, 7.16526221e+03, 2.68531421e+03, 5.00051465e+03,
          2.86089805e+04, 2.41027832e+04, 3.29112207e+03, 2.37304248e+03,
          5.39346387e+03, 2.92117500e+04, 1.54867090e+04, 1.55683359e+04,
          1.43483037e+04, 8.79248438e+03, 1.44823604e+04, 1.72576113e+04,
          1.96892598e+04, 3.35308281e+04, 2.48062109e+04, 1.08978311e+04,
          8.69182520e+03, 1.18248311e+04, 9.49299512e+03, 1.42219141e+04,
          2.42406309e+04 ]
      - [ 1.91540149e+03, 1.11048398e+04, 1.56884070e+03, 2.34094946e+03,
          1.75031958e+03, 3.95911621e+02, 0., 0., 1.42952795e+03,
          5.05715430e+03, 9.76657593e+02, 5.38623047e+02, 5.49850891e+02,
          9.11545959e+02, 6.55259399e+02, 9.09965820e+02, 1.10047705e+04,
          3.24150903e+03, 3.28685962e+03, 7.44452820e+02, 1.81536523e+03,
          4.13211377e+03, 6.88637939e+03, 2.94885107e+03, 1.09777266e+04,
          2.33066895e+03, 1.12023157e+03, 2.53684448e+03, 2.41474213e+02,
          3.09886475e+03, 1.10246338e+04, 5.57819287e+03, 4.92140771e+03,
          1.26165686e+03, 3.38637109e+03, 2.94603281e+04, 1.98408777e+03,
          4.71784033e+03, 2.36005957e+03, 1.05510068e+04, 5.16126709e+03,
          3.11229761e+03, 4.49494092e+03, 2.61250996e+04, 2.10902734e+03,
          1.83564160e+03, 4.50180420e+03, 4.16220703e+03, 3.10630195e+04,
          6.27749316e+03, 9.77644727e+03, 8.90153418e+03, 1.11491904e+04,
          1.60953535e+04, 1.77908867e+04, 2.34697402e+04, 2.92367227e+04,
          1.17820654e+04, 7.72478613e+03, 1.24731211e+04, 9.25088379e+03,
          1.36715840e+04, 1.49048018e+04, 2.37170664e+04 ]
      - [ 6.61645215e+03, 8.67062402e+03, 5.56022363e+03, 0., 0., 0., 0.,
          0., 5.77865869e+03, 3.55232324e+03, 3.98888458e+02, 0., 0., 0.,
          0., 0., 9.31662695e+03, 3.30200488e+03, 1.88420093e+03,
          9.00982227e+03, 2.16722412e+03, 1.45990283e+03, 5.97637695e+03,
          2.55132642e+03, 1.19368154e+04, 6.42754053e+03, 9.65543091e+02,
          7.36817505e+02, 2.84685620e+03, 2.72450269e+03, 1.04672129e+04,
          3.85343604e+03, 7.76209863e+03, 1.40507168e+04, 9.57557227e+03,
          5.91177002e+03, 1.07457104e+03, 1.71000146e+03, 9.64215137e+03,
          3.61647778e+03, 8.87034180e+03, 1.25436582e+04, 1.71044824e+04,
          1.31656006e+04, 8.87633105e+03, 1.26884937e+03, 1.38187793e+03,
          5.44549658e+03, 2.46955215e+04, 2.71151758e+04, 2.21641387e+04,
          2.06605020e+04, 1.90541777e+04, 1.81819727e+04, 1.34827539e+04,
          1.00716885e+04, 1.58142178e+04, 2.74226113e+04, 2.73379824e+04,
          2.55274297e+04, 1.14780957e+04, 7.09918750e+03, 5.79897217e+03,
          6.52571045e+03 ]
      - [ 8.49449414e+03, 4.94906396e+03, 8.20383301e+03, 1.64707275e+03,
          0., 0., 0., 0., 4.29874219e+03, 4.68145117e+03, 3.90221729e+03,
          0., 0., 0., 0., 2.34093990e+01, 1.32392334e+03, 8.25911621e+02,
          9.03075867e+02, 2.27205811e+03, 3.21449097e+03, 5.53761816e+03,
          7.71153076e+03, 7.82935938e+03, 4.77380420e+03, 2.70185127e+01,
          0., 0., 0., 8.78043066e+03, 9.82367480e+03, 9.33060156e+03,
          3.39296973e+03, 2.10455786e+03, 5.43434619e+03, 3.25200820e+04,
          1.92932988e+04, 5.74477930e+03, 5.69070361e+03, 9.36989941e+03,
          5.20778760e+03, 1.60288379e+03, 5.25822998e+03, 3.32092617e+04,
          1.19655000e+04, 9.25978027e+03, 4.91271680e+03, 6.92538672e+03,
          2.66290781e+04, 1.07623135e+04, 1.37096270e+04, 2.02729336e+04,
          1.34502559e+04, 1.89501445e+04, 1.38340557e+04, 1.06778389e+04,
          2.97886934e+04, 1.82392891e+04, 1.92349004e+04, 1.54422734e+04,
          9.61630566e+03, 2.28763301e+04, 1.56009502e+04, 1.20660234e+04 ]
      - [ 0., 2.48922386e+01, 0., 0., 0., 0., 0., 0., 0., 0., 0., 0., 0.,
          0., 0., 2.23606796e+01, 1.49073303e+03, 2.39814478e+03,
          1.75737537e+03, 1.72602771e+03, 2.59554150e+03, 2.78351636e+03,
          1.87851367e+03, 1.72674451e+03, 848., 7.51767273e+02,
          7.36919250e+02, 7.82309387e+02, 8.56771851e+02, 2.47250586e+03,
          1.48288330e+03, 1.03858508e+03, 1.80845879e+04, 6.89728662e+03,
          6.16872119e+03, 2.26854609e+04, 5.86911523e+03, 3.01530884e+03,
          7.30668457e+03, 5.25997852e+03, 1.49559365e+04, 8.07838525e+03,
          9.22203516e+03, 2.29835859e+04, 6.05950342e+03, 4.79333691e+03,
          2.37452197e+03, 7.52697314e+03, 3.77479492e+04, 1.33832139e+04,
          2.13606836e+04, 9.57016309e+03, 6.99487939e+03, 1.50663828e+04,
          2.75643164e+04, 5.01178789e+04, 3.96050313e+04, 1.48110762e+04,
          6.74483936e+03, 6.24656738e+03, 5.45030273e+03, 5.96575000e+03,
          2.84390840e+04, 4.85805547e+04 ]
      - [ 4.09042700e+03, 5.70272021e+03, 5.07242090e+03, 0., 0., 0., 0.,
          0., 1.75103979e+03, 2.29237988e+03, 0., 0., 0., 0., 0., 0.,
          7.76614844e+03, 1.61127136e+02, 3.01131958e+03, 2.65491455e+03,
          4.51357471e+03, 1.43039758e+03, 5.73935547e+02, 9.17456934e+03,
          6.88396240e+03, 2.82590186e+03, 1.39435925e+03, 1.00317993e+03,
          3.45364185e+03, 1.42302454e+03, 9.52104688e+03, 5.70743945e+03,
          6.79897559e+03, 8.73967773e+03, 8.48798828e+03, 1.91944941e+04,
          1.21250898e+04, 1.43305566e+03, 5.20278223e+03, 4.88770605e+03,
          1.01433818e+04, 1.08565713e+04, 1.21700195e+04, 9.94031836e+03,
          1.63234580e+04, 3.33428394e+03, 1.46082996e+03, 1.68282471e+03,
          2.85711035e+04, 2.67355332e+04, 2.13082871e+04, 9.31030176e+03,
          1.27150215e+04, 8.91304688e+03, 1.56798428e+04, 1.48850781e+04,
          3.12568652e+04, 3.75623203e+04, 1.69359297e+04, 7.24906250e+03,
          5.48083057e+03, 2.89814868e+03, 1.10743633e+04, 1.78801660e+04 ]
      - [ 0., 0., 0., 0., 0., 0., 0., 0., 0., 0., 0., 0., 0., 0., 0., 0.,
          1.15770618e+03, 5.57531677e+02, 0., 2.31905151e+02,
          2.44135208e+02, 7.26307129e+02, 1.16948242e+03, 0., 764., 0.,
          0., 0., 0., 0., 1.88302948e+02, 6.51676270e+02, 4.74348828e+03,
          6.60632910e+03, 9.33059277e+03, 7.97662415e+02, 2.63318066e+03,
          3.29642236e+03, 2.98806104e+03, 1.86723193e+03, 5.04153662e+03,
          5.68571240e+03, 1.03537646e+04, 0., 0., 1.64768396e+03,
          4.42256836e+03, 2.00862732e+03, 2.83516328e+04, 2.02608848e+04,
          3.24428809e+03, 2.64817358e+03, 1.48453037e+04, 2.03555000e+04,
          1.78847832e+04, 8.76957422e+03, 2.43121582e+04, 3.13444409e+03,
          8.37530273e+03, 7.07965479e+03, 1.28369570e+04, 1.64793105e+04,
          1.92801660e+04, 5.89759424e+03 ]
      - [ 1016., 0., 0., 0., 0., 0., 0., 0., 1896., 5.19232788e+02,
          1.48115393e+03, 1.76846167e+03, 1896., 8.34743958e+02,
          3.42239685e+02, 0., 6.33612158e+03, 1.98322595e+03,
          1.11525908e+04, 3.47586938e+03, 40., 0., 0., 0., 0.,
          1.41421356e+01, 5.74202002e+03, 4.18163037e+03, 3.06547900e+03,
          1.00762256e+03, 4.91546539e+02, 7.74864807e+02, 5.46910889e+03,
          5.50474658e+03, 1.10873975e+04, 1.19353271e+04, 3.11763721e+03,
          2.66423438e+03, 8.71923438e+03, 3.85203076e+03, 7.06213135e+03,
          6.72689111e+03, 4.71039502e+03, 9.85550684e+03, 5.60601514e+03,
          3.38904663e+03, 3.60544189e+03, 2.90385522e+03, 2.30483320e+04,
          1.57861846e+04, 2.86681406e+04, 9.26936035e+03, 1.68565117e+04,
          1.40986045e+04, 1.08355244e+04, 1.71438984e+04, 1.77517578e+04,
          28488., 1.09419092e+04, 1.19012695e+04, 1.49219287e+04,
          1.74213887e+04, 1.20171631e+04, 7.77272607e+03 ]
      - [ 0., 2.09466992e+03, 1.45691452e+02, 0., 0., 0., 0., 0., 0., 0.,
          0., 0., 0., 0., 0., 0., 1.66869922e+04, 2.15998145e+04,
          2.94412671e+03, 0., 930., 1.86724396e+02, 3.74623169e+03,
          4.48318555e+03, 1.05508838e+04, 6.13820801e+03, 1.15145496e+03,
          1.53187769e+03, 4.06937646e+03, 2.70367480e+03, 1.70846912e+03,
          2.95889282e+03, 5.51051660e+03, 7.65590283e+03, 7.70806494e+03,
          4.71820898e+03, 2.74346533e+03, 4.53074805e+03, 5.81522510e+03,
          5.46941650e+03, 1.12993232e+04, 9.76582617e+03, 9.73419739e+02,
          2.51557739e+03, 3.85318024e+02, 7.75530762e+02, 1.94911536e+03,
          1.21945029e+04, 2.69801465e+04, 2.06666602e+04, 1.69368926e+04,
          1.01209541e+04, 1.53970371e+04, 1.37684453e+04, 1.13528857e+04,
          1.61426572e+04, 3.27191113e+04, 3.14367422e+04, 1.11779043e+04,
          3.49005225e+03, 1.04188496e+04, 6.16489941e+03, 1.71721191e+04,
          1.95310898e+04 ]
      - [ 0., 3.18505933e+03, 2.87767273e+02, 0., 0., 0., 0., 0., 0., 0.,
          0., 0., 0., 0., 0., 0., 9.39594629e+03, 2.45728105e+04,
          8.38682324e+03, 1.29693924e+02, 1944., 0., 0., 2.32031201e+03,
          1.22280146e+04, 1.96558281e+04, 2.86181006e+03, 0.,
          2.46024512e+03, 3.74896118e+02, 1.60665210e+03, 1.48492432e+02,
          1.00395791e+04, 1.92000898e+04, 6.40854590e+03, 4.05097461e+03,
          2.20116138e+03, 1.73138513e+03, 3.40252783e+03, 6.11497266e+03,
          8.86452930e+03, 2.17940840e+04, 2.66988745e+03, 5.42883789e+03,
          2.67396143e+03, 1.17384595e+03, 1.79570520e+03, 5.25993164e+03,
          2.05089785e+04, 2.44862480e+04, 1.92455352e+04, 8.07892920e+03,
          7.86186914e+03, 1.41103604e+04, 1.67703203e+04, 1.73396426e+04,
          3.53564922e+04, 2.19170781e+04, 1.35281934e+04, 4.22741602e+03,
          6.24860498e+03, 1.31226152e+04, 1.57071875e+04, 1.46734746e+04 ]
      - [ 0., 0., 0., 0., 0., 0., 0., 0., 0., 0., 0., 0., 0., 0., 0., 0.,
          1.24746904e+04, 9.53194629e+03, 1.25421094e+04, 4.44704407e+02,
          1984., 0., 0., 0., 9.87422241e+02, 1.32113652e+04,
          2.91343604e+03, 9.52094727e+02, 2.57865112e+03, 0.,
          8.79422729e+02, 0., 7.55048682e+03, 1.75378789e+04,
          8.43411621e+03, 4.80812158e+03, 4.72829785e+03, 3.34361768e+03,
          6.71907129e+03, 4.10565186e+03, 4.34577832e+03, 1.92480566e+04,
          1.28259351e+03, 1.56913354e+03, 4.35295441e+02, 1.02291663e+03,
          3.49095752e+03, 2.48093506e+03, 1.72059199e+04, 3.23114316e+04,
          2.15951660e+04, 4.98360986e+03, 1.93933809e+04, 1.01250439e+04,
          1.20926348e+04, 1.83402441e+04, 2.43249648e+04, 3.66395234e+04,
          2.20775938e+04, 6.96886865e+03, 8.67617090e+03, 1.48301035e+04,
          1.50629385e+04, 1.00610225e+04 ]
      - [ 5.76544861e+02, 1.33583557e+03, 0., 0., 0., 0., 0., 0., 0., 0.,
          0., 0., 0., 0., 0., 0., 5.62418213e+03, 1.21255225e+04,
          1.43558105e+04, 0., 2530., 3.06789825e+02, 2.78538623e+03,
          1.06816089e+03, 6.07766260e+03, 9.30477832e+03, 1.55511597e+03,
          1.90051709e+03, 2040., 2.82361597e+03, 9.09955872e+02,
          4.16215912e+02, 7.27247754e+03, 2.22841445e+04, 9.78036133e+03,
          1.22546514e+04, 4.87162256e+03, 4.00075269e+03, 3.33616675e+03,
          2.74871777e+03, 9.38225293e+03, 2.38788691e+04, 5.55553027e+03,
          2.08650537e+03, 3.19135767e+03, 2.77092578e+03, 2.81734961e+03,
          2.66213745e+03, 1.94935391e+04, 2.76656543e+04, 1.59518438e+04,
          9.90257813e+03, 2.38275410e+04, 1.44381211e+04, 1.24149785e+04,
          5.10231348e+03, 2.72448242e+04, 2.79525137e+04, 1.39316172e+04,
          9.38510645e+03, 1.99046895e+04, 1.14648633e+04, 8.51956152e+03,
          8.24118359e+03 ]
      - [ 0., 5.51908154e+03, 9.83304785e+03, 0., 0., 0., 0., 0., 0.,
          1.90086719e+03, 2.34476953e+03, 0., 0., 0., 0., 0.,
          4.01579895e+02, 1.05489570e+04, 6.49005859e+03, 6.75417285e+03,
          5.04958398e+03, 5.31638977e+02, 1.56023413e+03, 3.12155908e+03,
          1.18066699e+03, 9.34226367e+03, 1.09936064e+04, 1.14933281e+04,
          7.36233740e+03, 2.33070801e+02, 4.19640320e+02, 2.12037735e+02,
          5.87887256e+03, 7.62389795e+03, 9.44760254e+03, 9.42641699e+03,
          2.81833813e+03, 1.69713135e+03, 1.59768359e+03, 6.64491638e+02,
          4.66075635e+03, 1.44031563e+04, 2.26033477e+04, 3.11946973e+03,
          2.29024341e+03, 4.35806494e+03, 1.81159998e+03, 2.32788477e+03,
          1.25049590e+04, 2.32557129e+04, 4.35339180e+04, 1.99799551e+04,
          1.04712793e+04, 6.53576270e+03, 6.59455811e+03, 4.71692236e+03,
          1.25703994e+04, 4.18874258e+04, 2.84971797e+04, 1.56768252e+04,
          1.03941963e+04, 6.36472656e+03, 6.17713916e+03, 6.83480469e+03 ]
      - [ 3.18683179e+03, 4.12334131e+03, 2.31173242e+03, 3.66319238e+03,
          0., 0., 1.78885437e+02, 3.24333105e+03, 3.32343201e+02,
          7.82368225e+02, 4.38755066e+02, 0., 0., 0., 1.55563488e+01,
          4.15239307e+03, 2.64438887e+04, 4.12353790e+02, 0., 0., 0.,
          3.75732086e+02, 8.98060730e+02, 4.11329590e+03, 4.29221973e+03,
          2.26875464e+03, 4.76538696e+02, 0., 0., 0., 2.83605896e+02,
          1.04059717e+04, 8.25792188e+03, 6.17449414e+03, 7.16380518e+03,
          7.30079395e+03, 1.08262344e+04, 7.90395313e+03, 6.65861084e+03,
          1.34272422e+04, 1.20092656e+04, 7.13936133e+03, 6.86813477e+03,
          6.84434180e+03, 7.92740479e+03, 5.80904785e+03, 5.70731689e+03,
          1.18224229e+04, 2.13576035e+04, 2.57733164e+04, 1.95788047e+04,
          8.70792969e+03, 2.21127852e+04, 1.25686699e+04, 1.11006914e+04,
          1.61916768e+04, 2.57737344e+04, 2.03412266e+04, 2.44820508e+04,
          1.09435234e+04, 2.22752246e+04, 1.89423008e+04, 8.43767773e+03,
          1.79004023e+04 ]
      - [ 6.46501416e+03, 6.54391455e+03, 2.63258081e+03, 3.63717725e+03,
          2040., 0., 0., 0., 0., 6.31972473e+02, 4.85847717e+02,
          3.07538605e+02, 2.98573273e+02, 5.03432220e+02, 0., 0.,
          2.12104375e+04, 2.86413037e+03, 2.46479202e+02, 3.09691650e+03,
          4.67889941e+03, 2.25389526e+03, 2.08456812e+03, 7.63229395e+03,
          9.85158496e+03, 1.16979248e+04, 2.98126416e+03, 1.42524890e+03,
          7.00016943e+03, 1.10229688e+03, 7.50546692e+02, 2.02543823e+02,
          8.11302197e+03, 6.82965918e+03, 8.84573828e+03, 2.69089771e+03,
          3.28067627e+03, 2.46209668e+03, 4.75690137e+03, 5.85248535e+03,
          8.98324023e+03, 1.93784883e+04, 3.23097729e+03, 1.98992603e+03,
          1.00177863e+03, 1.66459644e+03, 2.85538794e+03, 2.74674170e+03,
          2.33511973e+04, 1.62596758e+04, 1.96581699e+04, 1.92301855e+04,
          1.11027051e+04, 1.03658213e+04, 5.95798633e+03, 1.16579434e+04,
          3.47657500e+04, 2.13635566e+04, 1.33077695e+04, 6.33490918e+03,
          1.05645137e+04, 8.19676367e+03, 1.16045430e+04, 1.12253164e+04 ]
      - [ 3.46772754e+03, 5.08821338e+03, 3.44166162e+03, 0., 0.,
          2.54420914e+02, 0., 0., 8.67881348e+02, 3.25149200e+02,
          2.47470825e+03, 1.60124954e+02, 3.65570801e+02, 0., 0.,
          3.28390015e+02, 3.06657539e+04, 2.50969800e+03, 1.57435699e+02,
          1.85868420e+03, 2.52629272e+03, 2.33336572e+03, 6.30163037e+03,
          6.32653137e+02, 1.17584502e+04, 2.51633765e+03, 1.98040405e+02,
          9.94091064e+02, 8.40165222e+02, 5.45094482e+02, 3.09076660e+03,
          5.09344385e+03, 1.22007842e+04, 1.95920618e+03, 6.90805713e+03,
          5.63617383e+03, 6.34170166e+03, 5.98187744e+03, 4.29832275e+03,
          1.03113066e+04, 1.33892158e+04, 5.38388477e+03, 3.70025220e+03,
          7.47962256e+03, 3.72383838e+03, 6.50461035e+03, 5.54445361e+03,
          4.99323242e+03, 5.10729453e+04, 1.57051611e+04, 1.83788926e+04,
          1.50671670e+04, 1.73821035e+04, 1.79778359e+04, 1.46769600e+04,
          2.17798027e+04, 3.55202500e+04, 2.61448164e+04, 8.65974902e+03,
          1.23388760e+04, 1.22028604e+04, 5.39148926e+03, 1.94234824e+04,
          1.04278633e+04 ]
      - [ 2.76742700e+03, 5.80106543e+03, 0., 0., 0., 0., 0.,
          2.20843842e+02, 0., 0., 0., 0., 0., 0., 0., 0., 7.12664795e+03,
          1.38395449e+04, 5.70882227e+03, 2.29601465e+03, 1.35297388e+03,
          9.62189575e+02, 8.68849792e+02, 3.80575562e+03, 8.69298828e+03,
          6.03903076e+03, 2.47072437e+03, 4.53518066e+03, 4.38248145e+03,
          2.26395313e+03, 3.42917383e+03, 6.55817627e+03, 7.14534521e+03,
          7.01568848e+03, 9.12081445e+03, 2.05659937e+03, 2.20062793e+03,
