%YAML:1.0
---
opencv_ml_svm:
   format: 3
   svmType: C_SVC
   kernel:
      type: LINEAR
   C: 2.6699999999999999e+00
   term_criteria: { epsilon:1.1920928955078125e-07, iterations:1000 }
   var_count: 64
   class_count: 11
   class_labels: !!opencv-matrix
      rows: 11
      cols: 1
      dt: i
      data: [ 0, 1, 2, 3, 4, 5, 6, 7, 8, 9, 10 ]
   sv_total: 55
   support_vectors:
      - [ 5.40520887e-06, -2.06220047e-05, 2.79171891e-05,
          8.92043136e-06, 1.18919306e-05, 1.54798713e-07, 1.84101324e-07,
          7.79724473e-07, 1.54819566e-06, 1.60605960e-05, 1.75839396e-05,
          1.25737615e-05, 5.02812418e-06, 4.99080579e-06, 7.26897406e-06,
          8.29567762e-06, 1.28627726e-05, -3.26565896e-05,
          -2.80723016e-05, -1.45390334e-06, 4.62732669e-06,
          1.37595543e-05, 1.79164308e-05, 1.39497606e-05, 4.38495590e-06,
          -2.37820386e-05, -3.09949355e-05, -1.92501884e-05,
          -1.31508796e-06, 1.23948321e-05, 1.32967034e-05,
          1.52107179e-06, 6.53490724e-06, -2.09558293e-05,
          1.27407156e-05, 1.75166383e-06, 5.50296409e-06, 1.87660225e-05,
          1.26534542e-05, -3.11193480e-06, -9.84884082e-06,
          -2.72004745e-05, 1.56095284e-05, 9.95686878e-06,
          1.33555013e-05, 6.12224630e-06, 1.71938900e-05, 1.20670529e-05,
          -5.00420754e-08, 1.71637730e-05, 6.59664602e-06,
          -2.62134727e-05, -6.33777063e-06, -2.05799537e-07,
          -1.40183784e-05, -7.99630652e-06, 1.00305815e-05,
          2.26741286e-05, 4.39149471e-06, 1.23582076e-05,
          -4.19895650e-06, -2.99266139e-06, -1.24156086e-05,
          -3.53404130e-06 ]
      - [ 4.23153779e-06, 5.07898631e-06, 2.27559322e-05, 7.63820208e-06,
          1.41832322e-06, 3.65521532e-06, 1.72419936e-06, 2.68064696e-06,
          6.23356800e-06, 1.84563523e-05, 1.28625834e-05, 1.02108852e-05,
          2.47438015e-06, 9.19255911e-07, -1.73567132e-05,
          -8.12860162e-06, 6.48130299e-06, -6.21517665e-06,
          -1.85778226e-05, -1.57684317e-05, -1.86672059e-05,
          1.45787935e-05, 9.21733499e-06, 1.43335510e-05, 7.58894430e-06,
          -1.75738103e-06, -1.03755401e-05, -1.35635946e-05,
          -2.49879431e-05, 9.44922886e-06, 1.49298603e-05,
          1.54153395e-06, 5.80895403e-06, -5.10779728e-07,
          -1.12670500e-06, 5.62850744e-07, -1.21140260e-06,
          3.23810332e-06, 1.24129969e-07, 1.23570871e-05,
          -1.12531825e-05, -1.15900493e-05, -9.44009389e-06,
          -1.34278753e-06, 7.81774816e-06, 9.47545959e-06,
          2.65986341e-06, 3.85107342e-06, 5.88195689e-06, 1.03232624e-05,
          8.08447021e-06, 8.94013010e-06, -1.58941402e-05,
          -4.28601634e-05, 3.61688990e-06, 2.07250764e-06,
          2.31404556e-05, 3.01992009e-06, 2.03840154e-05, 1.56674487e-05,
          -1.96356632e-05, -3.85716048e-05, 2.78226935e-06,
          8.76141621e-06 ]
      - [ 4.39279893e-06, 3.83602764e-06, -8.38559390e-06,
          -2.29987745e-05, 1.90223454e-05, 1.69691259e-06,
          -9.28606170e-08, 2.08572874e-06, 1.54517384e-05,
          2.00074101e-05, 2.00996637e-05, 7.50230720e-06,
          -1.32895295e-07, -7.19822401e-06, -2.45790252e-05,
          -1.36880790e-05, 4.46177137e-06, -1.50688393e-05,
          -1.59806459e-05, -2.24081105e-05, -2.55155010e-05,
          -9.00107898e-06, 1.34395750e-05, 1.89818747e-05,
          1.49439647e-05, 1.94035374e-06, -2.35786774e-06,
          -4.16613657e-05, -1.11005675e-05, 1.21115454e-05,
          2.11680454e-05, -1.52639211e-06, 2.08589881e-05,
          3.76447178e-06, 1.93611072e-06, -7.29679005e-06,
          -1.19593633e-05, -3.57396971e-07, -1.79826338e-06,
          -3.51271382e-07, 3.49748575e-06, -2.05506622e-05,
          -3.61757484e-05, -6.64759500e-06, 1.50002825e-06,
          1.75468704e-05, 1.34886141e-05, 1.55180642e-05,
          -8.41706697e-06, -8.91681066e-06, -2.70068290e-06,
          -6.09601148e-06, -2.26209595e-05, -3.26133181e-06,
          5.52030406e-06, 5.38113227e-06, 2.66624465e-05, 1.52377215e-05,
          7.52465758e-06, -1.05413537e-05, -4.14252645e-05,
          -1.00870020e-05, -2.40979921e-06, 5.74239311e-06 ]
      - [ -1.23182849e-06, -4.72026695e-05, 1.86886118e-05,
          3.62091214e-06, 7.77267542e-06, 3.25967790e-06, 5.71922271e-07,
          -3.92112452e-06, 1.09394769e-05, -8.87079113e-06,
          1.80712345e-06, 1.22607225e-05, 7.78776939e-06, 1.90849391e-06,
          2.05602100e-06, 8.21708636e-06, 1.08019321e-06,
          -2.08821821e-05, -1.12617672e-05, 3.48909953e-06,
          -6.18445301e-06, 1.08362237e-05, 1.30455146e-05,
          1.53707351e-05, 5.20318008e-06, 5.14924886e-06,
          -3.43922293e-05, -3.53414289e-05, -9.41000690e-06,
          2.06115365e-05, 2.33936516e-05, 1.47600731e-05, 4.09388440e-06,
          -5.62937021e-06, -5.48188473e-06, -1.37284760e-05,
          -6.68260554e-06, 1.65810616e-05, 1.43134575e-05,
          4.07381731e-06, -1.29789105e-05, -8.94687491e-06,
          -1.64347730e-05, 9.07051162e-06, 8.68217103e-06,
          6.05106970e-06, 1.27535286e-05, 1.08780205e-05,
          -9.02769534e-06, 2.84644398e-06, 6.52304698e-06,
          -1.60315153e-06, -2.13800877e-06, 5.34125820e-06,
          -2.04963257e-07, 8.32865499e-06, -6.05408923e-06,
          -1.26596915e-05, 4.46142076e-06, 1.56497867e-06,
          -3.84347504e-06, -5.40293740e-06, -3.07682603e-06,
          1.33293543e-06 ]
      - [ 6.71827638e-06, 3.62220521e-06, 7.01339104e-06,
          -2.22909803e-05, -1.83711873e-05, -1.05500089e-06,
          -2.03786840e-05, -1.29656546e-05, 2.72779829e-07,
          1.12807875e-05, -1.59725860e-05, -1.42723275e-05,
          3.00518059e-06, -1.22767151e-05, -1.49477191e-05,
          -1.65627116e-05, 1.23682105e-06, -1.71828524e-05,
          -2.84879261e-05, -1.72077398e-05, -7.86130295e-06,
          -7.28892655e-06, -3.52211873e-06, 2.26833872e-05,
          3.65844335e-06, -1.24967710e-05, -2.43087634e-05,
          -1.36002827e-05, -3.89173556e-06, 1.07804062e-05,
          7.17953571e-06, 9.56128952e-06, 3.71957722e-05, 2.38054708e-05,
          1.43714487e-05, -1.12451089e-05, 7.63339176e-06,
          2.88324045e-05, 2.01124112e-05, 1.56894803e-05, 3.82167673e-05,
          7.33485513e-06, -1.68303450e-05, -5.50796176e-05,
          -7.95114738e-06, 3.17358790e-05, 3.93964983e-05,
          3.96837095e-05, 2.83873342e-05, 2.43132199e-05, 3.51265626e-05,
          1.71731008e-05, 8.56119095e-06, -2.73719110e-07,
          -3.43161155e-05, -5.22541450e-06, 2.38489156e-05,
          4.02622754e-05, 3.12855445e-05, 1.15948005e-05, 1.66353802e-05,
          -5.29841100e-06, 1.36708081e-06, -1.47697983e-05 ]
      - [ -3.13010678e-05, -2.94964466e-05, 2.67936252e-06,
          4.56841462e-06, -2.54216275e-06, -1.15321645e-05,
          -1.28503616e-05, -8.30216868e-06, -9.01614749e-06,
          -1.56210190e-05, -1.82171084e-06, 1.66466798e-05,
          1.51591967e-05, 3.71704414e-06, 8.07152992e-06, 4.80045492e-06,
          -2.47475655e-05, -3.39345097e-05, -9.34212403e-06,
          -9.79180095e-06, -1.35053479e-05, 2.24692558e-05,
          1.44841515e-05, 6.12543499e-06, -6.42966961e-06,
          -2.23028546e-05, -2.70615328e-05, -4.02445658e-05,
          -2.45650540e-06, -7.60094144e-06, 2.13952899e-05,
          -1.42045365e-05, 2.84878497e-05, 9.82818256e-06,
          -5.25216728e-06, -2.59636295e-06, 7.07085564e-06,
          1.93021933e-05, 3.63231848e-05, 3.18983257e-05, 1.91021882e-05,
          3.05783669e-06, -1.15935400e-05, -3.66270215e-05,
          -2.22416184e-05, -4.10189887e-06, 4.88414626e-05,
          4.03787199e-05, 3.58919242e-05, 3.25014007e-05, 1.37855341e-05,
          -2.01134881e-05, -1.77939783e-05, -5.46691190e-05,
          -2.69174907e-05, -1.16458177e-05, 3.56512173e-05,
          3.31575829e-05, 2.83482077e-05, 7.46163596e-06,
          -8.95393805e-06, -2.89007567e-05, -1.22183155e-05,
          1.49674051e-05 ]
      - [ 2.75713592e-06, 9.74041996e-06, 3.75640084e-05,
          -1.47162327e-05, -4.36937171e-06, 6.43541125e-06,
          2.43311933e-06, 2.06725672e-05, 3.02395210e-06, 1.16357169e-05,
          2.49113527e-05, -2.28650188e-05, -5.26767435e-05,
          -1.06698562e-05, 1.55697035e-06, -5.25042378e-06,
          -1.27351632e-05, -1.08405848e-05, -2.05149026e-05,
          -2.10971393e-05, -1.00622833e-06, 2.25270669e-05,
          1.99749320e-05, 1.28894571e-05, -1.53375659e-05,
          -2.58720411e-05, -2.63560232e-05, -2.67515625e-05,
          -7.93720756e-06, 1.98606431e-05, 3.40609658e-05,
          -9.49964397e-06, 1.01575006e-05, -9.00252587e-07,
          1.47669980e-05, -1.68681054e-05, -1.45779109e-06,
          1.03570928e-05, 1.50341675e-05, -5.52604843e-06,
          8.03163857e-06, -2.51988895e-05, -2.12133709e-05,
          -9.46073123e-06, 4.71175326e-06, 1.53633991e-05,
          1.52327002e-05, 1.28606771e-05, -8.48072523e-06,
          1.39166905e-05, 2.93153353e-05, 7.85437260e-06, 9.23247444e-06,
          7.43493001e-06, -3.15676539e-06, -2.94297442e-05,
          4.94028973e-06, 1.04354922e-05, 4.10714056e-05, 9.50206049e-06,
          5.85804355e-06, 3.39355807e-07, 1.76114572e-05,
          -1.64393223e-05 ]
      - [ 1.28037836e-05, -3.10719406e-05, -1.47607570e-05,
          2.19569320e-05, -3.60496506e-06, 2.03310265e-05,
          -1.80676743e-05, -5.32362246e-05, -4.01368161e-05,
          2.36065534e-05, -6.40653379e-05, 2.10998460e-05,
          -8.44369333e-06, -1.50957630e-05, -3.65832675e-05,
          6.08500750e-06, -1.92965963e-05, -5.40452857e-05,
          -7.28205850e-05, -1.77397505e-05, -8.51183540e-06,
          -9.11993357e-06, 4.41950324e-05, 5.94333105e-05,
          1.85817989e-05, 1.38017658e-05, -1.06426587e-05,
          -1.18162143e-06, -8.92284515e-06, 4.76944115e-06,
          -2.71620252e-06, -2.07589801e-05, 2.07572848e-05,
          -2.77449053e-05, 1.00424377e-05, -3.07058217e-05,
          -7.94198684e-07, 6.83804683e-06, -1.20155903e-06,
          9.68606219e-06, 2.02846404e-05, -4.42753408e-05,
          -5.33042949e-05, -1.33405247e-05, -2.52001464e-05,
          2.20485344e-06, 3.42085805e-05, -1.85425222e-06,
          1.03605971e-05, 5.81481690e-05, 6.20119827e-05,
          -2.80232052e-05, -7.79469428e-06, -8.80242151e-05,
          -4.01639227e-05, -1.57356608e-05, 6.36820478e-05,
          3.41587111e-05, -5.76203490e-07, -9.00469513e-06,
          8.94449840e-06, 1.64298331e-06, 2.36431752e-05, 2.17535653e-05 ]
      - [ 4.29154125e-06, -1.33299463e-05, 1.00681618e-05,
          -1.50579197e-07, -2.48976194e-05, -9.26060511e-06,
          -1.91105664e-05, -1.06650333e-07, 8.32336809e-06,
          1.68338156e-05, -1.21931726e-05, 1.15194143e-05,
          -9.97134430e-06, 1.06663560e-06, -1.24842045e-05,
          -3.01979276e-06, 4.86769250e-06, -1.12655798e-05,
          -1.92079660e-05, -6.09458912e-05, -5.80569395e-05,
          9.69750727e-06, 4.19766147e-05, 5.55760780e-05, 1.96466481e-05,
          7.65984169e-06, -6.16734542e-06, -4.95362656e-05,
          -3.61912789e-05, 2.44711646e-05, 4.01090219e-05,
          1.98017606e-05, -1.21255516e-05, 2.90224898e-06,
          8.37798143e-06, -5.82386610e-06, 2.85430838e-06,
          3.76392309e-05, 8.08586447e-06, -5.16541477e-05,
          -2.15811792e-06, 7.67533311e-06, 1.90479113e-05,
          -6.86724752e-06, 7.79555739e-06, -1.32745963e-05,
          -4.19076429e-07, 4.04971843e-06, 9.17581076e-07,
          -7.10696440e-06, 3.79444896e-06, -2.03395957e-05,
          -8.88935631e-07, 2.06996719e-05, 8.67660128e-06,
          -3.67726498e-05, 1.33868198e-05, 3.52512398e-05,
          1.67669241e-05, -8.69323401e-07, -2.47703847e-05,
          -6.61272770e-06, -6.33480886e-06, -1.78497012e-05 ]
      - [ -1.72901400e-05, -1.17638328e-05, 1.44060577e-05,
          6.26639121e-06, 9.36999004e-06, -3.73779557e-07,
          -3.63504796e-06, -8.62688375e-06, -2.22389099e-05,
          9.55250925e-07, 1.41319624e-05, 1.05667505e-05, 5.97224562e-06,
          2.00074987e-06, 3.00457123e-06, 4.34243987e-07,
          -2.03137643e-05, -3.01119198e-05, -2.77869476e-05,
          -9.69329903e-07, 2.51776123e-06, 1.56523693e-05,
          1.69270479e-05, -4.86006729e-06, -2.01509010e-05,
          -1.75070873e-05, -1.67061244e-05, -8.15665226e-06,
          1.66066889e-06, 2.26919528e-05, 1.56722326e-05,
          -1.03924194e-05, -4.30705495e-06, -1.30200306e-05,
          -1.24565140e-05, -8.72727378e-06, -3.93716800e-06,
          1.04459095e-05, 5.29567569e-06, -6.52263680e-06,
          -1.21739022e-05, -2.81067742e-06, 1.43406260e-06,
          2.46181321e-06, 1.42477775e-05, 7.12032852e-06, 1.08626509e-05,
          -2.77454565e-05, -3.29607865e-05, -2.64998198e-06,
          1.52797165e-05, 3.27997600e-06, -6.64904974e-06,
          -2.83201371e-06, -1.16768069e-05, -2.73091828e-05,
          -2.49651998e-06, 4.18656782e-06, 2.27731853e-05,
          8.39682161e-06, -5.21257016e-06, -9.26823031e-06,
          -1.21896310e-05, -3.03059387e-05 ]
      - [ -9.96216295e-06, 1.94974509e-05, 1.15900857e-05,
          4.82103542e-06, -1.08793492e-05, -6.62966215e-07,
          -1.44161135e-07, 4.87398140e-08, 1.47622302e-07, 0.,
          1.04723904e-06, 5.34896742e-07, 5.44351394e-07,
          -1.82314864e-07, -1.68541392e-05, -8.37910648e-06,
          -5.04974969e-06, 1.95887751e-05, -3.94585555e-07,
          -1.57557934e-05, -1.40165412e-05, -2.39346241e-06,
          -5.03325964e-06, -4.14065380e-06, -2.37808990e-06,
          2.07081066e-05, 1.37102443e-05, -5.32084141e-06,
          -1.99917795e-05, -3.50870278e-06, 4.05005994e-06,
          -2.01913235e-06, 7.43449255e-06, 1.41518694e-05,
          -4.05410447e-06, -7.85679106e-07, -2.66410530e-06,
          -8.93760534e-06, -1.06323978e-05, 1.67488615e-05,
          4.85452290e-07, 3.03582738e-06, -7.31460659e-06,
          -1.15127898e-06, 1.14100635e-06, -8.42117629e-08,
          -8.45534396e-06, -4.61516220e-06, 1.56123826e-06,
          1.27425778e-07, 1.11675663e-05, 2.24264259e-05,
          -2.08539605e-05, -3.30088515e-05, 1.45333579e-05,
          1.03471939e-05, 3.30664407e-05, -1.61820190e-05,
          6.35892638e-06, -8.08714049e-07, -2.62303129e-05,
          -3.10081923e-05, 2.07590201e-05, 1.80370953e-05 ]
      - [ -2.38240386e-06, 1.55329599e-05, -7.31128148e-06,
          -1.46334878e-05, -2.89500633e-07, 0., -8.21423669e-07,
          6.70805917e-08, -5.00657563e-07, -7.26507380e-07,
          -1.99402371e-06, -1.16335904e-07, 5.69826113e-07,
          -3.28297938e-06, -2.08389156e-05, -1.00871057e-05,
          -4.23885149e-06, 1.11905083e-05, 5.73232956e-06,
          -1.20500663e-05, -1.27832172e-05, -1.66865248e-05,
          -6.07074526e-06, 0., -1.81660630e-06, 1.78726532e-05,
          1.98184280e-05, -1.28610900e-05, -7.70898532e-06,
          -4.10503253e-06, 1.07158612e-05, 2.84077896e-06,
          7.16516070e-06, 1.91100498e-05, -2.85862507e-06,
          -4.74686431e-06, -1.96080400e-05, -1.87300066e-05,
          -9.92462174e-06, 1.05964227e-05, 2.11116039e-05,
          9.00568557e-06, -3.07812625e-05, -1.07973765e-05,
          -4.77597177e-06, -7.93111099e-07, -3.26436043e-06,
          1.56985880e-06, -9.07904996e-06, -1.89229922e-05,
          -4.12663394e-06, 1.08896547e-05, -9.06911919e-06,
          -1.50698838e-06, 1.38693931e-05, 1.28184911e-05,
          1.60859217e-05, -6.75423053e-06, -4.83288250e-06,
          -7.93973595e-06, -1.66533337e-05, -3.13238615e-06,
          8.84200472e-06, 7.59278510e-06 ]
      - [ -7.63088053e-07, -4.69412043e-05, 5.63597860e-06,
          4.81667576e-06, -2.97798284e-08, 0., 0., -4.17481533e-06,
          -3.08872615e-07, -2.78054031e-05, -9.94705260e-06,
          2.98030727e-07, 2.31497438e-07, 1.38403692e-07, 2.56918860e-08,
          4.20822835e-06, -8.69675023e-06, 1.46958409e-05,
          4.83176427e-06, 2.49362438e-06, -1.44641162e-05,
          -3.99742021e-06, -4.50650350e-06, -2.69081352e-06,
          -3.61935690e-06, 1.48164609e-05, -7.52302640e-06,
          -1.31779216e-05, -1.12461248e-05, 1.26814475e-05,
          1.47043265e-05, 6.32343654e-06, 6.85915666e-06, 1.21418243e-05,
          -5.27680959e-06, -1.52584889e-05, -1.82794629e-05,
          -1.12475673e-05, -3.07942287e-06, 1.38644637e-05,
          1.67382150e-05, 6.27186637e-06, -2.45202627e-05, 0.,
          3.96834309e-07, 8.21600963e-07, -5.83420103e-07,
          -5.08608173e-06, -1.17209165e-05, -2.26165230e-05,
          3.65418646e-06, 1.17814743e-05, 6.74446437e-06, 6.82388463e-06,
          1.50731566e-05, 6.25441135e-06, 1.80906432e-06,
          -2.75231523e-05, -6.42212126e-06, -7.55155179e-06,
          -6.14529881e-07, -1.90296896e-06, 1.35051896e-05,
          8.26042378e-06 ]
      - [ -2.55006171e-07, 1.98718189e-05, -7.51941161e-06,
          -1.55034031e-05, -1.60876443e-05, -3.97644726e-06,
          -9.53205836e-06, -9.28510781e-06, -1.39598296e-05,
          -8.85443569e-06, -1.97705285e-05, -1.57995255e-05,
          -5.10144264e-06, -4.23201345e-06, -5.59448608e-06,
          -7.31101591e-06, -7.48270304e-06, 1.56834194e-05,
          8.88239447e-06, -2.92349273e-06, -5.09089568e-06,
          -1.11275367e-05, -1.75626719e-05, -2.17093907e-06,
          -3.15568877e-06, 1.27452395e-05, 1.55137477e-05,
          8.29763394e-06, -2.02292176e-06, -3.71397073e-06,
          -1.06570596e-05, 3.35496520e-06, 9.21175615e-06,
          2.58533164e-05, 7.51550431e-07, -4.15467866e-06,
          -5.58202373e-06, -4.54764995e-06, -1.27370413e-07,
          2.00818922e-05, 3.36856865e-05, 2.54373372e-05,
          -1.29963873e-05, -2.59415392e-05, -1.47543997e-05,
          5.76310640e-07, 9.36900449e-07, 1.77948857e-06, 6.23903452e-06,
          -6.61766489e-06, 8.11681548e-06, 2.16049484e-05,
          9.85464976e-06, -4.16894636e-06, 4.10238590e-06,
          6.63892115e-06, 1.39152899e-05, -6.98760778e-06,
          1.80966128e-06, -2.22992821e-06, 6.13944349e-06,
          1.31360139e-06, 1.28325482e-05, 5.50925824e-06 ]
      - [ -2.47166299e-05, 2.03494665e-06, -6.54648420e-06,
          9.69490543e-07, -2.56252861e-06, -6.33571062e-06,
          -3.61353023e-06, -8.51474670e-06, -1.60297986e-05,
          -3.17796366e-05, -9.37387904e-06, -1.50457424e-07,
          1.06378297e-06, 4.44398694e-07, 2.41307987e-08, 2.12784425e-06,
          -1.96785295e-05, 1.84348446e-05, 2.39362089e-05,
          -3.44588148e-06, -1.58969560e-05, -1.26706482e-05,
          -1.09817674e-05, -2.26699849e-05, -1.05860845e-05,
          1.28302017e-05, 9.20133880e-06, 1.12895914e-05, 4.53281729e-07,
          -1.81941341e-05, 8.06025696e-07, -9.16495355e-06,
          7.56078407e-06, 2.28032568e-05, -7.28583291e-06,
          -5.93003824e-06, -3.68438327e-06, -1.29576110e-05,
          -4.90623461e-06, 1.75468049e-05, 3.38132049e-05,
          1.58564199e-05, -1.45504828e-05, -1.66637601e-05,
          -1.55272010e-05, -1.17073150e-05, -4.29233114e-06,
          -1.11340375e-06, 2.21046457e-06, -1.65216770e-05,
          3.41250211e-06, 1.08220493e-05, -1.87630194e-05,
          -2.06620116e-05, 1.44647920e-05, 3.40988254e-06,
          2.60347824e-05, -7.47906643e-06, 1.41779856e-06,
          -7.96808490e-06, -1.23501195e-05, -8.43843918e-06,
          1.67177841e-05, 2.73369915e-06 ]
      - [ 2.26399629e-06, 4.10832436e-05, 4.75471961e-06,
          -8.32450041e-06, -1.34557367e-05, -2.32992903e-07,
          -1.60572554e-07, -1.79153645e-07, -1.36594895e-06,
          -2.86258910e-07, 1.79685401e-06, -3.63188337e-05,
          -5.11626022e-05, -1.75731257e-05, -1.20725472e-05,
          -3.80125880e-06, -1.88569775e-05, 1.83067605e-05,
          -7.20660364e-06, -1.97907029e-05, 3.60344438e-06,
          -1.79979736e-07, -1.45028466e-07, -5.72164936e-07,
          -1.19904462e-05, -1.00023653e-05, 3.02516764e-05,
          -6.09992298e-07, -5.31040030e-07, -4.99012503e-06,
          8.36778418e-06, -7.56630743e-06, -6.19771572e-06,
          3.43764368e-05, -1.02859376e-05, -9.13613167e-06,
          -1.04494475e-05, -1.09257144e-05, -1.30597864e-05,
          8.22967104e-06, 1.46632283e-05, 1.08808053e-05,
          -1.35595656e-05, -5.08421408e-06, -1.00612369e-05,
          -7.06906440e-06, -6.35583228e-06, -1.10549499e-05,
          -4.06562413e-06, -1.23115467e-06, 1.77722450e-05,
          3.64643493e-05, 1.89748826e-05, 1.16485026e-05, 2.06948571e-05,
          -2.63203183e-05, -1.64461198e-05, -8.67930157e-06,
          1.92035368e-05, -2.52327891e-06, 7.69169219e-06,
          -1.72002942e-07, 8.94876575e-06, 2.88713181e-06 ]
      - [ -9.57749671e-06, 2.22673862e-05, -6.84151064e-06,
          -7.49241644e-06, -1.30747867e-05, -6.08657592e-06,
          -1.15785087e-05, -1.21058983e-05, -2.14892807e-05,
          -9.18421028e-06, -2.22573726e-05, -1.31551878e-05,
          -1.18668977e-05, -8.80944754e-06, -2.48989072e-05,
          -1.13035476e-05, -1.32218511e-05, 2.06424829e-05,
          -1.17111222e-05, -7.32578519e-06, -7.52860115e-06,
          -1.50396645e-05, -9.46805449e-06, -5.95148504e-06,
          -2.01696112e-05, 3.12266384e-05, 2.77075796e-05,
          2.19984940e-05, 4.08560436e-06, -2.79471406e-05,
          -9.02355987e-06, 6.28397311e-06, 8.56712086e-06,
          2.52632908e-05, -5.41773625e-06, -7.72377643e-06,
          -1.17065019e-05, -1.39941894e-05, -2.01053681e-05,
          4.58016575e-06, 3.56745259e-05, 6.51703203e-06,
          -2.66700790e-05, -6.40586677e-06, -1.55850394e-05,
          -1.05129893e-05, -1.63986388e-05, -8.57525356e-06,
          3.11907684e-06, -8.12523103e-06, -3.51953418e-06,
          3.06843212e-05, -8.78990340e-06, -3.40979641e-05,
          7.29257044e-06, 8.53489928e-06, 2.31071590e-05,
          -1.15077000e-05, -3.79872586e-06, -2.21985210e-05,
          -8.46968305e-06, -5.26029589e-06, 2.90079624e-05,
          4.61012223e-06 ]
      - [ 4.34909998e-06, -1.14556833e-05, -2.15410273e-05,
          4.37378549e-06, -9.93229878e-06, -3.84093846e-06,
          -5.06531569e-06, -5.71216833e-06, -1.06817861e-05,
          -2.41749076e-05, -1.52637331e-05, -5.54407143e-06,
          -7.61648789e-06, -1.95570919e-06, -7.38008202e-06,
          -3.77352808e-06, -1.39622825e-05, 3.51741655e-05,
          1.58936273e-05, -2.04244607e-05, -3.97268486e-05,
          -1.28460815e-05, -4.00273530e-06, -1.42685144e-06,
          -2.05089805e-06, 2.70230030e-05, 3.79783050e-05,
          1.32125842e-06, -2.22804611e-05, -2.81775829e-06,
          6.45719592e-06, 3.08841868e-06, -1.12750749e-05,
          3.00062457e-05, -8.34126149e-06, -7.01511817e-06,
          -9.20362254e-06, -1.05567642e-05, -1.82236745e-05,
          -1.09463044e-05, 1.93358301e-05, 2.83420650e-05,
          -1.05475547e-05, -8.91182754e-06, -4.10575649e-06,
          -9.89550517e-06, -1.03434968e-05, -1.83837565e-05,
          -8.81272354e-06, -2.19925332e-05, 7.74286673e-06,
          5.91555818e-06, 8.90375702e-07, 1.01896503e-05, 2.41736216e-05,
          -1.38076875e-05, 8.51034292e-06, -8.51407822e-06,
          -2.40518420e-06, -6.31207467e-06, -5.58193278e-06,
          4.88571118e-07, 1.08637787e-05, 3.41097711e-06 ]
      - [ -3.55992415e-05, 3.32874311e-06, 1.76736989e-06,
          7.25827022e-06, -1.35556672e-06, -6.89328914e-08,
          -2.09872383e-06, -8.98891358e-06, -3.04442001e-05,
          -1.28595748e-05, 1.20661139e-06, 1.14077139e-07,
          1.16093517e-07, 4.76333852e-08, -7.92496024e-08,
          1.92698826e-06, -1.68403803e-05, 1.66740138e-05,
          -9.87813291e-06, 3.09357642e-06, -2.55784812e-06,
          -1.79669325e-06, -5.13963869e-07, -8.96482652e-06,
          -2.20499041e-05, 6.78367223e-06, 4.78446782e-06,
          7.43699911e-06, -1.64153300e-06, 5.55609222e-06,
          6.86571127e-07, -2.34861709e-05, -8.82177301e-06,
          6.81039819e-06, -1.11524896e-05, -6.40413373e-06,
          -1.12576017e-05, -6.89114086e-06, -1.22987904e-05,
          2.65896551e-06, 8.67082781e-06, 8.68837833e-06,
          -5.53332484e-06, -6.04436173e-06, 3.49841059e-07,
          -1.25790575e-06, -2.11192059e-06, -3.60002123e-05,
          -3.75658637e-05, -1.83861193e-05, 1.33747635e-05,
          9.10089238e-06, 6.19224420e-06, 4.67282746e-07, 5.13479699e-06,
          -1.48335885e-05, 9.89679847e-06, -2.00435661e-05,
          3.99202236e-06, -2.12653413e-06, -6.21527079e-06,
          -2.18539412e-06, 2.91873903e-06, 3.04391762e-07 ]
      - [ 2.45300271e-05, 6.32148840e-06, -3.72860741e-05,
          -3.28057395e-05, 1.79306207e-05, 9.00914256e-06,
          -1.14032980e-06, 1.37776692e-06, 1.16394961e-06,
          -1.15628723e-06, -4.88158457e-06, -3.37158895e-07,
          6.49359072e-06, -2.15420164e-06, -1.34777620e-05,
          -1.44623300e-08, -1.11272147e-05, 7.55625820e-07,
          -1.59871979e-05, 1.10489862e-06, 3.34797051e-06,
          -2.58437249e-05, 2.30868537e-07, 5.73964508e-06,
          3.63462419e-07, 5.38824997e-06, 1.37668685e-05,
          -1.87958194e-05, 3.33450294e-06, 1.37997322e-05,
          4.97191377e-06, 7.45391662e-06, 2.48433616e-06, 5.74802334e-06,
          -3.93285245e-06, -6.65260086e-06, -9.17852412e-06,
          3.59297792e-06, -6.52684832e-07, -2.36764731e-06,
          2.02517986e-05, 1.69926227e-06, -4.19350981e-05,
          9.78723392e-07, -8.04144747e-06, -2.89100399e-07,
          2.39963106e-06, 2.41908310e-06, -1.50731339e-05,
          -2.75878028e-05, -2.83126556e-05, -1.37083098e-05,
          3.87208547e-06, 4.82769283e-05, 3.19845458e-06, 7.57190946e-06,
          -1.69435843e-05, 5.01070735e-06, -3.21130392e-05,
          -1.65244655e-05, -2.78410425e-06, 3.31803894e-05,
          -1.06354819e-05, -1.79426945e-06 ]
      - [ 4.07832067e-06, -4.39167452e-05, 3.22826509e-07,
          1.30486467e-06, 5.42204407e-06, 1.50130393e-06, 3.68465578e-08,
          -3.50056575e-06, -7.62691457e-08, -2.03969284e-05,
          -5.30776015e-06, 8.95760550e-08, 8.99188251e-07,
          1.16520482e-06, 1.22665433e-05, 8.56316547e-06,
          -3.34073002e-06, -5.86507804e-06, 2.45494448e-06,
          1.27332396e-05, -4.24103519e-07, -1.79622566e-06,
          1.58415389e-07, 1.21175015e-06, -8.55035637e-07,
          -1.60234038e-06, -1.53519795e-05, -6.49709182e-06,
          5.58503689e-06, 1.10483952e-05, 7.13571126e-06, 7.45630587e-06,
          -8.34042680e-07, 3.03221924e-07, -1.52499354e-06,
          -1.13224223e-05, -8.18893932e-06, -4.20714457e-07,
          3.49258562e-06, -3.65663846e-06, 6.31281637e-06,
          5.94375842e-06, -9.38760604e-06, 2.96747521e-06,
          -2.33167441e-07, 8.26781957e-07, 3.16460228e-06,
          -3.93855998e-06, -5.98640690e-06, -1.79935469e-05,
          -5.69565418e-06, -5.55378529e-06, 1.87376427e-05,
          2.65241833e-05, 5.95846018e-07, -1.27505166e-06,
          -1.86320922e-05, -1.11400614e-05, -9.72503312e-06,
          -4.39993073e-06, 1.52212206e-05, 1.47792707e-05,
          -3.80993288e-06, -4.70437681e-06 ]
      - [ 1.04166411e-05, 8.29085184e-06, -1.55737434e-05,
          -2.67645009e-05, -8.75063415e-06, 9.72896828e-07,
          -8.53968140e-06, -1.09770835e-05, -1.18597527e-05,
          -1.51888516e-05, -2.07817029e-05, -1.44567848e-05,
          -1.76649746e-06, 1.92829179e-06, 1.44099404e-05,
          5.03556657e-06, -1.09125167e-05, -1.15563876e-06,
          2.29568954e-07, 7.22181676e-06, 2.40130748e-06,
          -1.15886050e-05, -7.86982764e-06, 5.44495515e-06,
          -4.02010937e-06, -1.36603580e-06, -1.25858980e-06,
          4.65986477e-06, 1.71188785e-05, 4.46482682e-06,
          -1.24207618e-05, 1.78118376e-06, 1.17471563e-06,
          5.03278989e-06, 2.75838693e-06, -5.53079462e-06,
          1.07255846e-05, 1.96640267e-05, 1.27689327e-05, 5.06332799e-06,
          2.47083517e-05, 1.22458914e-05, 1.19944125e-05,
          -2.62408084e-05, -7.37917708e-06, 1.85269050e-06,
          9.15457986e-06, 3.76412663e-06, 8.66197934e-06,
          -5.67547067e-06, 6.63075809e-07, -2.28733325e-06,
          1.79130329e-05, 4.01285652e-05, -7.50599565e-06,
          -6.14074133e-06, -1.02438089e-05, 3.20859567e-06,
          -1.35197979e-05, -2.08480219e-06, 2.66227235e-05,
          3.07678856e-05, -2.77052777e-06, -8.07288416e-06 ]
      - [ -1.86127727e-05, -8.77864295e-06, -3.01540640e-05,
          3.50299638e-06, 1.17240907e-05, -5.64932407e-07,
          -5.84377403e-06, -2.10257222e-05, -2.09947593e-05,
          -3.32627606e-05, -1.83099673e-05, -3.02478225e-06,
          5.36606331e-06, 5.42695943e-06, 3.15691213e-05, 1.60722193e-05,
          -2.68837448e-05, -8.94683762e-06, 1.84110650e-05,
          1.92420266e-05, -1.94515655e-06, -1.59744159e-05,
          -6.05149717e-06, -1.98545913e-05, -1.20800496e-05,
          -1.45059730e-05, 5.16329862e-07, 7.30970260e-06,
          3.25927249e-05, -1.90842784e-05, -1.31545967e-05,
          -1.09315697e-05, -3.11175813e-06, 8.85239024e-06,
          -7.06884157e-06, -8.64775029e-06, 1.14907198e-05,
          1.38714404e-05, 7.14261341e-06, -1.64020821e-06,
          2.63231304e-05, 1.42737099e-05, 1.43051575e-05,
          -1.02290805e-05, -2.35162279e-05, -1.11047584e-05,
          2.15700629e-06, -1.74224522e-06, 5.30152693e-06,
          -1.85067092e-05, -8.74993202e-06, -1.73954795e-05,
          1.11546778e-05, 2.55039376e-05, -6.39360678e-06,
          -8.04761021e-06, -2.18711994e-05, 1.19566530e-05,
          -1.01793712e-05, -6.82381688e-06, 1.08043841e-05,
          2.77073832e-05, -9.55703126e-06, -3.82254984e-06 ]
      - [ 3.13095484e-06, 1.49048783e-05, -1.99098554e-06,
          -1.12374737e-05, -2.12477698e-06, 3.68842143e-06,
          -1.08382710e-06, -1.20668881e-06, -3.91180311e-06,
          -1.64126345e-06, 3.06036185e-07, -1.80546085e-05,
          -3.61134553e-05, -8.39543281e-06, 1.25871975e-05,
          4.95914946e-06, -1.22163156e-05, 4.92718345e-06,
          -1.10649637e-06, -5.45166313e-06, 1.46652746e-05,
          1.31195736e-06, 5.23482458e-06, 8.76526315e-07,
          -2.05298275e-05, -1.33007597e-05, -9.88283887e-07,
          6.21933805e-06, 1.49726111e-05, 3.35448090e-06, 8.49345724e-06,
          -1.04357950e-05, -8.41333076e-06, -3.31922450e-07,
          6.39087261e-07, -1.53457950e-05, -3.51926565e-06,
          7.05015236e-06, 9.38586538e-07, -4.92454683e-06,
          6.37852690e-06, 3.68548581e-06, -3.51350842e-08,
          -7.69931376e-06, -7.18931187e-06, -1.63607046e-06,
          6.77597291e-06, -2.09809764e-06, -1.29408556e-06,
          -2.23960205e-06, 8.46264470e-07, -2.12211557e-06,
          2.84000816e-05, 5.15104657e-05, 2.09318046e-06,
          -1.94359727e-05, -2.21926311e-05, 2.49102391e-06,
          -2.18638593e-06, -1.67299493e-06, 3.16391997e-05,
          2.73945680e-05, -2.84869361e-06, -1.05570434e-05 ]
      - [ 1.96298279e-05, 9.61360911e-07, -2.35425468e-05,
          -2.94296551e-05, 1.02194815e-06, -1.94763379e-05,
          -2.57885040e-05, -1.62129381e-05, -1.37051529e-05,
          -2.10958769e-05, -2.97916213e-05, -1.30590988e-05,
          -3.68440510e-06, -1.14479462e-05, -1.78087175e-05,
          1.75097011e-05, -2.38665943e-05, -1.65446963e-05,
          -3.02549488e-05, 3.41677151e-05, 2.31482081e-05,
          -4.38906027e-05, 2.48635388e-06, 9.24463711e-06,
          -2.20865168e-05, -1.54611589e-05, 2.76488081e-05,
          4.31203334e-05, 3.10822543e-05, -2.97018232e-06,
          -1.39188860e-05, -8.24405743e-06, -1.51408249e-05,
          4.09832683e-06, -1.29259906e-05, -1.55407743e-05,
          -2.94681081e-06, 2.70253786e-05, -4.66985483e-07,
          -9.45215743e-06, 2.43516697e-05, -1.76110025e-05,
          1.27224039e-05, -5.51502444e-06, -4.22140401e-05,
          -2.79952092e-05, 1.06363359e-05, -1.66923492e-05,
          1.36796671e-05, -1.73812732e-05, -8.50078141e-06,
          -3.47461173e-05, 3.82224215e-07, 1.69344239e-05,
          -2.37967615e-05, -1.42576454e-07, -2.15324126e-05,
          3.01463115e-05, -1.40480397e-05, -5.22216360e-05,
          3.00385254e-05, 4.57800816e-05, -1.71638967e-05,
          -2.13829662e-05 ]
      - [ 7.64481501e-06, -3.13452765e-05, -2.45884203e-05,
          -6.21828349e-06, 4.25498257e-07, -5.20946878e-06,
          -6.64404297e-06, -5.68093219e-06, -1.74352936e-05,
          -1.75208734e-05, -1.15126695e-05, -6.42775649e-06,
          -1.72967430e-06, -7.73335103e-07, 1.54925201e-05,
          1.67142798e-06, -6.62190132e-06, 4.45543265e-06,
          9.96536892e-06, -9.46875116e-06, -7.23709536e-06,
          -7.23410892e-07, 2.25090730e-06, 1.87625369e-06,
          8.67474682e-07, 2.07373523e-06, 1.17960444e-05, 1.39968961e-06,
          3.94981043e-06, 2.69791462e-06, 3.13107375e-06, 8.81118558e-06,
          -8.18083936e-06, -5.93158711e-06, -4.87299121e-06,
          -1.19381057e-05, -7.84837084e-06, 4.67089558e-06,
          6.30436034e-06, -2.57329812e-05, 1.24344879e-05,
          2.56214989e-05, 3.93922562e-07, -6.18189051e-06,
          -9.31425438e-06, -6.83814505e-06, 5.63539152e-06,
          -7.76911838e-06, -5.00061878e-06, -1.94656932e-05,
          -1.84949556e-07, -1.88136637e-05, 2.08973415e-05,
          4.89995909e-05, 7.35336198e-06, -2.28003810e-05,
          -2.44978928e-05, 1.30310336e-05, -9.11315419e-06,
          -1.17429045e-05, 1.01960422e-05, 3.61552447e-05,
          -1.23487525e-05, -1.27034282e-05 ]
      - [ -2.39972815e-05, -9.21853552e-06, -1.10854046e-06,
          6.60752164e-07, 4.03343984e-06, 2.96275630e-07,
          -1.64147559e-06, -6.83059488e-06, -2.23322149e-05,
          -7.93600611e-06, 0., 0., 0., 4.04302767e-07, 1.19341912e-05,
          7.48392858e-06, -5.73843681e-06, -6.43830481e-06,
          -2.14666920e-06, 1.35672981e-05, 8.59324518e-06,
          3.73031895e-07, 2.85900001e-06, -4.18514355e-06,
          -1.31215602e-05, -7.36145466e-06, -5.36953939e-06,
          8.88627164e-06, 1.01261894e-05, 4.41027714e-06, 2.02950972e-07,
          -1.32814257e-05, -1.27497406e-05, -3.96526912e-06,
          -5.26292752e-06, -3.92869470e-06, -5.60834860e-06,
          1.02974013e-06, -1.70814758e-06, -1.21530593e-05,
          3.68896144e-06, 9.72372800e-06, -7.30994429e-07,
          -3.15282773e-06, -6.47262937e-07, -6.22349773e-07,
          4.62406388e-06, -2.43917839e-05, -2.75233924e-05,
          -1.33986960e-05, 1.12142448e-06, -6.97656697e-06,
          1.76413942e-05, 2.27794408e-05, -6.48046944e-06,
          -1.84532328e-05, -1.33224330e-05, -2.87075841e-06,
          -1.71203453e-06, -1.08336326e-06, 1.55551588e-05,
          1.67943726e-05, -1.22207402e-05, -1.46314433e-05 ]
      - [ 2.18405967e-06, -5.55020342e-05, 1.51062459e-05,
          1.63021905e-05, -2.14491990e-07, 0., 8.47530885e-07,
          -2.68448048e-06, 3.19503130e-07, -2.04084226e-05,
          -9.80539971e-06, 6.53251277e-07, 6.98749290e-08,
          2.86287059e-06, 2.07685734e-05, 1.27538578e-05, 5.11925145e-06,
          -7.44617591e-06, 3.47284640e-06, 1.22177271e-05,
          3.85115891e-06, 1.19289098e-05, 2.98293116e-06,
          -3.24779876e-06, 1.01881801e-06, -5.65219580e-06,
          -1.78102764e-05, -4.92454501e-06, -1.68858617e-06,
          1.31546703e-05, 2.83883810e-06, 6.94705932e-06,
          -3.81910831e-06, -7.54344228e-06, -6.02729733e-06,
          -8.55750295e-06, 7.78920912e-06, 1.20200757e-05,
          5.68949235e-06, 9.88425995e-07, -5.57713156e-06,
          1.61270918e-06, 5.12739689e-06, 1.04377759e-05, 4.37572180e-06,
          1.34368156e-06, 3.01178306e-06, -4.85888995e-06,
          -3.57059275e-06, -1.57771774e-06, 1.57164698e-06,
          1.63403581e-06, 1.49546386e-05, 5.79451080e-06,
          -5.09530423e-07, -1.02825629e-06, -1.69446866e-05,
          -2.06933928e-05, -1.76554022e-06, 2.90877847e-06,
          1.60050386e-05, 3.14371732e-06, 3.90227933e-06,
          -3.83581119e-06 ]
      - [ -8.89364856e-06, 9.02892498e-06, 1.38736432e-05,
          -1.19404503e-05, -1.64999019e-05, -6.38865777e-06,
          -1.46115517e-05, -1.58251532e-05, -1.36238223e-05,
          -1.45428166e-05, -2.07050161e-05, -2.06392924e-05,
          -5.39050870e-06, 3.18369166e-06, 2.26940047e-05,
          3.01065916e-06, -2.98847590e-06, 5.93568075e-06,
          6.16228544e-06, 7.37953360e-06, 6.18363447e-06, 2.47230400e-06,
          -1.18023927e-05, -1.83558450e-06, 5.46897105e-08,
          -3.12610427e-06, -1.76264348e-05, 2.13442672e-05,
          2.36795186e-05, -8.22411403e-06, -2.31157628e-05,
          -3.01912610e-06, 3.22321597e-07, 2.35836592e-06,
          5.26531994e-06, -3.44792556e-06, 1.85928329e-05,
          2.04187745e-05, 1.44211353e-05, 1.02250833e-05, 1.22672600e-05,
          2.32048933e-05, 3.70360249e-05, -3.26982226e-05,
          -4.55194049e-06, 7.19147806e-07, 5.91800426e-06,
          -3.29835160e-07, 1.47241999e-05, 1.42272193e-05,
          1.69065625e-05, 1.16933543e-05, 3.22411579e-05,
          -8.70567050e-08, -1.39287549e-05, -1.32894584e-05,
          -5.24698135e-06, -3.50721143e-06, 2.36577603e-06,
          1.03195343e-05, 3.23594686e-05, 5.90509126e-06, 2.04049775e-06,
          -7.31620275e-06 ]
      - [ -2.69785687e-05, -2.52205991e-05, 4.72211741e-06,
          2.80790191e-05, -6.01510055e-06, -6.08663868e-06,
          -2.92124810e-06, -1.11122863e-05, -1.66823047e-05,
          -2.82683450e-05, -1.28532347e-05, -5.39242706e-07,
          2.16212200e-07, 6.31478088e-06, 3.30890762e-05, 1.68549705e-05,
          -1.15032617e-05, -2.82970586e-06, 1.61627049e-05,
          1.66108257e-05, 4.83343001e-07, 9.58936198e-06,
          -4.06808749e-06, -1.94268450e-05, -1.13322649e-05,
          -1.45329386e-05, -1.26851473e-05, 2.51953370e-05,
          8.63788227e-06, -1.42696244e-05, -1.68682418e-05,
          -1.58333787e-05, -3.78787990e-06, 2.33762944e-06,
          -1.81542191e-06, 3.01392583e-06, 2.38332614e-05,
          1.22658021e-05, 9.11703228e-06, -3.39382404e-06,
          3.04152582e-06, 1.13402302e-05, 3.59014593e-05,
          -3.21611583e-06, -1.08124668e-05, -1.41492064e-05,
          1.19511958e-06, -3.49367042e-06, 2.19995763e-05,
          1.56097994e-05, 5.77853416e-06, -9.42060160e-06,
          -7.03066598e-06, -1.95280172e-05, -7.94480911e-06,
          -1.03783723e-05, 2.55484360e-06, 3.03867455e-06,
          8.34534603e-06, 1.88239267e-06, 1.08714175e-05,
          -2.62691424e-06, 1.44827777e-06, -2.87826697e-06 ]
      - [ -3.61069806e-06, 8.69264204e-06, 2.03059662e-05,
          5.07371669e-06, -9.28982081e-06, -4.00381452e-07,
          -1.79419274e-07, -1.70488352e-06, -3.96067890e-06,
          -4.18573450e-07, 3.19083983e-06, -1.99239857e-05,
          -3.56557612e-05, -5.05574803e-07, 1.98760481e-05,
          4.45661044e-06, -9.02735610e-06, 8.97019800e-06,
          -5.20257743e-07, 3.08991048e-06, 1.70013955e-05,
          1.95560351e-05, 6.27564350e-06, -3.86785086e-06,
          -2.24978849e-05, -1.68496063e-05, -1.18584003e-05,
          1.79000999e-05, 1.61609059e-05, 8.74285263e-07,
          -5.02039347e-06, -1.60435393e-05, -6.03553053e-06,
          -6.89693934e-06, 7.51145762e-07, -9.18592104e-06,
          1.23155796e-05, 1.06426996e-05, 3.73381340e-06,
          -1.96434189e-06, -1.35493092e-05, 1.62820277e-06,
          2.27689015e-05, -6.50964694e-07, 4.95717359e-07,
          -1.13074941e-06, 8.17189516e-07, -5.08395033e-06,
          1.53274232e-06, 2.05094348e-05, 1.88205431e-05, 1.16817973e-05,
          3.05493668e-05, 1.02918893e-05, -2.35091807e-06,
          -2.31129634e-05, -1.34539796e-05, -3.58838292e-06,
          1.87218047e-05, 1.29048422e-05, 2.62101967e-05, 9.39795973e-06,
          6.48552214e-06, -8.88841805e-06 ]
      - [ 3.83757060e-06, -5.99084231e-08, 1.95572720e-05,
          2.82757337e-05, -2.06215245e-05, -1.52633329e-05,
          -1.10896008e-05, -1.45967106e-05, -1.59444444e-05,
          -1.59747742e-05, -1.47657238e-05, -5.93175173e-06,
          -1.73562403e-05, -1.27399162e-05, 2.51347083e-05,
          3.38722634e-06, -8.57908890e-06, -4.66937718e-06,
          -2.74875492e-05, 2.19994090e-05, 2.44720977e-05,
          1.84879464e-05, 5.12589907e-07, -7.22711866e-06,
          -1.22712236e-05, -1.48638246e-05, -1.03672101e-05,
          4.96469838e-05, 3.29031318e-05, -2.88167630e-05,
          -2.88187584e-05, -6.56275006e-06, -4.60141155e-06,
          -1.51208833e-05, -1.33483563e-05, 7.77818968e-07,
          3.94654535e-06, 1.80915436e-06, 7.31208320e-06,
          -8.73029239e-06, 1.78771495e-06, 7.08932112e-06,
          4.09710556e-05, -6.19213694e-08, -3.21302650e-05,
          -1.69096256e-05, -2.87099715e-06, -1.65808542e-05,
          2.42924216e-05, 3.09270181e-05, 1.95719240e-05, 7.08241885e-07,
          1.65738929e-05, -4.05573810e-05, -1.93695923e-05,
          -2.70546097e-05, -1.95064786e-06, 4.37030667e-06,
          1.59924675e-05, -6.54179030e-06, 2.10343533e-05,
          -1.54650752e-06, 3.16456249e-06, -8.25082395e-07 ]
      - [ 3.73645298e-06, -2.36176093e-05, 1.53642050e-05,
          2.86705745e-05, -2.11401984e-05, -8.32748628e-06,
          -9.25838140e-06, -7.05958064e-06, -1.54325262e-05,
          -1.72429136e-05, -2.18659097e-05, -5.20205549e-06,
          -1.30990838e-05, 1.04432111e-05, 2.43167142e-05,
          1.44347887e-05, 2.28126942e-06, 7.39682264e-06, 8.42088593e-06,
          -1.46058392e-05, -4.51661754e-06, 1.66631817e-05,
          8.95688208e-06, -5.58208910e-07, 1.85097701e-06,
          -2.25575172e-06, 1.63028028e-06, 1.68409060e-05,
          -6.61260401e-06, 9.51527818e-06, -6.69893734e-06,
          6.31862576e-06, -2.65768849e-05, -1.31673978e-05,
          -3.79612459e-07, -5.05646028e-07, 3.06339025e-05,
          2.33912597e-05, -9.70361270e-07, -3.42240928e-05,
          -1.35634059e-06, 2.69186112e-05, 4.73187501e-05,
          4.98934833e-06, -2.79839605e-06, -1.99157021e-05,
          -1.08192735e-05, -2.07206249e-05, 4.40049416e-06,
          2.05934566e-06, 1.04137671e-05, -7.00637111e-06,
          2.10373073e-05, 1.22195361e-05, 3.70846942e-06,
          -2.19157246e-05, -9.28833742e-06, 4.44120190e-07,
          7.24204619e-06, 1.51961194e-06, 2.95928985e-05, 1.04742649e-05,
          1.97264944e-06, -2.34780055e-05 ]
      - [ -1.96197707e-05, -1.26729701e-05, 1.50541564e-05,
          1.15900630e-05, -1.05433685e-06, -8.60828298e-10,
          -9.12131156e-07, -4.14738861e-06, -2.20828642e-05,
          -1.04988003e-05, 1.59358990e-06, 3.74644287e-07,
          7.88231986e-08, 1.67972007e-06, 1.58424609e-05, 6.98716167e-06,
          -6.97745099e-06, -5.69934582e-06, -6.49885169e-06,
          9.16268527e-06, 8.91520540e-06, 1.14725499e-05, 4.06956588e-06,
          -7.42070915e-06, -1.88833819e-05, -8.88629165e-06,
          -8.63191599e-06, 1.69481391e-05, 2.18148216e-06,
          6.39444443e-06, -5.62779724e-06, -8.37545758e-06,
          -9.39163874e-06, -7.25010932e-06, -5.68357427e-06,
          -4.39961525e-07, 7.31393447e-06, 8.51984169e-06,
          -7.93649235e-07, -5.36347079e-06, -9.37461573e-06,
          8.78094306e-06, 1.76809554e-05, 4.23714391e-06, 3.03263619e-06,
          8.04488494e-08, 7.43543183e-07, -2.15867676e-05,
          -1.56223541e-05, 3.37960273e-06, 6.82634573e-06,
          3.08792664e-06, 7.00156261e-06, 2.02447450e-06,
          -5.88067269e-06, -1.93153901e-05, -6.71356975e-06,
          -7.41905797e-06, 6.68276789e-06, 3.67623579e-06,
          1.15779649e-05, 7.82796405e-08, -3.44533578e-06,
          -1.36934923e-05 ]
      - [ -3.37414167e-06, 4.91445317e-05, -1.24588905e-05,
          -1.96743295e-05, -7.53926497e-06, -2.67859036e-06,
          -6.59269290e-06, -3.79657558e-06, -8.77595903e-06,
          1.43228117e-05, -8.86787529e-06, -8.27779240e-06,
          -2.19450703e-06, -1.39460440e-06, -2.11014094e-06,
          -6.77349090e-06, -3.11459235e-06, 9.96105791e-06,
          1.49491711e-06, -7.51793368e-06, 3.32965919e-06,
          -6.56505108e-06, -1.03858983e-05, 1.08705672e-06,
          7.48116406e-07, 2.24561904e-06, 9.76602223e-06, 1.39662561e-05,
          5.33414141e-06, -8.75489695e-06, -1.86071902e-05,
          -4.54227802e-06, 1.00032503e-06, 6.38293568e-06,
          5.76560342e-06, 4.33157675e-06, 7.02869420e-06, 3.22857227e-06,
          2.31059562e-06, 7.08506604e-06, 1.39696149e-05, 8.20638979e-06,
          6.72798660e-06, -2.48165943e-05, -4.38615916e-06,
          -6.92378421e-07, 1.22143445e-06, 4.62682738e-06,
          9.13535496e-06, 1.05547124e-05, 5.89348656e-06, 4.06726031e-06,
          9.72446855e-07, -8.68592360e-06, -7.43429337e-06,
          -4.48427613e-07, 7.72954445e-06, 1.71651991e-05,
          4.24597192e-06, 2.64917048e-06, 3.99017881e-06, 5.45879004e-07,
          -7.94748800e-08, -4.03526258e-07 ]
      - [ -1.87036239e-05, 2.85303922e-05, -1.86998113e-06,
          -1.75692634e-07, -6.48488367e-06, -3.36602034e-06,
          -1.63444884e-06, -1.78516231e-07, -2.12929572e-05,
          -9.50138201e-06, 1.32694950e-05, -1.95240631e-07,
          8.42032009e-08, 0., -9.91260296e-10, -2.86072265e-07,
          -1.43568113e-05, 1.69568812e-05, 1.36537756e-05,
          1.17602212e-06, -7.33206070e-06, -1.96239907e-05,
          -4.25656708e-06, -9.20767616e-06, -3.82472308e-06,
          -6.78121842e-06, 1.60902819e-05, 2.72732796e-05,
          2.32118000e-05, -2.87531875e-05, -2.48683391e-05,
          -3.15533143e-05, 5.47043373e-06, 9.39267375e-06,
          8.84885321e-06, 1.66754689e-05, 1.57933137e-05,
          -5.21069842e-06, 2.18055652e-06, 7.79789025e-06,
          2.54792394e-05, 1.81810140e-06, 1.36124763e-05,
          -1.14235727e-05, -1.59110295e-05, -1.27810335e-05,
          1.24476469e-06, 6.22718790e-06, 2.04744265e-05, 1.63926634e-05,
          -8.25683856e-07, -1.06584057e-05, -1.95977791e-05,
          -1.48272311e-05, -9.39350593e-06, 2.30217665e-06,
          1.66899117e-05, 2.36416436e-05, 4.89149215e-06,
          -3.81773043e-06, 2.11936003e-06, 8.70239433e-07,
          -1.58420539e-06, 1.40685631e-06 ]
      - [ 2.49518052e-06, 5.44827599e-05, -3.40907195e-06,
          -1.33032245e-05, -3.82835151e-06, -1.96783361e-07,
          -3.11126257e-07, 2.71833642e-06, -9.69486223e-07,
          1.96085384e-05, 7.34235982e-06, -1.47899837e-05,
          -2.49460099e-05, -7.26211420e-06, -4.20728657e-06,
          -7.24411530e-06, -9.32488456e-06, 1.08304484e-05,
          -1.42683643e-06, -1.35734772e-05, 9.34927812e-06,
          3.16428645e-06, 2.93993958e-06, 8.78551305e-07,
          -6.20569517e-06, -5.14523344e-06, 9.63182902e-06,
          1.07484975e-05, 6.76361060e-06, -8.15197018e-06,
          -3.92182983e-06, -1.31892093e-05, -4.67805739e-06,
          1.17767868e-07, 1.35504115e-06, 5.30810939e-06, 5.85851240e-06,
          1.90987112e-06, -2.59252533e-06, 4.57955025e-07,
          -4.01923535e-06, -3.33209255e-06, 7.58236320e-06,
          -5.67811367e-06, -6.73943259e-06, -2.43100226e-06,
          -9.61201636e-07, 1.38862958e-06, 4.49236268e-06,
          1.61403841e-05, 6.10771758e-06, 5.12228780e-06, 3.15002558e-06,
          3.26487651e-07, -2.59406306e-07, -7.95522192e-06,
          -5.77511992e-06, 1.14715931e-05, 1.21796829e-05,
          4.74885564e-06, 3.99342252e-06, 2.69425846e-06, 2.43750424e-06,
          -1.00757507e-06 ]
      - [ 2.02285219e-06, 5.25944997e-05, -1.75804162e-05,
          -3.73426678e-06, -5.75493004e-06, -7.88763919e-06,
          -6.35755487e-06, -7.13239331e-07, -1.20185296e-05,
          1.72364562e-05, -2.25179156e-06, -6.50333686e-06,
          -5.85784164e-06, -1.00995749e-05, -1.17953796e-05,
          -4.12548616e-06, -2.96388816e-06, 2.13857470e-06,
          -1.14862632e-05, -1.22210577e-06, 8.39619588e-06,
          -4.28565318e-06, -3.92580944e-07, 6.92361311e-07,
          -6.06904996e-06, 1.57853333e-06, 2.18224795e-05,
          2.31542199e-05, 1.44539206e-06, -2.12705199e-05,
          -1.41222745e-05, -1.06126454e-05, 3.21942970e-08,
          -2.83078975e-06, 3.73305852e-06, 9.62307331e-06,
          2.12913505e-06, -1.00013278e-06, -3.53425321e-06,
          -1.27062890e-06, 7.23559970e-06, -1.68455585e-06,
          1.13416263e-05, -7.32616672e-06, -1.88777067e-05,
          -6.05141577e-06, -3.82773578e-06, -1.54226711e-06,
          1.42196495e-05, 1.69934683e-05, 1.82842678e-06, 5.32799959e-07,
          -5.08939820e-06, -1.95780922e-05, -6.08700839e-06,
          -4.49335573e-07, 5.51063704e-06, 1.94739314e-05,
          9.33710510e-07, -7.41843269e-06, -2.29334591e-06,
          -1.37414111e-06, 1.77382572e-06, 3.45964509e-06 ]
      - [ 8.09130506e-06, 3.48959256e-05, -1.92757798e-05,
          -1.74797731e-06, -5.65931350e-06, -2.29885154e-06,
          -4.14212218e-06, 7.20831963e-07, -1.32242112e-05,
          1.12228417e-05, 7.80173195e-06, -6.63351238e-06,
          -9.13526219e-06, -5.45528906e-07, -3.04755281e-06,
          -4.81162078e-06, -4.90082948e-06, 2.33734645e-05,
          7.31293221e-06, -3.19508545e-05, -3.05416797e-05,
          -4.27776740e-06, 2.13844987e-06, 1.80433881e-06,
          2.01785883e-06, 1.03505718e-05, 3.54317199e-05, 1.88799677e-05,
          -1.05172057e-05, -1.68960378e-05, -2.29019060e-05,
          -1.16622250e-05, -1.97561676e-05, 4.86742510e-06,
          3.46531624e-06, 1.78213631e-05, 2.72038596e-05, 2.85092170e-07,
          -1.35759528e-05, -2.51450965e-05, -1.81850646e-05,
          1.68651022e-05, 3.17761842e-05, -6.13097245e-06,
          -4.34035064e-06, -1.09211478e-05, -2.04007429e-05,
          -1.15739567e-05, 2.43264403e-05, 5.05538355e-06,
          4.11153496e-06, -9.95522896e-06, -1.24682028e-05,
          -4.59407744e-07, -1.44492687e-05, -1.25255629e-05,
          1.05349809e-05, 1.83155498e-05, 1.75846963e-05, 4.14694159e-06,
          -7.54569442e-07, 1.44046476e-06, -8.77941147e-06,
          -2.03525888e-05 ]
      - [ -1.49128418e-05, 3.25775582e-05, -6.71250109e-06, 0.,
          -3.35990626e-06, 0., -8.34776188e-07, -8.48457887e-07,
          -3.35032564e-05, -2.33272090e-06, 1.36533145e-05,
          5.17157623e-08, 7.75885169e-08, 0., -4.65217376e-08,
          -1.51922518e-06, -1.45607910e-05, 2.20026976e-07,
          -1.51473023e-05, -6.41809947e-07, 1.34865486e-05,
          -8.11384837e-07, 4.60922183e-06, -1.79899689e-06,
          -3.79693738e-05, -1.20419390e-05, 1.83292632e-05,
          2.31855174e-05, 7.83354335e-06, -5.37456253e-06,
          -6.97341329e-06, -2.13190870e-05, -1.21781868e-05,
          -1.00894067e-05, -8.94789991e-06, 5.66421386e-06,
          5.87193563e-06, 7.67967947e-07, -8.55108919e-06,
          -1.46494926e-06, -1.60516458e-06, 5.64955599e-06,
          1.78585924e-05, -6.74945841e-06, -2.12053487e-06,
          -9.87452154e-07, -2.42372994e-06, -2.19214107e-05,
          -2.86287523e-05, -8.06233118e-07, 6.35769266e-06,
          2.18469449e-06, -2.19033200e-06, -5.08548055e-06,
          -7.16949853e-06, -1.90360679e-05, 1.99619967e-06,
          3.92836654e-07, 8.70041913e-06, 7.99265763e-06,
          -3.20804065e-06, 3.48740684e-07, -8.20215610e-06,
          -1.19400320e-05 ]
      - [ -8.37218540e-05, -6.09933886e-05, -3.73179375e-07,
          7.96381210e-05, 8.12004055e-06, -1.86779869e-06,
          6.10203051e-06, 4.19491926e-06, -4.09478389e-06,
          -3.68763758e-05, 3.17891568e-06, 2.17879733e-05,
          1.44952037e-05, 4.93263258e-07, 9.92475975e-07, 1.77969705e-05,
          -1.43479647e-05, 1.75813620e-05, 2.01229504e-05,
          5.39722396e-06, -2.67093092e-05, -1.21456296e-05,
          1.39432968e-05, -2.39107121e-05, -2.57609463e-05,
          -1.45562944e-05, 4.58575505e-06, 1.17357231e-05,
          -2.42908991e-05, -2.98648793e-05, 1.01766800e-05,
          -4.86157442e-05, 5.32138029e-06, -5.21836760e-08,
          -1.39205508e-06, 1.66759946e-05, 8.84320889e-06,
          -1.81054402e-05, 1.57774446e-06, -8.61191711e-06,
          -1.10712699e-05, 2.71347290e-06, 2.07114990e-05,
          3.30547482e-05, -1.03934017e-05, -1.30814333e-05,
          -1.21377138e-06, -4.06013640e-07, -2.31936338e-06,
          -1.91356662e-06, -1.06666012e-05, -1.29197142e-05,
          -7.28082841e-06, -3.56224664e-05, 3.54538292e-06,
          -1.70119947e-05, -2.54083552e-05, -1.33695094e-05,
          1.99705846e-05, 1.29342252e-05, -8.05677359e-07,
          -2.04410171e-05, -7.73057036e-06, -9.09311166e-06 ]
      - [ -2.12450886e-05, -3.01281625e-06, -7.64144261e-06,
          7.10161794e-06, 1.66554473e-05, 2.91757315e-05, 2.07537323e-05,
          2.70820383e-05, 1.10736128e-05, 1.80655188e-05, 1.97936224e-05,
          5.64430866e-06, -4.86415593e-05, -8.43830549e-06,
          6.63472747e-06, 3.33214629e-08, -2.13771054e-05,
          1.04479905e-05, -1.48792933e-05, 5.81430504e-06,
          2.48919823e-05, 2.74577505e-05, 2.42424849e-05,
          -1.38030728e-05, -3.53200885e-05, -4.12083045e-06,
          4.58327577e-06, -4.75461502e-06, 3.33719186e-06,
          9.00330360e-06, 3.64920888e-05, -2.14021147e-05,
          -7.94480093e-06, -1.77004258e-05, -2.04586449e-05,
          -4.21448931e-05, -1.67615872e-05, -6.13431621e-06,
          -2.01831990e-05, -2.46224063e-05, -4.22822595e-05,
          -4.77030917e-05, -2.24485848e-05, 4.04388447e-05,
          2.36428641e-05, -8.20604237e-06, -4.90086495e-06,
          -1.21355924e-05, -7.76653542e-06, 1.55794023e-05,
          5.52525898e-06, 1.90013543e-06, 1.05144545e-06, 1.40017846e-05,
          2.80898075e-05, -1.64769499e-05, -1.80429142e-05,
          1.00005691e-05, 2.45949686e-05, 2.09124983e-06, 1.88761226e-06,
          -7.16860029e-07, 5.22786104e-06, 2.85398551e-06 ]
      - [ -7.60739385e-06, -4.53888288e-06, 2.84348107e-06,
          3.82650142e-05, -8.65315542e-06, -1.55012840e-05,
          1.55232628e-05, 1.19951019e-05, 1.30212147e-05,
          -5.29185672e-06, 1.24228573e-05, 2.39011570e-05,
          1.04753854e-05, -2.00892027e-05, -8.02554405e-06,
          1.71737265e-05, -1.28219490e-05, -1.00951693e-05,
          -7.17430385e-06, 1.27041267e-06, 7.75525132e-06,
          1.86752040e-05, 4.37533345e-05, -5.31949036e-06,
          4.72669944e-06, 1.09969869e-05, 4.43464523e-05, 5.13844589e-06,
          -1.83512948e-05, -1.83425054e-05, 1.31643083e-05,
          -2.42222777e-05, -2.62805352e-05, -4.85866840e-05,
          -3.50941373e-05, -1.87294554e-05, -4.56816342e-05,
          -3.16259466e-05, -3.18409184e-05, -3.99365454e-05,
          -4.24067730e-05, -3.57780918e-05, -4.38666175e-05,
          4.31646840e-05, -1.32822897e-05, -3.75403142e-05,
          -2.01378880e-05, -3.68029105e-05, -3.88440822e-06,
          1.60486761e-05, -1.17642749e-05, -3.22026754e-05,
          -9.06296646e-06, -6.50674046e-05, -2.32160764e-05,
          -9.61773912e-06, -1.23136033e-05, -1.10034034e-05,
          -1.52177163e-05, -2.25033255e-05, -2.70658365e-05,
          -3.09883444e-06, 1.06227690e-05, 3.66188797e-05 ]
      - [ 1.55148393e-06, -2.39744986e-05, -1.67983126e-05,
          2.14548709e-05, 3.19735392e-07, -4.35736411e-06,
          8.36018990e-06, 1.28452120e-05, 1.19804236e-05,
          -6.38396023e-06, -4.36324717e-06, 1.03544726e-05,
          -2.21254522e-05, 2.38181519e-06, -3.23401764e-06,
          1.52378589e-05, 7.86589681e-06, 5.78173740e-06, 1.39749873e-05,
          -3.55063094e-05, -1.41699984e-05, 5.22885375e-06,
          2.82619549e-05, 9.12899282e-07, 2.88526962e-06, 8.01390433e-06,
          2.59682092e-05, -8.66406845e-06, -1.48305098e-05,
          8.68639836e-06, 2.29034849e-05, 1.61679800e-05,
          -3.33000789e-05, -1.76750400e-05, -4.00719819e-06,
          -3.40978727e-06, 2.07214043e-06, 2.08293704e-06,
          -1.48714289e-05, -4.00106437e-05, -1.98884827e-05,
          -1.51557842e-05, 1.42649296e-05, 3.89776942e-05,
          2.15664750e-05, -2.02227802e-05, -2.03966410e-05,
          -2.41239795e-05, -2.15465916e-05, -2.31639406e-05,
          -1.46394295e-05, -3.01928558e-05, -4.84579414e-06,
          1.47346982e-05, 2.14776046e-05, -1.20482573e-05,
          -5.55884299e-06, 7.91311049e-06, -9.75860894e-06,
          -1.47748497e-05, -1.74825054e-05, 2.52344512e-06,
          -3.15042075e-06, 4.04915136e-06 ]
      - [ -2.17163652e-05, -1.72856817e-05, 8.71520024e-06,
          2.25682634e-05, 1.18976968e-05, 3.53922064e-06, 5.54826147e-06,
          1.88996603e-06, -1.84010387e-05, -2.16072863e-06,
          1.15719749e-05, 1.32093819e-05, 4.53436769e-06, 4.00981162e-06,
          4.94288633e-06, 7.78557751e-06, -9.97782263e-06,
          -1.20789346e-05, -5.64331867e-06, 7.33953857e-06,
          6.62199864e-06, 8.90811043e-06, 8.71156590e-06,
          -1.29078844e-05, -1.90559604e-05, -5.25380074e-06,
          1.14775176e-07, 2.59992566e-06, 2.92893719e-06, 7.19483569e-06,
          3.89404431e-06, -8.49997468e-06, -1.03285583e-05,
          -1.13519800e-05, -8.60516411e-06, -3.17640115e-07,
          -2.86960744e-06, -2.58732962e-06, -8.74630769e-06,
          -1.41680885e-05, -1.53755773e-05, -2.76473520e-06,
          4.87361876e-06, 2.13145668e-05, 1.02444801e-05,
          -1.48412812e-06, -2.98330747e-06, -2.49408222e-05,
          -2.86863778e-05, -5.57816020e-06, 8.74827094e-07,
          -2.98989607e-06, -3.76614139e-06, 1.94977861e-06,
          -1.15678540e-06, -1.14148033e-05, -3.64424977e-06,
          -3.42471640e-06, 6.77149728e-06, 9.28489726e-07,
          -6.25802386e-06, -1.45566730e-06, -5.02602643e-06,
          -1.18727585e-05 ]
      - [ 2.22031831e-05, 2.11283132e-05, 8.52204357e-06,
          -2.09313239e-05, -7.17290550e-06, 5.79407015e-06,
          3.74460933e-06, 1.84644541e-05, 1.45967351e-05, 2.24695104e-05,
          1.63546956e-05, -1.88312933e-05, -4.08734995e-05,
          -1.40581851e-05, -1.06493007e-05, -9.89816090e-06,
          -4.92671870e-06, 8.59457396e-06, -2.22469225e-05,
          -1.03452549e-05, 2.16903791e-05, 1.64031717e-05,
          1.19129518e-05, 1.64955945e-05, -2.05903889e-05,
          -7.77214427e-06, -1.10995018e-06, 3.33291950e-06,
          -2.04261687e-06, 2.10365561e-05, 1.45462582e-05,
          -2.68054464e-06, 1.34647939e-06, -6.62595039e-06,
          -9.52634423e-07, -1.92010029e-05, -1.56042624e-05,
          -4.00459294e-06, -4.67729524e-06, -1.20375689e-05,
          -1.65814054e-05, -1.31310826e-05, -1.10355686e-05,
          1.63895004e-06, 1.09584307e-05, 3.06831271e-06, 8.97213170e-07,
          4.62975464e-07, 2.92549339e-06, 1.26107716e-05, 6.98765916e-06,
          8.55863073e-06, 1.24594508e-05, 3.75651398e-05, 1.29547852e-05,
          -1.17137633e-05, -4.31940271e-06, 2.65878089e-06,
          3.42087037e-06, 7.51112509e-07, 1.19624483e-05, 1.19783144e-05,
          6.32768706e-06, -9.34306081e-06 ]
      - [ 6.94995324e-05, 4.98345980e-05, -1.45285985e-05,
          -1.40125203e-05, -1.04472665e-05, 1.26622160e-06,
          -1.01747401e-05, 9.93263075e-06, 9.13973327e-06,
          4.50644766e-05, -1.91309191e-05, -1.75725381e-05,
          -3.00431839e-05, -1.60945056e-05, -4.15790637e-05,
          -1.29457840e-05, 1.67580274e-05, 1.18317912e-05,
          -6.25009270e-05, -7.05191587e-06, 2.86958530e-05,
          -3.08005497e-06, 1.57028899e-05, 6.11170253e-05,
          -1.48372528e-05, 1.56861661e-05, 2.91684773e-05,
          2.91695378e-05, 1.39576787e-05, 1.16082410e-05,
          -1.32364530e-05, 1.21683515e-05, -1.02804906e-05,
          -3.58070974e-05, -1.19979859e-05, 5.18719935e-06,
          -5.07534605e-05, -2.50227968e-05, -4.45795340e-05,
          -1.42438748e-05, -1.28810925e-05, -3.18156708e-05,
          -2.48022498e-05, 1.56464030e-05, 4.53123994e-06,
          1.08243712e-05, -6.47570550e-06, -3.33514399e-05,
          -1.90792016e-05, 3.74391748e-05, 1.43106417e-05,
          2.43840568e-05, 5.48374237e-06, -7.50600702e-06,
          -7.93181201e-08, 1.01481992e-05, -8.16581689e-07,
          -3.53979976e-06, -3.67162102e-05, -2.97867555e-05,
          1.86145935e-05, 4.75234538e-06, 1.09835510e-05, 7.19582931e-06 ]
      - [ 3.15571961e-05, -5.62410787e-06, -4.55551481e-06,
          -1.03477269e-05, -6.63297305e-06, -4.60295132e-06,
          -6.10072630e-06, 9.90264562e-06, 9.73260467e-06,
          1.16783758e-05, 6.03736135e-06, -1.15462435e-05,
          -8.92604839e-06, -4.15990462e-06, -1.11321924e-05,
          -2.57697184e-06, 1.94765198e-05, 2.12933105e-06,
          -1.42435883e-05, -3.02076824e-05, -2.08340280e-05,
          1.53249293e-05, 2.05936813e-05, 1.29249311e-05, 1.63869827e-05,
          1.38043351e-05, 2.09225364e-05, -9.16752651e-06,
          -2.41877151e-05, 2.70490600e-05, 7.27871975e-06,
          3.52304305e-05, -2.46977088e-05, -8.93699689e-06,
          7.77139846e-08, -1.19017923e-05, -1.37962588e-05,
          4.88658270e-06, -1.17058889e-05, -3.65864507e-05,
          -2.99522126e-05, 1.44543974e-05, 1.11904919e-05,
          2.68953172e-05, 2.02937717e-05, 3.47038304e-06,
          -2.99102394e-05, -2.55734685e-05, -3.27568087e-05,
          -1.37137977e-05, -6.16711759e-06, 1.47905248e-05,
          3.22596316e-05, 4.34302856e-05, 1.49390535e-05,
          -1.54628360e-05, -5.03825595e-06, 3.17113654e-06,
          -7.69420421e-06, -9.40540758e-06, 9.04283115e-06,
          4.55069858e-06, -8.15702606e-06, -2.01553212e-05 ]
      - [ -7.08206971e-06, -1.94192489e-06, 1.94399690e-05,
          8.92321523e-08, 5.56625309e-07, 6.34977232e-06, 5.52980907e-07,
          7.30203340e-07, -2.40581285e-05, 1.02353488e-05,
          5.74344722e-06, 1.00849127e-06, 1.60386602e-08, 0.,
          -5.43422836e-08, -3.57148656e-06, -2.79631172e-06,
          -6.58871204e-06, -2.16497938e-05, -1.74635019e-07,
          8.44959050e-06, 8.75454407e-06, 8.86648104e-06,
          -1.31883020e-08, -2.65454528e-05, -1.62470303e-06,
          1.46995788e-07, 3.90054583e-06, -2.68113035e-06,
          2.62074955e-05, 6.13323573e-06, -4.79700657e-06,
          -1.40256388e-05, -1.82294498e-05, -7.98582641e-06,
          -2.76232367e-06, -1.28938364e-05, 2.60109255e-06,
          -1.20424011e-05, -1.95228695e-05, -1.21553230e-05,
          6.27571262e-06, 1.01625856e-05, 9.36260494e-06, 1.24934131e-05,
          6.14712144e-06, -1.38589746e-06, -3.56333985e-05,
          -4.25360522e-05, -8.70993426e-06, 6.75885531e-06,
          3.27657040e-06, 1.39785261e-05, 2.33351675e-05,
          -2.97226961e-07, -1.78213704e-05, -1.29621658e-05,
          -1.04384553e-05, 5.38284894e-06, 3.81574228e-06,
          3.34621927e-06, 4.65497942e-06, -5.62846299e-06,
          -3.28543101e-05 ]
      - [ 1.19995339e-05, -9.09000028e-06, -1.36206927e-05,
          1.48681011e-05, -1.12302114e-05, -2.80556851e-05,
          -2.07623507e-05, -1.92231782e-05, -1.51607298e-06,
          -1.03051125e-05, -1.50642018e-05, 1.95187331e-05,
          6.18095146e-05, -1.37527177e-05, -3.77332399e-05,
          -1.95417942e-06, -4.67717456e-07, -2.57983411e-05,
          7.38149708e-07, 8.42534700e-06, -1.00551517e-06,
          -9.95239770e-06, -6.26288875e-06, 2.24191399e-06,
          3.55088123e-05, 3.56938217e-05, 1.12124935e-05, 2.30011992e-05,
          1.25289453e-05, -2.35822426e-05, -3.09244242e-05,
          2.48947727e-05, 1.83310954e-06, 5.41860800e-06,
          -1.38501391e-05, 9.15363398e-06, -1.22128067e-05,
          -7.55417022e-06, -1.33686162e-05, -3.88292074e-06,
          2.19027152e-05, -2.50544076e-06, -2.42458063e-05,
          9.29580256e-06, -2.86575305e-05, -1.49579664e-05,
          -1.43064490e-05, -4.59770172e-06, 1.19429806e-05,
          -8.64645790e-06, -1.23006603e-05, -6.80058383e-06,
          -2.46834479e-05, -5.97385224e-05, -4.28534950e-05,
          2.09541922e-05, 1.61950138e-05, -4.76176456e-06,
          -3.57115860e-05, -1.79171657e-05, -1.03996308e-05,
          -1.10255687e-05, -6.07190714e-06, 1.89807688e-05 ]
      - [ -1.51600136e-06, -3.70775451e-05, -3.23719469e-05,
          3.92765105e-06, -7.12044357e-06, -1.28494075e-05,
          -1.23702139e-05, -5.56678333e-06, -1.15682342e-05,
          -2.38382127e-05, -2.78781099e-05, 8.79919480e-06,
          4.11008623e-05, 1.22434139e-05, -8.26001178e-06,
          4.77746471e-06, 1.11736172e-05, 8.04615865e-07, 9.86812938e-06,
          -9.50917274e-06, -4.00512399e-05, -2.09943555e-05,
          -5.30484556e-07, 7.22399636e-06, 2.54764946e-05,
          2.08333713e-05, 3.31719239e-05, 4.75954721e-07,
          -2.39915043e-05, 2.47452107e-07, -3.32552736e-06,
          3.72199283e-05, 1.81536518e-06, -5.56022133e-06,
          -3.84914256e-06, 8.85520967e-06, 1.28997340e-06,
          -9.92607852e-07, -3.62603805e-06, -1.56818478e-05,
          2.27570526e-05, 1.62760443e-05, 9.18522073e-06, 2.81655912e-06,
          1.95281496e-06, -8.99436054e-06, -1.11559375e-05,
          -1.50801507e-05, -5.63119784e-06, -4.12246263e-05,
          -1.76713093e-05, -3.15178040e-05, -4.60417459e-06,
          -7.96169175e-08, 3.71993747e-06, 1.34897900e-05,
          1.71947413e-05, 6.89107947e-06, -4.35746770e-05,
          -2.56577569e-05, -1.80156530e-05, -2.76175297e-06,
          -2.81641087e-06, 1.26157684e-05 ]
      - [ -3.59322803e-05, -3.32596392e-05, 3.65231926e-07,
          1.63917994e-05, 7.64661218e-06, -1.03108562e-07,
          -1.42543809e-06, -7.27790757e-06, -3.07568262e-05,
          -1.47183046e-05, 6.47166530e-07, 1.79135695e-05,
          3.12953380e-05, 1.38176447e-05, 8.55795861e-06, 3.34968468e-06,
          -1.06650468e-05, -1.33795184e-05, 3.25342739e-06,
          1.73745066e-05, -3.71473720e-06, -2.42317469e-06,
          -3.96006328e-07, -9.38893936e-06, -6.37653284e-06,
          1.09792991e-05, -3.35907157e-06, 1.67872258e-06,
          8.19750994e-07, 5.90279524e-06, -7.11137454e-06,
          -1.42375529e-05, -8.47245883e-06, -8.96610527e-06,
          -6.72644092e-06, 4.51495498e-06, 3.22174657e-07,
          -9.40541383e-07, -1.00976742e-07, -1.10301244e-05,
          -2.51838810e-06, 7.69245889e-06, 3.89017760e-06,
          4.69146607e-06, 7.36483662e-06, 4.05031051e-06, 2.19185654e-06,
          -2.95133777e-05, -2.96777325e-05, -1.84879118e-05,
          -8.90549984e-07, -8.25670941e-06, -6.50627226e-06,
          -7.26055487e-06, -1.32671194e-05, 5.01794693e-06,
          -1.58068144e-06, -1.40165575e-05, -5.98346105e-06,
          1.32965295e-06, -7.89888236e-06, -1.61864625e-06,
          -8.90801584e-06, -4.81506777e-06 ]
      - [ -3.27720227e-06, -1.77230831e-05, -1.48005404e-06,
          -7.58984197e-06, -1.69035411e-05, 3.32887407e-06,
          3.19549622e-06, 5.36584776e-06, 9.10193376e-06,
          -1.14987279e-05, 1.07639607e-05, -2.89721675e-06,
          -2.10939797e-05, 1.03594130e-05, -1.19693141e-06,
          7.60792273e-06, 1.08390013e-05, 1.50576470e-05, 2.77190229e-05,
          -4.23253950e-05, -4.41237607e-05, -3.56396708e-06,
          1.52879093e-05, 1.88905051e-06, 4.98095915e-06, 3.94196377e-06,
          2.93028734e-06, -2.97083880e-05, -2.12302421e-05,
          4.20040269e-05, 3.02892622e-05, 3.25418587e-05,
          -2.17219367e-05, 8.04020601e-06, 2.84354201e-06,
          -3.83940460e-06, 8.22008315e-06, 2.38213579e-05,
          -2.67393693e-06, -2.94957772e-05, 1.33970036e-06,
          1.99954702e-05, 2.43705508e-05, 9.76834144e-06, 2.42636561e-05,
          -5.16082400e-06, -7.99746977e-06, 2.49459913e-06,
          -2.34378185e-05, -4.19916178e-05, -1.56660572e-05,
          -1.20840559e-05, 4.60691763e-06, 5.24091483e-05,
          3.64802290e-05, -2.51534402e-05, -4.50281323e-06,
          1.26095865e-05, 1.53805577e-05, 1.07089704e-06,
          -1.20210634e-05, -9.03931777e-07, -1.92535463e-05,
          -2.96944745e-05 ]
      - [ -2.32692491e-05, -1.57446957e-05, 1.47495557e-05,
          2.79860251e-06, 3.50258142e-06, 1.11614818e-05, 6.47928209e-06,
          -5.41805957e-06, -2.21172304e-05, -7.06506444e-06,
          1.37601355e-05, 5.62214427e-06, 5.10294467e-06, 1.27671947e-05,
          1.37381621e-05, 3.11070244e-06, -5.90932405e-06,
          -8.70141048e-06, 1.95944563e-06, 1.22625488e-05,
          -1.16894830e-06, 6.65622611e-06, 7.65973937e-07,
          -1.82151107e-05, -1.84554956e-05, -3.80815254e-06,
          -1.33063922e-05, -6.98119266e-06, -2.26965881e-06,
          1.80899187e-05, 7.75571789e-06, -1.30768422e-05,
          -6.57860119e-06, -7.47169270e-06, -9.45260035e-06,
          -3.95208554e-06, -5.69384702e-06, 1.01281403e-05,
          -1.01258792e-07, -1.08613995e-05, -1.59622687e-05,
          2.69036173e-05, 7.98972269e-06, 3.38096265e-06, 5.79925245e-06,
          1.13504802e-05, 2.66592610e-06, -2.77373711e-05,
          -3.77024808e-05, -1.43047791e-05, 2.13959311e-06,
          -1.00606940e-06, 1.40735292e-05, 1.63648328e-05,
          6.86091516e-06, -2.49742898e-05, -1.32124669e-05,
          -4.32356455e-06, 1.28200963e-05, 1.40687152e-05,
          4.22502080e-06, -1.48374079e-06, -1.26851110e-05,
          -2.82534420e-05 ]
      - [ -3.40416263e-05, 7.13118243e-06, 1.92638290e-05,
          2.04263870e-06, 4.98232839e-06, 8.80286643e-06, 3.08231256e-06,
          -4.57506940e-06, -2.60498236e-05, -2.02175397e-06,
          1.00973211e-05, 2.93155313e-06, 3.47890818e-06, 9.87304020e-07,
          4.52345512e-06, 8.25173993e-06, -1.10307446e-05,
          -1.97635109e-05, -2.66704956e-05, 2.33607443e-05,
          2.88940610e-05, 1.37311611e-06, 1.54555448e-06,
          -7.44710405e-06, -3.55418997e-05, -1.64748872e-05,
          -1.74310535e-05, 4.90146522e-06, 1.44419191e-05,
          1.61955575e-06, -1.12183166e-07, -2.56435160e-05,
          -1.34454294e-05, -1.64132762e-05, -9.47084845e-06,
          -5.40100200e-06, -1.16503579e-05, -5.88614114e-07,
          -4.24456118e-07, 1.46128032e-05, 4.43709814e-06,
          -7.25765494e-06, -4.25964890e-06, 1.92269636e-06,
          4.58355134e-06, 4.74678791e-06, 9.63966704e-06,
          -6.50760876e-06, -3.76225325e-05, -7.64331890e-06,
          9.00514351e-06, 9.81758512e-06, 1.98950670e-06,
          -7.43912778e-06, -1.45058020e-05, -5.15882675e-07,
          1.06946090e-05, -1.73896915e-05, 7.04641889e-06,
          3.00225543e-06, -5.84189138e-06, -4.52887389e-06,
          -1.27678486e-05, 3.84320356e-06 ]
   uncompressed_sv_total: 166
   uncompressed_support_vectors:
      - [ 4.60465918e+03, 5.92400342e+03, 4.42854199e+03, 0., 530., 0.,
          2.12132034e+01, 0., 2.20079541e+03, 2.27583301e+03,
          1.86890857e+03, 2.46113013e+03, 480., 0., 2.66734344e+02,
          7.23149219e+03, 6.15783545e+03, 2.96984844e+01, 0., 0.,
          6.97244995e+02, 4.11820166e+03, 3.66506323e+03, 2.93016602e+03,
          3.03324146e+03, 2.47976105e+02, 0., 0., 190., 5.63222314e+03,
          4.95845020e+03, 5.98041406e+03, 1.38336572e+03, 7.20694122e+01,
          0., 0., 6.18922070e+03, 7.91390625e+03, 2.53529126e+03, 0.,
          2.23706836e+03, 6.50538254e+01, 4.24715576e+02, 5.82745752e+03,
          2.33434668e+03, 9.96934509e+02, 2.44567773e+03, 2.75057739e+03,
          3.93286230e+03, 5.76244238e+03, 5.46210938e+03, 2.06517993e+03,
          0., 0., 0., 0., 2.65580029e+03, 1.09316172e+04, 3.84198267e+03,
          1.70933875e+03, 2040., 0., 0., 0. ]
      - [ 1.14922150e+02, 3.94343475e+02, 1.55396855e+04, 2.92712085e+03,
          1702., 0., 0., 0., 0., 0., 4.62920703e+03, 4.07347729e+03,
          1.63034875e+03, 1.94397461e+03, 2.61592432e+03, 2.39288037e+03,
          5.71643945e+03, 3.58994942e+01, 0., 0., 0., 0., 0., 0., 0.,
          4.24264050e+00, 5.24747986e+02, 7.94955322e+02, 952.,
          8.37376862e+01, 3.42837207e+03, 3.75845215e+03, 5.98979785e+03,
          4.33229248e+03, 5.80777295e+03, 0., 1086., 1.50277222e+03,
          4.40500183e+02, 0., 1.24988613e+04, 3.00208545e+03,
          2.12893896e+03, 2.13015625e+03, 2.47653076e+03, 1.51167493e+03,
          1.01617291e+03, 1.97945508e+03, 1.94401892e+03, 1.45664001e+02,
          2.98956665e+03, 7.53806335e+02, 2.17347641e+02, 7.31518860e+02,
          1.15200342e+03, 5.49758118e+02, 1.52021865e+04, 3.33962280e+03,
          1.66957813e+03, 5.00225952e+02, 8.43707581e+02, 9.70996216e+02,
          5.68433398e+03, 3.35216339e+02 ]
      - [ 8.22640820e+03, 2.15480005e+03, 8.11053271e+03, 0., 1304., 0.,
          4.24264050e+00, 0., 4.03191870e+03, 4.42684131e+03,
          5.53317676e+03, 0., 426., 1.13225441e+02, 1.03708167e+03,
          6.67006775e+02, 5.37284375e+03, 0., 0., 0., 2.72538965e+03,
          5.85679688e+03, 2.50196704e+03, 3.67019604e+03, 2.09383154e+03,
          8.62670288e+01, 0., 0., 1562., 7.69466260e+03, 2.23519873e+03,
          2.79731714e+03, 6.10321680e+03, 3.37660797e+02, 0., 0.,
          3.77867090e+03, 1.03701533e+04, 3.69426196e+03, 3.99249306e+01,
          2034., 9.89949512e+00, 0., 2.11652856e+03, 1.24233765e+03,
          4.27731836e+03, 1.59264368e+03, 6.65588440e+02, 3.51317261e+03,
          1.92232166e+03, 4.10607471e+03, 2.06424390e+03, 0., 0., 0., 0.,
          4.59613721e+03, 3.90396606e+03, 8.60435352e+03, 0., 2040.,
          1.31893890e+02, 6.39199097e+02, 3.49197070e+03 ]
      - [ 5.95369580e+03, 5.74262354e+03, 1.27201880e+03, 0., 1350., 0.,
          1.13137083e+01, 2.04861719e+03, 5.16417432e+03, 6.07533105e+03,
          1.11106982e+03, 1.99597192e+03, 588., 0., 1.47186401e+03,
          2.42260547e+03, 3.98172656e+03, 1.13137083e+01, 0., 0., 176.,
          6.50990039e+03, 2.86516162e+03, 5.25280908e+03, 270., 0., 0.,
          0., 2.50716650e+03, 5.44399121e+03, 7.10795654e+03,
          4.21646143e+03, 8.38161194e+02, 0., 0., 0., 1822.,
          2.92770850e+03, 8.81760193e+02, 9.92975311e+01, 1822.,
          1.41421354e+00, 0., 2.03901245e+03, 5.09034326e+03,
          3.32551782e+03, 3.00939941e+03, 7.49122510e+03, 4.58556348e+03,
          7.02187354e+03, 2.75389087e+03, 2.20121899e+03, 3.78186279e+03,
          0., 2.60508972e+02, 0., 5.56590527e+03, 4.43593896e+03,
          3.51299072e+03, 1.83706372e+03, 2040., 0., 0., 0. ]
      - [ 8.96364648e+03, 3.83277710e+03, 1.27286633e+03, 0., 1502., 0.,
          0., 3.65449463e+03, 2.94026685e+03, 3.90897974e+03,
          6.70125781e+03, 1.90125488e+03, 168., 0., 78., 2.39487402e+03,
          2.74655859e+03, 5.19649902e+02, 8.07217407e+01, 0.,
          6.92259619e+03, 1.65256555e+03, 4.20793359e+03, 4.37381494e+03,
          2.71723755e+03, 1.88126770e+03, 2.70662140e+02, 0.,
          6.95124268e+03, 1.76069678e+03, 4.25941992e+03, 1.64287830e+03,
          1.93139087e+03, 1.83830945e+03, 0., 0., 1976., 9.96748633e+03,
          4.77346826e+03, 6.44778687e+02, 2040., 0., 0., 0.,
          3.74203320e+03, 6.30205908e+03, 3.77566772e+03, 2.85128638e+03,
          1.46213000e+03, 4.47208057e+03, 4.88466211e+03, 4.13876514e+03,
          64., 4.83735466e+01, 4.52548332e+01, 0., 2.28701367e+03,
          6.21870850e+03, 8.24245410e+03, 2.05652148e+03, 2040.,
          6.96562958e+01, 4.52548370e+01, 4.02483154e+03 ]
      - [ 5.71916455e+03, 7.16605029e+03, 6.68456006e+03, 9.25647339e+02,
          1864., 0., 0., 0., 0., 6.56851172e+03, 2.21048218e+03,
          3.03452051e+03, 1.33040198e+03, 6.71036499e+02, 2.90877991e+02,
          8.04114456e+01, 2040., 1.24450790e+02, 0., 0., 4.05299390e+03,
          5.59470557e+03, 1.79826794e+03, 7.65687939e+03, 4.21062134e+02,
          1.69705620e+01, 0., 0., 5.52174121e+03, 5.41957910e+03,
          4.97659277e+03, 2.32834702e+02, 64., 2.40416298e+01, 0., 0.,
          0., 4.27118994e+03, 3.68879956e+03, 4.61994336e+03,
          6.67291943e+03, 3.24278491e+03, 1.89146533e+03, 0.,
          3.24967682e+02, 1.30430054e+02, 4.85434766e+03, 1.86260901e+03,
          5.29657178e+03, 2.41609253e+03, 1.63797937e+03, 1.35578662e+03,
          1.43135986e+03, 3.72777686e+03, 3.20174707e+03, 3.39699609e+03,
          6.72310889e+03, 2.27542798e+03, 1.34666919e+03, 6.37578174e+03,
          574., 0., 6.26187683e+02, 4.07750171e+03 ]
      - [ 9.11869727e+03, 1.58857446e+03, 7.07907959e+03, 1.99740930e+03,
          1810., 0., 9.65137863e+01, 7.30525513e+02, 6.03656799e+02,
          1.64652313e+02, 0., 0., 94., 0., 0., 1.96147217e+03,
          3.37092627e+03, 6.47173523e+02, 5.76146912e+02, 9.01520935e+02,
          3.36879736e+03, 2.41886890e+03, 6.17668408e+03, 3.83418152e+02,
          1.34229834e+03, 1.54284607e+03, 4.46427551e+02, 1.40672607e+03,
          3.67425220e+03, 1.05413994e+04, 1.08354189e+04, 9.75427979e+02,
          1.02031531e+03, 6.36396103e+01, 0., 4.11732910e+02, 1238.,
          2.31681348e+03, 2.67666553e+03, 1.22089678e+04, 5.30668604e+03,
          2.95288794e+03, 1.61729700e+03, 1.89803186e+03, 3.69813306e+03,
          1.15015247e+03, 6.05990625e+03, 2.69386646e+03, 20.,
          1.98035355e+02, 4.78993457e+03, 2.38056787e+03, 4.63645068e+03,
          1.92739233e+03, 6.19293701e+03, 0., 6.94363818e+03,
          5.61719043e+03, 6.74845508e+03, 1.63171362e+03, 1008.,
          1.03707861e+03, 7.07106781e+00, 8.17543579e+02 ]
      - [ 7.32755664e+03, 1.09020469e+04, 0., 0., 2024., 0., 0., 0.,
          1.30260342e+04, 2.39179370e+03, 2.85964575e+03, 1.07462085e+03,
          0., 0., 0., 0., 2040., 0., 0., 0., 0., 3.65034521e+03,
          4.62529297e+03, 1.94592700e+03, 6.10697510e+03, 2.26274166e+01,
          0., 0., 2024., 6.87895898e+03, 9.79815918e+03, 2.63315625e+03,
          8.03737549e+02, 3.78115771e+03, 3.88764709e+02, 7.13928040e+02,
          5.33154297e+03, 5.22458350e+03, 1.44720166e+03, 1.50322217e+03,
          1392., 0., 0., 0., 5.00212158e+03, 3.28957373e+03,
          4.91169824e+03, 3.93005688e+03, 7.06042480e+02, 5.89815625e+03,
          4.92695361e+03, 4.45150244e+03, 0., 0., 0., 0., 4.52095752e+03,
          8.59766211e+03, 5.41474414e+03, 0., 2040., 0., 1.87048706e+03,
          2.51081982e+03 ]
      - [ 7.80421582e+03, 1.44490039e+03, 4.77854883e+03, 0., 1928.,
          1.89001904e+03, 1.13137083e+01, 8.57996704e+02, 5.23218262e+03,
          4.62353564e+03, 5.81691943e+03, 0., 0., 0., 0., 0.,
          2.77586426e+03, 8.20243912e+01, 0., 2.03802576e+03,
          2.24014136e+03, 3.34914502e+03, 4.60002100e+03, 1.49268848e+03,
          5.09941455e+03, 9.57467575e+01, 5.42701721e+02, 0.,
          3.87683179e+03, 1.48649414e+03, 6.35269385e+03, 1.45103540e+03,
          7.94834961e+03, 1.70856659e+02, 0., 0., 6.40983691e+03,
          3.12888037e+03, 3.06784473e+03, 0., 4.86644727e+03,
          6.48964294e+02, 0., 0., 3.18006287e+02, 4.62717090e+03,
          5.75963770e+03, 1.58776404e+03, 4.01975439e+03, 5.88076074e+03,
          6.51929150e+03, 1.99636560e+03, 0., 0., 0., 0., 3.50160938e+03,
          1.84728442e+03, 1.01862461e+04, 2.94431470e+03, 2040., 0., 0.,
          0. ]
      - [ 1.43834436e+03, 7.95947632e+02, 8.98819214e+02, 1.57666455e+03,
          3.28218457e+03, 8.26575098e+03, 2.09049341e+03, 4.03474463e+03,
          2.82592920e+03, 1.81638892e+03, 2.89277100e+03, 3.44117285e+03,
          9.40215149e+02, 1.27202905e+03, 7.59752563e+02, 2.86356415e+02,
          1854., 4.38406219e+01, 0., 2.05777832e+03, 3.49130371e+03,
          3.10061353e+03, 5.69779395e+03, 2.45756909e+03, 26., 0., 0.,
          1.99424164e+02, 3.70811133e+03, 5.62978467e+03, 8.49835352e+03,
          1.19660669e+03, 4.54057373e+03, 5.65339355e+02, 1.17579272e+03,
          0., 176., 2.97310815e+03, 3.20746216e+03, 7.88891992e+03,
          7.62685254e+03, 3.25779053e+02, 2.33400974e+01, 0.,
          3.77793262e+03, 3.26327417e+03, 1.25619556e+03, 6.52427344e+03,
          1.86042346e+03, 2.07153735e+03, 7.47305811e+03, 0., 0., 0., 0.,
          0., 7.19516357e+03, 1.13924307e+04, 5.49877100e+03,
          4.80832596e+01, 0., 0., 0., 6.03198120e+02 ]
      - [ 2084., 1.23511650e+04, 5.17980078e+03, 0., 630., 0.,
          2.96984844e+01, 0., 42., 6.73925195e+03, 2.48903101e+03, 0.,
          0., 0., 3.11126976e+01, 4.03321924e+03, 3.08831812e+03,
          7.74779419e+02, 1.69809302e+03, 4.30731934e+02, 1.85953369e+03,
          2.49265967e+03, 4.94379785e+03, 1.26696570e+03, 240.,
          6.87862402e+03, 0., 0., 2.37054736e+03, 3.25199316e+03,
          3.60136768e+03, 6.62830029e+03, 2.05742090e+03, 4.50397614e+02,
          0., 0., 166., 7.91493066e+03, 7.90822754e+03, 5.66000635e+03,
          1998., 9.61665192e+01, 3.16110767e+03, 2.26496313e+03,
          2.71933789e+03, 7.42699158e+02, 5.52711060e+02, 4.94980615e+03,
          0., 1.09867334e+04, 4.24233936e+03, 0., 0., 0., 1.37944077e+02,
          7.97286523e+03, 2084., 6.61733984e+03, 7.75710205e+03, 0.,
          166., 0., 0., 0. ]
      - [ 4.81466211e+03, 2.84919434e+03, 1.75411060e+03, 0., 1960., 0.,
          0., 0., 7.31525391e+03, 2.04804248e+03, 3.16221460e+03,
          4.60056494e+03, 0., 0., 0., 0., 3.09221899e+03, 3.39411240e+01,
          0., 0., 3.27228442e+03, 1.70817688e+03, 8.43792480e+03,
          6.14050049e+02, 2.05521973e+03, 3.39411240e+01, 0., 0., 2152.,
          8.32852441e+03, 6.08128418e+03, 2.04401566e+02, 3.95049438e+03,
          2.78482227e+03, 0., 0., 3.16435889e+03, 1.57695874e+03,
          3.51553986e+02, 1.11478723e+03, 1592., 5.65685425e+01,
          3.98584180e+03, 2.53195166e+03, 1.63912000e+03, 2.63153857e+03,
          4.26778809e+03, 2.05768188e+03, 3.64231714e+03, 4.07199585e+03,
          5.46991699e+03, 2.76887402e+03, 0., 0., 0., 0., 2.56467798e+03,
          3.66977856e+03, 9.99836523e+03, 0., 2040., 0., 0., 0. ]
      - [ 6.78988428e+03, 4.90284375e+03, 8.94861328e+03, 0., 750., 0.,
          0., 0., 3.48646362e+03, 3.51364673e+03, 2.61577173e+03, 0.,
          278., 1.90031570e+02, 7.74933838e+02, 2.87333105e+03,
          4.39037988e+03, 5.79827576e+01, 0., 0., 1.69048108e+03,
          1.04369421e+03, 3.03517822e+03, 5.86035840e+03, 8.,
          4.24264050e+00, 0., 0., 2.21482690e+03, 4.26750049e+03,
          4.69313574e+03, 7.29162305e+03, 2.32291187e+03, 3.78028870e+02,
          0., 0., 770., 4.66470313e+03, 6.85047461e+03, 9.21017383e+03,
          2150., 4.24264050e+00, 2.04403918e+03, 2.58487915e+02,
          1.79085498e+03, 1.25043445e+03, 3.51421924e+03, 1.83303333e+03,
          5.30125684e+03, 3.48677881e+03, 1.06207446e+03, 2.01026086e+03,
          432., 1.84390888e+01, 6.40335083e+02, 2.69052686e+03,
          5.90511035e+03, 3.76802710e+03, 7.48155078e+03, 4.09531763e+03,
          1202., 0., 0., 0. ]
      - [ 1882., 9.43934265e+02, 1.31438525e+03, 2.55514258e+03,
          6.93824658e+03, 1.21774890e+03, 1.00210687e+03, 3.89679199e+03,
          7.74543945e+02, 3.17383740e+03, 2.01418445e+03, 0., 0.,
          7.71405566e+03, 8.67226929e+02, 8.60395630e+02, 2040., 0., 0.,
          0., 4.38200781e+03, 4.90102197e+03, 5.00452002e+03,
          4.62883643e+03, 1.68269421e+03, 4.53139008e+02, 0.,
          1.70293865e+01, 3.24702686e+03, 6.16639697e+03, 2.53396265e+03,
          4.96176117e+02, 0., 0., 0., 0., 3.72921387e+03, 9.44152246e+03,
          1.01748838e+04, 0., 1344., 0., 0., 0., 0., 6.17437451e+03,
          7.30114014e+03, 2.75730078e+03, 3.65854810e+03, 5.10309521e+03,
          5.34434961e+03, 3.98792505e+03, 32., 0., 2.26274166e+01, 0.,
          2.69972900e+03, 3.88818848e+03, 5.65825342e+03, 1.27856982e+03,
          2040., 0., 2.37065063e+03, 3.49284973e+01 ]
      - [ 1.01907373e+04, 4.59357129e+03, 3.08641675e+03, 4.26072949e+03,
          1582., 0., 0., 0., 1.14486992e+04, 1.83374658e+03,
          1.22636987e+03, 2.59608594e+03, 0., 0., 0., 0., 2.18426074e+03,
          2.82842708e+00, 0., 0., 0., 2.60246753e+03, 7.21236426e+03,
          2.72944824e+03, 2.42995947e+03, 5.65685425e+01, 4.49444084e+01,
          0., 1582., 8.93658984e+03, 8.69773828e+03, 2.73393726e+03,
          6.21314063e+03, 9.83869934e+01, 0., 0., 2174., 1.77172949e+03,
          1.81623792e+03, 2.21484839e+03, 2.58611670e+03, 1.41421356e+01,
          2.57471191e+03, 1.84088000e+03, 3.06409058e+03, 1.41456360e+03,
          5.37207275e+03, 4.49787646e+03, 6.45439893e+03, 6.02462500e+03,
          2.96568408e+03, 2.12666724e+03, 1.54601001e+03, 6.05615417e+02,
          4.52548332e+01, 0., 5.29162402e+03, 8.85698340e+03,
          3.24875391e+03, 0., 2040., 0., 3.17804966e+01, 0. ]
      - [ 1.08189131e+04, 5.60982959e+03, 0., 0., 956., 0.,
          1.44249786e+02, 0., 4.91408691e+03, 3.04477808e+03,
          1.37768115e+03, 8.87612061e+02, 2.23564233e+03, 0.,
          2.96159882e+02, 2.23438672e+03, 4.98014551e+03, 4.05267426e+02,
          0., 1.43537964e+03, 1.63239709e+03, 3.02474512e+03,
          6.93745264e+03, 7.04541016e+02, 1.92153027e+03, 5.12747681e+02,
          0., 0., 5.76451025e+03, 1.63685938e+03, 3.19954736e+03,
          4.78116455e+03, 1.81628088e+03, 3.33718445e+02, 0., 0.,
          1.35848511e+03, 8.64074121e+03, 6.35419971e+03, 6.07266797e+03,
          2210., 0., 0., 0., 4.89784863e+03, 3.63335840e+03,
          1.32373413e+03, 1.18798047e+03, 6.43961719e+03, 3.74452783e+03,
          2.45795239e+03, 1.80637988e+03, 152., 0., 4.52548332e+01,
          2.46353638e+03, 5.46537158e+03, 4.54594336e+03, 1.02175225e+04,
          9.40566833e+02, 830., 0., 0., 0. ]
      - [ 1.00559434e+04, 8.04272705e+03, 1.40146191e+03, 0., 1378.,
          7.15998169e+02, 1.04651802e+02, 0., 4.57626270e+03,
          5.42719775e+03, 2.46254395e+03, 1.84947021e+03, 0., 0., 0., 0.,
          1972., 5.65685415e+00, 5.94861206e+02, 0., 3.52724951e+03,
          2.91560840e+03, 3.79810767e+03, 1.70393323e+03, 6.06571240e+03,
          7.62930450e+01, 0., 0., 3.14422559e+03, 1.24187830e+03,
          6.04823486e+03, 1.73909070e+03, 3.08196167e+03, 7.15541763e+01,
          0., 0., 6.43211816e+03, 1.17658975e+04, 3.77886060e+03, 0.,
          1294., 8.06101685e+01, 1.31186890e+02, 2.03377014e+03,
          3.95272412e+03, 2.19683301e+03, 3.88352637e+03, 1.79757263e+03,
          5.82216553e+03, 4.05159668e+03, 6.29075928e+03, 2.02274951e+03,
          0., 0., 0., 0., 8.41628418e+03, 4.76163037e+03, 5.93260156e+03,
          1.25866675e+03, 1858., 0., 0., 0. ]
      - [ 7.57606787e+03, 2.97362817e+03, 6.57121582e+03, 0., 1896., 0.,
          1.00904993e+03, 0., 9.57801880e+02, 6.35353906e+03,
          4.22967920e+03, 3.81812964e+03, 0., 0., 0., 0., 2030.,
          1.03237595e+02, 1.72609390e+02, 1.92879956e+03, 4.06404688e+03,
          3.59999683e+03, 3.96176074e+03, 2.11990552e+03, 4.21068555e+03,
          1.89517014e+02, 1.43010483e+02, 0., 2.56323340e+03,
          7.40039600e+03, 3.83602234e+02, 8.35703278e+01, 2.65308563e+02,
          0., 0., 0., 1.12439365e+04, 4.90771289e+03, 6.80925684e+03,
          1.73626038e+02, 1284., 7.91292191e+01, 0., 3.32295044e+02,
          2.49849951e+03, 3.55192847e+03, 3.83915137e+03, 2.59049219e+03,
          4.27982959e+03, 7.17781543e+03, 3.25589917e+03, 6.09243774e+02,
          0., 0., 0., 0., 2.34124536e+03, 7.64581348e+03, 8.94141211e+03,
          1.67773718e+03, 2040., 0., 0., 0. ]
      - [ 4.19444922e+03, 2.60079443e+03, 2.96297827e+03, 1.61107190e+03,
          0., 0., 0., 5.15154199e+03, 2.94676367e+03, 5.69696533e+03,
          4.59015533e+02, 0., 0., 2.40831890e+01, 2.81353119e+02,
          1.21223848e+04, 2040., 0., 0., 0., 2.43310509e+01,
          4.30856293e+02, 4.54499121e+03, 2.43583350e+03, 3.92937660e+01,
          0., 0., 0., 0., 0., 6.84131934e+03, 1.29562979e+04,
          4.42795166e+03, 2.44046729e+03, 0., 7.07106781e+00, 2032.,
          2.72412817e+03, 2.02263403e+03, 1.05541589e+03, 2.45966260e+03,
          6.46449707e+02, 1.11595972e+03, 2.84907690e+03, 3.33157544e+03,
          2.33615894e+03, 3.24678149e+03, 3.75946582e+03, 0.,
          7.65016504e+03, 1.82031323e+03, 1.50087952e+03, 6.84399963e+02,
          1.42291333e+03, 2.57898804e+02, 6.64830780e+01, 3.98684985e+03,
          5.80469238e+03, 9.38811719e+03, 0., 1860., 0., 0., 0. ]
      - [ 5.59008838e+03, 2.50223120e+03, 6.65785889e+03, 3.64366406e+03,
          2024., 0., 4.24264069e+01, 0., 6.34672058e+02, 7.22448779e+03,
          7.74687012e+03, 0., 0., 0., 0., 0., 1978., 1.13137083e+01, 0.,
          0., 2.09945264e+03, 6.97315039e+03, 5.49025244e+03,
          3.29123077e+02, 1.99936841e+03, 2.26274185e+01, 1.28600159e+02,
          0., 6.74456934e+03, 5.98524170e+03, 2.70860620e+03,
          3.74422211e+02, 2.46856079e+03, 1.34164076e+01, 0., 0.,
          5.80610938e+03, 6.65390332e+03, 3.28905469e+03, 0., 1980., 0.,
          5.05421753e+02, 1.62156665e+03, 1.57729358e+03, 7.61610205e+03,
          2.42968652e+03, 1.91652954e+03, 1.25820801e+03, 7.42930322e+03,
          5.59717139e+03, 2.10877734e+03, 0., 0., 0., 0., 2.14129395e+03,
          2.04240820e+03, 7.30270996e+03, 2.04443481e+03, 2102., 0., 0.,
          0. ]
      - [ 9.68584180e+03, 2.57796558e+03, 2.07346899e+03, 6.57383789e+03,
          2.57288110e+03, 1.25609229e+03, 0., 0., 6.01153516e+03,
          1.27399280e+03, 0., 7.59111328e+02, 0., 1.11131396e+03,
          2.91519556e+03, 2.17778003e+03, 3.35781763e+03, 2.97695374e+02,
          8.66728149e+02, 0., 1.96183398e+03, 5.47283789e+03,
          1.78485913e+03, 1.03749243e+03, 6.02261035e+03, 1.57984604e+02,
          0., 0., 3.63846582e+03, 1.16609326e+04, 3.14623682e+03, 0.,
          3.14322266e+02, 0., 0., 0., 9.53895386e+02, 4.71213477e+03,
          1.32473623e+04, 3.47108594e+03, 1778., 0., 0., 0., 0.,
          3.42147949e+03, 4.65314795e+03, 8.42152222e+02, 8.30545605e+03,
          1.74666052e+03, 1.26906555e+03, 5.95022705e+02, 2.34315479e+03,
          0., 0., 2.11102539e+03, 8.08976416e+03, 4.04249121e+03,
          4.58508936e+03, 2.24656958e+03, 970., 0., 5.28015137e+01,
          1.20693677e+03 ]
      - [ 1.22696758e+04, 7.80711914e+02, 1.59912207e+03, 0., 1968., 0.,
          0., 0., 4.18503662e+03, 1.88261731e+03, 3.29548779e+03, 0.,
          318., 0., 6.58709351e+02, 2.00220081e+03, 2028.,
          4.52548332e+01, 0., 0., 2.10504175e+03, 3.01046558e+03,
          1.50497498e+03, 5.56403809e+02, 7.65887402e+03, 9.26679077e+01,
          0., 0., 2028., 3.85112817e+03, 5.04075830e+03, 9.87045746e+01,
          5.91475488e+03, 1.30176804e+02, 0., 0., 2040., 3.59511401e+03,
          9.17960840e+03, 2.77234497e+03, 2044., 0., 3.40343933e+02,
          3.84564600e+03, 2.70216309e+03, 1.53851453e+03, 8.98834229e+02,
          3.12934509e+02, 8.11085791e+03, 1.44037952e+03, 3.36036377e+03,
          3.02168066e+03, 0., 0., 0., 0., 2.75802612e+03, 3.94836255e+03,
          6.90456299e+03, 1.65326111e+03, 2040., 0., 0., 0. ]
      - [ 1992., 3.10075952e+03, 9.32224316e+03, 3.06751563e+03, 2040.,
          0., 2.10237961e+01, 2.41344971e+03, 4.56713721e+03,
          4.65274951e+03, 4.51189502e+03, 0., 0., 0., 0., 0., 2040., 0.,
          0., 0., 2.06173828e+03, 5.47354053e+03, 3.11566699e+03,
          3.64466797e+03, 2.96259424e+03, 3.68907788e+03, 0., 0., 2040.,
          5.19541797e+03, 6.07434814e+03, 5.29926318e+03, 2.64840967e+03,
          3.69125952e+03, 1.40584488e+02, 0., 1866., 5.38561621e+03,
          8.52367310e+02, 1.29150708e+03, 1962., 1.10308655e+02,
          6.96909058e+02, 3.83606958e+03, 2.64465723e+03, 2.62199683e+03,
          4.81693994e+03, 2.28288672e+03, 3.09981299e+03, 8.69628223e+03,
          2.64073438e+03, 1.85154749e+03, 128., 0., 0., 2.40236108e+03,
          5.91407764e+03, 6.45003711e+03, 1.91540796e+03, 0., 1708., 0.,
          2.26274166e+01, 4.07157739e+03 ]
      - [ 2.10609033e+03, 1.04929775e+04, 9.90070679e+02, 7.25018616e+02,
          2.38947217e+03, 0., 1.41282764e+03, 2.77745557e+03,
          6.92787500e+03, 3.88598755e+03, 1.90907642e+03, 3.01636719e+03,
          3.69964722e+03, 0., 0., 0., 2040., 1.13137083e+01, 0., 0.,
          6.18864697e+03, 1.48427905e+03, 4.62727881e+03, 1.94637683e+03,
          6.15912891e+03, 2.26274166e+01, 0., 0., 2040., 6.03722900e+03,
          4.54599805e+03, 1.61497461e+03, 1.95078870e+03, 2.36173660e+02,
          0., 5.89713501e+02, 5.85510303e+03, 6.59561475e+03,
          4.21195264e+03, 6.87000732e+02, 1754., 0., 0., 0.,
          1.79991431e+03, 6.20017041e+03, 8.05229395e+03, 1.97395361e+03,
          4.33910938e+03, 7.09530176e+03, 3.68882056e+03, 4.14762842e+03,
          0., 0., 0., 0., 4.02934155e+03, 6.04053418e+03, 8.26969824e+03,
          0., 2044., 0., 0., 0. ]
      - [ 7.95039453e+03, 2.31707642e+03, 2.22403564e+03, 0.,
          4.95807910e+03, 2.12602921e+02, 0., 0., 3.15863599e+03,
          1.13758867e+04, 4.48475189e+02, 0., 532., 3.83575287e+02,
          7.49533157e+01, 0., 2566., 7.49533157e+01, 3.83575287e+02,
          2.04013599e+03, 2.61939160e+03, 3.45344775e+03, 1.02057709e+03,
          6.35032104e+02, 8.14757959e+03, 3.81837654e+01, 0., 0., 2034.,
          2.10962378e+03, 6.92759131e+03, 2.12112109e+03, 3.67745190e+03,
          4.78209381e+02, 1.52820160e+02, 0., 7.21515234e+03,
          4.38063721e+03, 2.56040137e+03, 0., 1182., 1.26983618e+03,
          9.56569885e+02, 2.56092700e+03, 3.52968140e+03, 2.35863013e+03,
          1.07857129e+03, 6.73262842e+03, 1.96672095e+03, 8.72834277e+03,
          4.00107983e+03, 1.76666370e+03, 0., 0., 0., 0., 5.76305127e+03,
          6.24877832e+03, 5.86431836e+03, 7.65277710e+02, 2040., 0., 0.,
          0. ]
      - [ 2040., 3.32825470e+02, 1.83018738e+03, 8.89407227e+03,
          2.54709619e+03, 0., 4.86177686e+03, 2.57072925e+03,
          2.36092334e+03, 2.69067651e+03, 2.22109863e+03, 3.25137866e+03,
          6.40815918e+03, 0., 6.88683838e+02, 1.52066284e+03, 2040., 0.,
          3.77359238e+01, 0., 1.69490417e+03, 5.86864307e+03,
          4.51546045e+03, 5.33388379e+03, 0., 1.71119843e+02,
          1.69917633e+02, 2.57122528e+02, 914., 8.44286682e+02,
          1.43765225e+04, 4.24395361e+03, 3.53473047e+03, 6.41759338e+01,
          0., 0., 1610., 9.83612183e+02, 4.41816309e+03, 1.63189990e+03,
          4.15189063e+03, 1.27279224e+01, 4.83546326e+02, 5.83694189e+03,
          3.60928442e+03, 2.40922803e+03, 8.80510132e+02, 8.09690674e+03,
          2.30757764e+03, 9.12368555e+03, 4.75556738e+03, 1.79886462e+03,
          1.92353840e+01, 0., 1.89789352e+02, 0., 6.90839551e+03,
          9.84691309e+03, 4.58328955e+03, 0., 824., 0., 0., 0. ]
      - [ 8.54375488e+03, 7.07637061e+03, 2.31774609e+03, 1.61592334e+03,
          2.37056641e+03, 0., 0., 0., 3.56695996e+03, 6.51054639e+03,
          3.91919946e+03, 1.74036072e+03, 0., 0., 0., 0., 4.99277539e+03,
          0., 0., 0., 2.94789673e+03, 4.42145947e+03, 5.40730127e+03,
          6.16961548e+02, 6.08923535e+03, 5.93425369e+01, 0., 0.,
          2.91782104e+03, 2.15342627e+03, 7.05787939e+03, 1.67705762e+03,
          4.80688867e+03, 4.56508484e+01, 0., 0., 7.86594727e+03,
          1.06537998e+04, 2.27188995e+02, 0., 1404., 0., 0.,
          2.05712842e+03, 5.46791943e+03, 2.63266455e+03, 2.70130151e+03,
          1.88556433e+03, 3.45354785e+03, 8.78226758e+03, 6.03942969e+03,
          6.87646729e+02, 0., 0., 0., 0., 2.19717505e+03, 5.47995898e+03,
          7.37446924e+03, 1.39939746e+03, 2040., 0., 0., 0. ]
      - [ 1368., 4.80832596e+01, 3.33096313e+02, 3.89880884e+03, 2776.,
          2.72238861e+02, 8.76395874e+02, 7.35998730e+03, 9.24445801e+01,
          2.28632080e+03, 2.80262207e+03, 3.82504858e+03, 2.05972949e+03,
          0., 0., 0., 2040., 0., 0., 2.03153906e+03, 0., 3.89912866e+03,
          3.37358936e+03, 2.59176025e+03, 0., 0., 0., 0., 2040.,
          6.76659766e+03, 5.04834033e+03, 3.96858887e+03, 9.83334839e+02,
          1.17732520e+03, 0., 0., 1216., 2.73507910e+03, 4.21833252e+03,
          8.06914001e+02, 6.71144678e+03, 4.11662061e+03, 0., 0.,
          5.51859863e+03, 3.32586499e+03, 1.95403601e+03, 4.88792188e+03,
          8.74642792e+01, 4.34162256e+03, 6.37272070e+03, 0., 18., 0.,
          0., 7.86445898e+03, 4.61148877e+03, 4.65540820e+03,
          6.87540625e+03, 0., 18., 0., 0., 0. ]
      - [ 7.17861475e+03, 4.36020313e+03, 3.18966846e+03, 0., 516., 0.,
          2.13002350e+02, 7.83735901e+02, 1.76006189e+03, 3.31090186e+03,
          2.06563647e+03, 0., 516., 0., 4.55030225e+03, 2.59176807e+03,
          6.00054492e+03, 2.83824646e+02, 0., 0., 1.41245154e+03,
          1.58853345e+03, 1.72411804e+03, 4.06509058e+03, 4.33415234e+03,
          7.49533157e+01, 0., 4.78351349e+02, 1.14178943e+03,
          4.91917334e+03, 4.43158350e+03, 7.01634277e+03, 4.06293433e+03,
          1.73882324e+02, 0., 0., 4.67532861e+03, 6.26054297e+03,
          3.73698413e+03, 1.73560571e+03, 4.24345557e+03, 1.52835181e+03,
          1.58883813e+03, 1.93069849e+03, 416., 4.04257153e+03,
          2.18377271e+03, 3.08559082e+03, 9.91082275e+02, 6.74469385e+03,
          3.83921484e+03, 2.06592432e+03, 0., 0., 1.05378090e+02, 0.,
          1.71618005e+03, 6.30005713e+03, 1.07790752e+04, 2.66082080e+03,
          1950., 0., 8.04264648e+02, 1.42695813e+03 ]
      - [ 1984., 6.36396103e+01, 3.86444604e+03, 7.50166895e+03, 2040.,
          9.90225879e+03, 2.30419678e+03, 8.24621105e+00, 2.05150928e+03,
          2.45067337e+02, 4.25588281e+03, 4.22775244e+03, 2.07465796e+03,
          4.47213602e+00, 0., 0., 2040., 0., 0., 0., 2.24017853e+02,
          6.53635681e+02, 4.50035431e+02, 2.11243942e+02, 2.12508820e+02,
          4.10580261e+02, 0., 2.27771820e+02, 2040., 8.88928418e+03,
          2.85038257e+03, 3.75481421e+03, 1.66373633e+03, 1.74916406e+03,
          8.91485291e+02, 1.48337448e+02, 5.15900928e+03, 8.87421484e+03,
          1.72969714e+03, 5.82442993e+02, 1984., 1.17379723e+02,
          3.52525177e+02, 0., 424., 7.44210059e+03, 1.50319299e+03,
          4.66612207e+03, 3.54400902e+01, 4.92694824e+02, 1.91971997e+03,
          2.40149948e+02, 1.20426123e+03, 9.86335571e+02, 0.,
          2.92220947e+03, 5.12461377e+03, 5.59327881e+03, 7.62264014e+03,
          0., 1.87108093e+03, 4.14485199e+02, 2.69406708e+02,
          3.41760139e+01 ]
      - [ 4.20428613e+03, 5.92427832e+03, 1.91864514e+03, 3.22977686e+03,
          4.48606055e+03, 2.75263519e+02, 7.63675308e+01, 0.,
          1.09167969e+03, 2.04228931e+03, 4.32940918e+03, 0., 800.,
          2.17848572e+02, 1.48072607e+03, 2.33392627e+03, 2.84546265e+03,
          0., 0., 0., 7.68924072e+02, 1.15300867e+03, 6.55716406e+03,
          1.78155261e+03, 3.51277637e+03, 1.39333267e+02, 0., 0., 512.,
          4.79688232e+03, 9.31956055e+03, 5.87722607e+03, 1.14666006e+04,
          2.47262378e+03, 2.90299835e+02, 2.21232764e+03, 2.17102344e+03,
          2.41660919e+02, 0., 0., 4.59124072e+03, 3.83085571e+03,
          6.21141553e+03, 1.58967188e+03, 2.05685010e+03, 1.79306848e+03,
          1.68983252e+03, 2.88406616e+02, 2.18996362e+03, 8.90419336e+03,
          3.23654907e+03, 2.67817993e+03, 1.96120776e+03, 0.,
          6.78822479e+01, 1.41760361e+02, 4.48689795e+03, 3.57362183e+03,
          4.66570801e+03, 0., 2040., 0., 0., 0. ]
      - [ 2.17165063e+03, 3.27441260e+03, 1.97401111e+03, 0.,
          5.84525537e+03, 6.24933105e+02, 1.28693436e+02, 0.,
          7.55899512e+03, 1.12149109e+03, 2.90817529e+03, 5.32985742e+03,
          2040., 0., 0., 0., 2016., 1.97989883e+01, 3.84637482e+02,
          3.89578027e+03, 2.16154321e+03, 1.88480164e+03, 4.81533496e+03,
          1.98427319e+03, 6.14912549e+03, 2.54558430e+01, 0., 0., 2016.,
          6.07072559e+03, 2.95570648e+02, 0., 6.32112158e+03, 0., 0.,
          3.16764893e+02, 1.27439561e+04, 6.69207568e+03, 1.97989902e+01,
          0., 430., 1.66883804e+02, 4.03262061e+03, 1.11944946e+03,
          1.00914319e+03, 3.75300537e+03, 1.05162195e+03, 2.00371313e+03,
          4.22465820e+03, 4.86329590e+03, 6.23998975e+03, 2.62955273e+03,
          0., 0., 0., 0., 2.04529822e+03, 1.92639124e+03, 1.45705137e+04,
          0., 2040., 0., 0., 0. ]
      - [ 5.24772900e+03, 9.52004199e+03, 2.57390747e+02, 0., 1818.,
          2.86575977e+03, 1.85261978e+02, 0., 8.14199561e+03,
          2.43590479e+03, 2.67685889e+03, 4.82420264e+03, 4.09303833e+03,
          0., 0., 0., 2040., 1.59806137e+02, 5.09901962e+01,
          4.04240356e+03, 4.06062378e+03, 2.18375391e+03, 4.43354834e+03,
          4.41268457e+03, 4.10819922e+03, 9.89949512e+00, 0., 0.,
          2.11528613e+03, 4.86616553e+03, 4.66769971e+03, 0.,
          4.59910583e+02, 0., 0., 2.31475244e+03, 9.31193945e+03,
          4.61003857e+03, 1.21631934e+03, 1.33704700e+03, 386.,
          4.85875000e+02, 9.11964233e+02, 3.42089600e+03, 1.63830933e+03,
          1.68031128e+03, 3.62473438e+03, 6.39074707e+03, 2.73646924e+03,
          4.56688281e+03, 6.26681836e+03, 3.94293994e+03, 1.06066017e+02,
